/*This file is automatically generated from a Keras model*/

#ifdef HAVE_CONFIG_H
#include "config.h"
#endif

#include "rnn.h"
#include "rnn_data.h"

static const rnn_weight input_dense_weights[1008] = {
   2, -2, 2, 8, 0, 3, 1, -1,
   0, 3, -6, 2, -3, 10, -1, -2,
   2, 1, 3, 4, 1, 0, -11, 2,
   15, 6, 22, 33, 14, -37, -22, 1,
   43, -29, 14, 26, -9, 42, -15, 8,
   -33, 21, -17, 0, -25, -8, 46, 6,
   57, 10, 4, 31, 55, 44, -6, -30,
   4, -43, 58, -7, 6, 69, 23, 78,
   7, 43, -31, 15, -63, 15, -43, -21,
   7, -61, -33, -4, -12, 27, 21, -57,
   -63, -36, 40, -63, -47, -17, 50, -42,
   30, -62, 12, 42, -18, -1, 109, 27,
   -75, -65, -55, -30, -42, -41, 1, -1,
   -73, -100, 25, -103, 28, -4, 82, 42,
   -112, -21, 41, 46, 31, 56, 47, 74,
   -95, 20, -7, -43, -27, -125, -77, 56,
   44, 37, 4, -45, 14, 18, 14, 105,
   29, -53, 14, 27, 34, -31, 38, -109,
   27, 121, 3, -77, -75, -60, 120, 20,
   127, 127, -116, 3, -87, -26, 88, -118,
   115, -3, -65, 22, 26, -94, 92, 43,
   127, 91, -47, 93, -127, -33, -74, 78,
   95, -122, -32, 27, 110, -65, 78, 100,
   -55, 110, 48, -114, 102, 56, -107, -70,
   125, 119, 100, 4, -127, -125, -122, 126,
   -120, 82, -114, -126, -29, -118, 127, 104,
   122, 124, 32, -126, 80, 125, -74, -127,
   113, -2, -21, -89, -128, 54, -127, 125,
   7, 86, 4, -39, -95, 33, -49, 16,
   -11, 95, -15, -83, 27, 12, -98, 105,
   8, 122, -123, -125, -125, 60, -128, 52,
   112, -120, 119, 88, -10, -117, -121, -32,
   -71, -108, 126, 125, 91, -125, 101, -118,
   -31, 96, -122, 123, -120, -47, -100, -23,
   127, -61, 127, 123, -118, -128, -127, -128,
   106, -98, 127, 8, 126, -123, 127, -20,
   120, 126, -56, 21, -57, 123, -112, -64,
   101, 82, 64, 106, -116, 8, -128, 92,
   118, -108, 22, 5, 101, 116, -82, 99,
   119, 106, -14, 65, 127, 127, 91, -54,
   -128, -51, -128, -63, 127, -126, -100, -76,
   -124, -118, -67, 82, 115, -32, 56, -67,
   125, -90, -29, 39, 38, 92, -8, -96,
   -120, -50, 10, 28, 126, -111, 23, -48,
   -37, 118, -125, -98, -93, -112, 88, -124,
   -126, 108, -4, -64, 74, -90, 37, -7,
   106, 127, 127, 117, -128, -6, -106, -36,
   80, -127, 75, 114, 125, -84, 122, 127,
   -120, -81, -123, -127, 108, 110, 113, -120,
   -97, 109, -104, 127, -123, 116, -127, -120,
   -118, -128, 126, 127, 122, -121, -36, 127,
   -128, -37, 118, 37, -7, -71, 31, 41,
   -123, 115, -126, -117, 127, 43, 120, 95,
   123, 113, -123, -117, -123, 57, -126, -121,
   -121, -128, 101, 104, 96, -120, -15, -21,
   -4, 115, 24, -120, 127, -47, 119, 118,
   123, 83, -124, 0, -92, 99, -127, -126,
   -117, -128, -70, -3, 84, 67, 125, -68,
   -128, -116, -55, -15, 86, 122, -40, -125,
   -127, -114, 18, 127, 32, -117, 94, -52,
   42, 125, -121, 107, -128, -55, -128, 52,
   -110, -128, -110, 71, 108, -42, 127, 127,
   55, 112, -65, 88, -25, -94, -90, -99,
   108, -115, 123, 127, 126, -116, -63, 42,
   75, 127, -128, -97, -11, -48, 97, 113,
   -56, 116, -119, -113, -54, 119, -120, 81,
   -125, 127, -123, 124, -51, 127, 62, -126,
   -33, 34, -113, 125, 7, 126, -111, 30,
   -122, -117, -120, 23, 126, -128, -40, 127,
   -125, -71, -109, 124, 51, 25, 82, -92,
   -15, 12, 91, 58, 23, 9, -105, -35,
   -125, -100, -127, -3, 125, -125, 37, 64,
   -89, -128, 107, 39, 127, -95, 127, 90,
   49, -49, 65, -126, 79, 75, -21, 123,
   -41, 53, -127, 42, -127, -30, -40, -127,
   -8, -20, -103, 89, -20, 82, 127, -122,
   -128, 89, -116, -115, 114, 127, 63, -39,
   -29, -53, -117, 119, -128, -127, -116, 49,
   -30, -27, -114, 7, -49, -119, -120, 20,
   -119, 63, 1, -27, 81, -117, -20, -24,
   50, -86, 54, -74, 107, -40, -106, 41,
   -2, 106, 104, -112, -110, 72, -126, 44,
   31, -98, 19, -58, 95, -102, -56, 29,
   110, 63, 118, -74, 54, 55, -106, 65,
   7, -38, 116, -99, -12, -4, 115, 113,
   23, -121, 123, -66, 127, 96, -3, -85,
   -23, 121, 52, 58, 9, -21, 99, 69,
   -35, -87, -13, 79, 10, 90, 101, 123,
   58, -128, 120, -5, 8, -123, 29, 32,
   122, -9, 15, 100, -62, 23, -128, 50,
   6, 5, -124, -35, 52, 0, 60, -29,
   -3, 126, -49, 99, -118, 7, 50, -103,
   -109, 6, -62, -62, -61, 30, -33, -33,
   -66, -47, 51, -126, 3, -18, -49, -114,
   -16, -34, 39, -25, 125, 42, -78, 93,
   -20, -47, -75, -45, -73, -61, 15, 1,
   -52, 20, 124, 81, -70, 115, -26, -21,
   -27, -107, -24, -75, 10, 32, 38, 52,
   119, 43, -11, 21, 20, 38, -17, -24,
   -1, 121, -82, 124, -79, -24, 45, -55,
   -35, 115, -98, -6, -65, -72, 5, -68,
   -98, -47, 97, 13, 83, 73, -23, -59,
   -30, -68, -124, 126, -66, 55, -47, -117,
   -3, 35, 40, -4, -30, 29, -19, 15,
   -75, 7, 34, 113, -103, -31, 15, -35,
   -126, -109, -105, 49, 8, -35, 15, -56,
   -47, 37, -14, 97, -88, 0, 20, -78,
   -59, 19, 4, 60, -35, -32, 27, -20,
   -98, 37, 48, -126, 15, -127, 97, -102,
   -58, 71, -66, 96, -12, 94, -115, 65,
   106, 37, 1, 17, 64, -23, 46, 62,
   -68, -7, 115, 114, 46, -65, 64, 73,
   -8, -27, -6, 33, -10, 26, -37, 4,
   45, -25, -37, -53, 39, 76, -82, -82,
   117, -45, 74, 55, 24, 95, -36, -14,
   -68, -8, -105, 112, -45, 59, -27, -4,
   -35, -23, 39, -34, 11, 73, -58, -50,
   100, 16, 76, -121, 72, 123, 100, 118,
   82, 115, -81, 14, 79, 47, -4, -46,
   99, 40, 16, -80, -39, -10, -127, 95,
   -50, 11, -6, 14, 4, 18, 4, -6,
   -24, -3, -2, -37, -1, -46, 25, 16,
   -12, -6, 7, -33, -8, -12, -49, 31,
   -26, -71, 4, 123, 20, 119, -34, 11,
   -51, -26, 51, -82, -26, -14, 45, -5,
   -5, 70, -103, 1, 125, 19, -90, 6
};

static const rnn_weight input_dense_bias[24] = {
   -33, 18, -44, 25, -3, -21, -22, -11,
   19, -111, -7, 15, 70, -5, -73, -23,
   -14, -56, -23, 15, 87, -12, 124, -17
};

static const DenseLayer input_dense = {
   input_dense_bias,
   input_dense_weights,
   42, 24, ACTIVATION_TANH
};

static const rnn_weight vad_gru_weights[1728] = {
   7, 18, 31, 37, 119, 43, -13, 15,
   -6, -69, 67, 115, 69, 65, 34, 96,
   88, -32, -114, 119, -75, 78, 104, 40,
   10, -80, -59, -1, -46, 0, 19, 124,
   44, 113, 54, 11, 7, 41, 76, 28,
   -42, -78, -35, -47, 123, 40, 24, 79,
   -63, 27, 112, -4, -96, 103, -15, -63,
   -128, -24, -125, 4, 14, 51, -62, -36,
   -74, 127, 76, 57, -33, 4, 43, -127,
   83, -10, -124, -42, -26, -70, -3, -25,
   -25, 24, 8, -127, -5, 100, 23, -36,
   45, 8, -122, 117, 67, -123, 15, 68,
   68, -81, -15, 14, 2, -120, -50, 16,
   -58, -19, -15, -32, 57, 9, -96, 37,
   -88, -74, 105, 48, 109, 80, 127, -127,
   -21, 84, -12, 22, -51, 40, 37, -88,
   -71, 72, -108, -126, 48, -38, -34, -109,
   1, 127, -7, -47, -38, 76, 100, -59,
   81, 64, 59, -97, 108, 14, 34, 123,
   54, 55, 44, -45, 15, 3, 60, 42,
   12, 40, -85, -119, 33, -126, 37, -35,
   48, -11, 47, 127, -21, 28, 65, 109,
   -22, -19, 34, 79, -15, 80, 1, -1,
   67, -43, -89, 5, 51, -61, 83, 71,
   51, 21, -10, 56, 1, 20, 10, -23,
   15, -89, 126, 27, -2, 58, -54, 64,
   -25, 39, -19, 1, 34, -70, -71, 3,
   -11, -127, -45, 63, -17, -128, -83, -123,
   -23, -29, -60, 72, -39, 71, -18, 25,
   33, -42, -4, -17, 56, 16, -28, -128,
   7, -126, -24, -120, -46, -71, -124, -14,
   -105, -39, 25, -96, -99, 73, 55, -66,
   -58, -8, -125, -85, -38, -1, 13, -41,
   -11, -12, -75, 2, 103, 21, -87, 6,
   40, 47, 26, -53, -36, 48, 48, -34,
   12, 2, 113, -20, 16, -45, 0, -21,
   -121, 30, 11, -102, -89, 48, -126, 62,
   -118, -83, 68, -125, -104, 33, -123, -91,
   -119, -126, -127, -54, -86, -75, -47, -116,
   -128, -120, -13, 124, -13, 14, -106, -106,
   -88, -126, 79, 13, -128, -104, -117, 12,
   -91, -6, -126, 17, -127, -124, -86, -50,
   127, -123, -70, 97, 59, -127, 34, 127,
   44, -25, 126, 123, -29, -25, 37, 35,
   0, -5, 61, 18, -37, 44, -91, 65,
   -102, 73, -125, 17, 13, 32, -128, -53,
   15, 4, -42, -25, -90, 44, 10, -104,
   -88, 73, 11, -83, 120, -94, -114, -3,
   -22, 26, -5, -54, 20, -24, -10, 2,
   3, 12, 83, -113, -55, 12, 60, -117,
   8, -64, 127, -54, 80, 94, 7, -17,
   -1, -61, 38, -81, 38, 4, 19, 59,
   24, 83, 19, 28, 59, -28, 36, -27,
   -57, 69, 31, -5, -14, -12, -49, 46,
   46, 24, -126, 31, 27, 63, 55, 86,
   47, 24, 3, 119, -28, -68, -110, -118,
   -31, 40, -80, 105, -92, -29, -47, 49,
   -127, -1, -124, 86, 70, -58, -116, 52,
   -76, 13, -128, -117, -30, -29, -117, -48,
   -66, -127, 13, 0, -128, -52, -93, 16,
   27, -80, -14, 25, -60, -128, -70, 57,
   63, -42, 73, 53, 18, -27, 41, 2,
   -28, -60, -19, -57, -14, 17, -85, 110,
   104, -16, -34, -31, 84, 69, 38, -17,
   17, 75, 109, 51, 86, 76, 27, 121,
   90, -3, 59, -22, -115, -64, 121, 108,
   47, -3, -68, -45, -65, -34, 56, 122,
   34, 117, -119, 51, -15, 55, 54, 60,
   116, 68, -43, -42, 121, 87, -74, 122,
   -6, 40, 109, -101, -14, 88, 67, -52,
   -108, -95, -44, -74, -87, 11, -124, -17,
   -17, 69, -59, 56, 72, 75, 24, 3,
   41, 30, 26, -15, -8, 118, 60, 0,
   -7, -74, 60, -117, -5, -100, 37, 48,
   -63, 26, -20, 47, -105, 28, 101, 127,
   -26, -18, -22, 97, -55, -28, -24, 44,
   65, 109, -20, 103, 64, 71, -11, 66,
   -125, -40, -25, 75, 97, 62, -115, 120,
   13, -58, -23, -15, 63, -21, 33, 53,
   17, -6, 45, -62, 34, 121, -65, -44,
   35, -23, 126, -16, 14, -26, 69, -23,
   41, 127, 80, 32, -39, 124, 81, 126,
   127, 29, 51, 6, -71, -52, -49, -124,
   6, 15, -56, -77, 111, -91, 84, 10,
   -124, 125, -114, 11, 11, -9, 72, -18,
   17, -15, 73, -28, -12, -23, -28, -113,
   68, -77, -1, 50, -56, 21, 36, -33,
   -42, 20, -10, -71, -66, 47, -25, -50,
   23, 87, 8, 78, -33, -9, 45, 21,
   -47, 72, -36, -34, -5, -98, -27, 40,
   -102, -122, -9, -105, -42, -82, -47, -86,
   -93, 81, -85, -126, 8, -42, 113, 5,
   -49, 61, -15, -88, -54, -102, -124, -123,
   28, -126, 124, -92, -84, -34, 123, -126,
   119, 123, -65, 90, -85, -1, 64, 52,
   -110, 103, -23, -36, -99, 75, -116, 14,
   125, -125, 93, 24, 44, -126, 13, 90,
   50, -67, 11, 64, 43, 52, 42, 16,
   -56, -125, 13, 1, 38, -2, 56, 80,
   -116, 33, 42, 113, -70, 48, 40, 25,
   73, -54, 19, -13, 8, -74, -41, -114,
   -41, -53, -105, 120, 119, -23, 127, 75,
   -27, -21, -92, -32, -27, 5, -80, 29,
   -125, -39, 53, -71, -8, -39, -95, 57,
   -88, 10, 44, 42, -20, 12, -71, -127,
   55, -94, -87, -2, 75, -85, -86, 107,
   89, 104, 19, -25, 80, -2, 75, 80,
   -32, -87, 91, 83, -43, 70, 97, 49,
   39, -6, -2, -83, -126, 85, -107, -11,
   1, -18, 18, -40, -29, 13, 20, -124,
   29, 89, 0, -117, -2, -9, -7, 28,
   62, -50, 79, 24, -1, -39, 4, -50,
   11, -46, 21, 0, -120, -108, 25, 6,
   -45, -63, 60, -49, -98, -77, 61, -56,
   -29, 44, 36, -57, 2, 19, 20, -48,
   44, -9, 18, 3, 10, -80, -32, -14,
   14, -49, -33, 35, 81, 8, -10, 40,
   -78, -92, -27, 110, 38, 23, 59, 27,
   90, -45, 71, -128, 22, -17, -58, -24,
   -40, 82, -33, 15, -24, 23, 77, -28,
   48, 20, 15, -49, -48, -63, -88, 94,
   37, -36, 63, -98, -41, -44, -51, -29,
   93, -35, -57, 13, -65, -25, -3, 3,
   -23, -57, -65, 7, 111, -84, -72, -6,
   41, -5, -7, 45, -76, -12, 22, 114,
   44, -46, 51, -14, 16, 16, -53, 17,
   115, -26, -11, 75, 106, 28, 1, 27,
   -23, 34, -4, 126, 118, 123, 12, 121,
   108, -23, 127, 109, -55, 122, 15, 53,
   -48, -115, -116, 62, -125, 39, 26, 21,
   -8, -21, 69, -66, -27, 124, 28, -28,
   -22, -23, -109, -115, 76, 88, 77, 100,
   -65, 2, 64, 1, -8, 102, 124, -23,
   -86, -111, -51, 49, -48, -9, -4, -97,
   -7, 118, -71, 80, 81, -42, -26, -83,
   124, 112, 10, -95, 99, 123, 124, 42,
   127, 124, 123, -126, 78, -18, 125, 19,
   22, -31, 56, 30, 93, 12, 15, 3,
   63, -106, 123, -35, -113, -108, -35, 81,
   116, 2, 127, -48, -114, -14, -15, -78,
   8, 107, -84, -57, 2, -57, 16, -28,
   36, 86, -39, -58, 15, 84, 79, -100,
   17, -52, -7, 5, 26, 38, -35, -67,
   -41, 65, -26, 44, 72, 104, 53, -52,
   108, 125, 7, -30, 119, 100, 2, 125,
   35, -32, 113, -23, 12, -11, 46, 16,
   90, 20, 49, -36, -2, -53, 60, 32,
   -14, 72, -119, 2, -61, 48, 83, 33,
   119, -52, 45, -36, -70, 63, -2, 50,
   -25, 48, 10, -41, 9, -4, 114, 0,
   -121, 62, 66, -26, -109, -4, 51, -114,
   -64, -10, 1, 56, 14, 50, -51, -33,
   -44, 100, -3, 75, 12, -30, 52, -47,
   53, 127, 127, -105, 85, 127, -23, 127,
   121, 109, 101, 31, 0, 124, 102, -34,
   62, 120, -33, -119, 68, -43, 110, 49,
   100, -10, -32, -49, 82, 28, 49, -15,
   120, -74, 33, 7, -99, 1, 78, -21,
   89, 103, -125, -53, 12, 29, -6, 55,
   -23, 56, 26, -52, -70, 84, 60, -120,
   -54, -91, -43, -15, 54, 40, -80, -95,
   -20, 13, -106, 20, 75, -10, -57, -126,
   -123, -10, -2, -97, -126, 75, 10, 83,
   65, -35, -19, 121, -92, -125, -17, 61,
   -122, -79, -122, 97, -10, 120, 100, 17,
   -97, 69, -18, -8, 95, 33, 122, 127,
   -72, 120, -52, 127, 62, -102, -54, 119,
   -124, 29, 123, 68, 100, 94, -127, 50,
   67, -88, 66, 127, 65, -15, -85, 78,
   -47, -39, -41, 43, -9, 40, -23, 16,
   -30, -41, 11, 1, -81, -59, 101, 91,
   -128, -128, -33, -88, 12, -109, -121, -54,
   -22, -126, -128, -53, -93, -128, -126, 21,
   -57, 124, 74, 124, 93, 102, -128, -101,
   -104, 40, 122, -99, 28, -100, -14, -55,
   50, -27, -117, 26, -58, -91, 23, 31,
   26, -78, 46, -34, -124, -111, -114, -101,
   111, -118, -12, 116, 124, -127, 24, 100,
   110, -18, 94, 33, -10, -123, 123, 37,
   -3, -125, -22, -113, 5, 51, -14, 119,
   54, -83, -126, -89, 28, -104, -4, -124,
   -54, -89, -70, -75, -118, -11, 31, 58,
   55, -80, 56, -126, 71, -5, 60, 34,
   -30, -123, 21, -78, 37, -124, -21, -74,
   -91, 68, -126, 52, 79, -127, -100, -16,
   -5, -127, 127, 5, 127, 127, -125, -107,
   -61, -32, -49, -32, 39, 85, 72, -72,
   -28, 123, -104, -82, -60, -65, 64, 18,
   60, 10, -45, -49, -9, -68, 127, 82,
   80, 36, 55, -29, 5, 26, -119, 15,
   21, 34, 44, 122, -9, -11, 92, 68,
   -36, 34, 47, 10, -77, 119, 49, 1,
   104, -51, -10, -98, -83, 73, 81, 123,
   82, -104, 105, 84, -94, 3, -106, -66,
   5, 88, -101, -63, -80, -57, -32, -14,
   -49, 121, 116, -18, 18, 73, 99, -97,
   -27, -10, -59, 39, 68, 68, -69, -17,
   9, 120, 0, 69, 105, -16, 66, -109,
   -83, -119, -83, 70, -82, -121, -77, -109,
   -128, -125, -124, -125, 30, -71, -69, 126,
   74, -120, -44, 109, -120, -3, -64, -102,
   31, -29, 18, 102, -10, -29, 13, -23,
   9, -2, -18, 9, 96, 13, -41, 13,
   -25, -85, 25, 50, 62, -15, -66, -51,
   -22, 0, -7, 100, 18, -48, -25, 59,
   49, 32, 117, 31, 18, -59, 39, -31,
   68, 44, 63, 22, 17, 52, -46, 17,
   19, -80, -44, -3, 76, 8, 30, 0,
   -92, -69, -106, 13, -7, -127, -112, 91,
   -88, -7, -40, -23, 55, 74, 39, -120,
   -27, -4, -58, -14, 98, -74, -77, -46,
   -124, 66, -60, -11, 64, -41, -9, 48,
   33, -64, 78, 37, -66, 33, -80, -54,
   55, -16, -42, 109, 5, 7, 25, 80,
   52, 97, -20, 75, -30, 24, -65, 14,
   -28, -51, -22, 8, -67, -24, 110, -69
};

static const rnn_weight vad_gru_recurrent_weights[1728] = {
   127, 114, -13, -109, 76, 123, -17, 70,
   62, 82, 37, -80, -22, 68, 113, 75,
   76, 69, -14, 119, -48, -42, -110, 85,
   11, 13, 27, 11, 68, 26, 66, -19,
   49, 3, -16, 122, -21, -84, 38, 61,
   26, 66, 68, 119, 2, 39, -51, 78,
   39, -99, 81, 22, 83, -57, -54, 93,
   21, -15, 21, 22, 126, -93, 109, -50,
   38, -7, 39, 5, -30, -25, -8, -17,
   -39, -128, 0, 32, -33, -128, -123, -128,
   -84, -61, -127, 16, 42, -69, -66, 7,
   13, -42, -13, -98, 2, 43, -57, -99,
   73, -32, 40, -8, -13, -27, -53, -6,
   -39, -47, 20, -9, 58, -60, -13, -99,
   -19, 10, -82, -80, -5, -3, 25, -122,
   -109, 29, 23, -19, 52, 116, 53, -126,
   -50, -37, -102, 43, -39, 33, 18, -21,
   -43, 17, 75, 76, 61, -69, -26, -72,
   70, -7, -120, -65, 11, -59, 64, -126,
   68, 46, -108, -78, 125, 126, 86, -26,
   119, 15, 30, -94, -43, 11, -57, -40,
   20, 31, 3, -24, -34, 19, 115, -74,
   27, 31, -57, 0, -27, 4, 6, -96,
   79, -84, -1, -109, 122, 75, 17, 127,
   -70, 109, -23, -85, -55, 120, 119, -27,
   -115, -120, -66, -117, 107, 37, -113, -6,
   -126, 38, -34, 117, 99, 70, 58, -22,
   115, 127, 26, -86, 95, 127, 80, 127,
   92, 44, 77, -30, 17, 83, 69, 119,
   74, 53, 54, 24, 67, -62, -18, 99,
   -53, 121, -43, -42, 76, -23, 68, -34,
   83, 95, -23, -62, -3, 127, 101, 79,
   114, 92, 35, -56, 54, -3, -15, 120,
   -125, 102, 125, 87, -95, 127, 55, -126,
   -115, -55, -128, 31, 58, 41, -66, 58,
   -93, 75, -61, -10, 126, -109, 121, -24,
   86, 24, -16, -86, 94, 38, 59, 47,
   55, 10, 1, 62, 16, 103, 18, 80,
   81, 54, 127, 88, 10, 29, 39, 4,
   16, 3, 10, -125, -3, 12, 22, -18,
   90, 70, 82, -6, 12, 127, 108, 50,
   30, 18, 15, 10, 127, -42, 82, 80,
   57, -127, -24, -22, 127, -124, -121, 127,
   79, 125, 53, 80, 69, -14, 16, 14,
   110, -9, 16, -23, -57, 3, -57, 3,
   -13, -128, 9, 25, -29, -128, -87, -128,
   -9, -56, -105, 20, 31, -68, -120, -33,
   -12, -69, 3, -12, 56, 75, 42, -125,
   -22, 68, -25, 44, 5, -42, -30, 33,
   -97, 12, 5, 14, 58, -6, -31, -122,
   49, -67, -18, 28, -9, -92, -23, 37,
   -22, 124, 63, -24, -8, 67, 50, -128,
   15, -2, -33, -28, -43, 14, 5, -31,
   -90, 32, 0, 6, -47, 11, 35, 25,
   -126, -128, -14, 21, -66, -128, -114, -126,
   -114, -55, -127, -89, -63, -21, -12, -58,
   -10, -89, -29, -23, -5, 88, -127, 7,
   -6, -15, 33, 33, -52, -40, -3, 50,
   -23, -54, 0, -51, 32, -62, -13, -5,
   -40, -44, 19, -68, -59, -41, 10, -48,
   -57, 116, 37, -77, -24, 118, 120, -116,
   -61, -86, -115, -126, -104, -54, -86, -21,
   -122, -45, -53, 65, 122, 76, 122, -55,
   -83, 127, 45, -16, 32, 127, 58, 127,
   27, 16, 127, 29, -42, 81, 25, -66,
   38, 9, -62, 106, -49, -66, 127, 37,
   -8, 18, 8, -58, 23, 0, 29, 32,
   104, 32, 6, -17, -76, 38, 4, 71,
   -80, 25, 44, 32, -28, 60, -38, 77,
   99, -57, 47, -28, 49, -92, -3, 13,
   45, -46, -71, 98, 79, -11, 1, 65,
   12, -83, -53, -62, -7, -56, 12, -1,
   -110, 90, 119, -49, -108, 113, 127, 118,
   81, 19, 127, 28, -99, -73, -126, 1,
   -121, 48, -92, -57, 73, -34, -118, -31,
   13, 89, -25, -64, 72, 47, -49, 27,
   82, -39, 112, -30, -33, -17, -1, -53,
   99, 115, 1, 16, -9, 47, 84, 82,
   127, -73, -75, 41, -12, -99, -128, 127,
   89, 10, 35, 127, 113, -37, 0, -10,
   72, -23, -11, -126, -12, -109, -125, -42,
   -33, 88, 39, 14, -68, 21, -44, -52,
   -88, 76, 21, 79, -25, -41, 55, -38,
   -99, -75, 78, 79, -31, -95, 31, -121,
   30, -54, -5, -68, 97, -30, -17, -98,
   -24, -2, -37, 83, 0, 83, 27, 112,
   -35, 91, 17, 121, 65, 122, -64, 6,
   108, -116, -109, 53, -19, -111, -35, 81,
   100, 114, 62, 84, 20, -21, 51, -18,
   126, -51, 30, -31, -88, 2, -118, 97,
   -34, 127, 84, -22, -18, 127, 9, 127,
   -23, 91, 100, -68, -122, 125, 81, 86,
   12, 94, -46, -59, 17, -18, -54, 92,
   28, -15, -56, 4, 13, 48, -16, -57,
   115, -86, 2, -44, -59, 69, -2, 97,
   -39, -14, 2, -24, -94, 31, 19, -68,
   84, -126, 22, 51, 123, -125, -127, 127,
   76, 48, 124, 127, 44, -41, 59, -27,
   121, -40, 17, -23, 8, 44, -90, 2,
   89, 127, 124, -35, 127, 127, 124, 127,
   124, 123, 127, -38, -18, 14, 109, 87,
   -17, 127, -32, 19, 119, 8, 125, 84,
   -60, 89, -1, 10, 54, 101, 29, -21,
   27, 54, 27, -16, -53, 4, -44, 27,
   51, 54, 32, 20, -14, 38, -13, 67,
   3, -75, 25, 38, -22, -24, 23, 27,
   -44, 2, 75, 127, 30, 126, -64, -84,
   -34, 49, 12, 44, -10, -8, -70, -64,
   125, 121, -69, -107, 21, 111, -2, 72,
   -74, 67, 16, -48, 67, 83, 44, 117,
   0, 21, 38, 20, 97, -80, 22, -5,
   -30, -38, -12, -33, -9, -84, -97, 0,
   -76, 71, -78, -68, 7, 109, 122, 100,
   48, -125, -16, 101, -65, 84, -12, 61,
   31, -99, -97, -20, 122, -90, -127, 24,
   121, 52, 77, -17, 56, -11, 70, -128,
   101, -115, 90, -10, -4, 118, -98, 15,
   -128, 31, -45, 32, -20, 8, -128, 13,
   -119, -114, 13, -28, 26, 3, -19, 121,
   -59, -78, -123, 126, -68, 44, 0, -99,
   -58, -45, -70, 52, -122, 13, -63, 81,
   0, -5, -118, -61, -83, 37, -34, 108,
   -76, -72, -82, -51, 117, -75, -111, 3,
   -61, 96, -18, 10, -30, 11, 124, -112,
   -104, -65, -42, -108, -120, 83, -60, 10,
   -80, -50, -29, 67, 47, 125, 80, -94,
   127, -126, -47, -83, 30, -126, 31, -123,
   -107, 64, -120, 3, -9, 59, 24, 21,
   116, -59, 127, -66, -99, -31, -79, -82,
   -12, -88, -92, -58, 45, 28, 122, -62,
   56, 15, 23, 87, -29, 64, 61, 52,
   -6, 28, -4, 80, 3, 65, -50, 12,
   102, -121, -13, 31, 71, -67, -80, 81,
   -10, 77, -62, -82, 84, 13, 13, -8,
   84, 25, 62, 82, -57, -12, -37, 48,
   32, -37, 40, -85, -37, -66, -123, 14,
   -125, -123, 33, -124, -124, 19, -116, -12,
   117, -123, 11, 105, 67, 121, 56, 125,
   -76, -69, -8, -51, -12, -81, -40, -43,
   41, -55, 14, -55, -66, 127, 0, -71,
   -116, -28, -20, -54, -97, -127, -24, -56,
   -65, 127, 51, -25, -17, 109, 123, -128,
   -120, -80, -45, -85, -125, 90, -83, 25,
   -101, 64, -66, -20, 127, 123, 46, -20,
   119, 0, 15, -104, -16, 12, -53, -28,
   17, 7, -57, -7, -23, 110, 72, 118,
   123, -16, 125, 52, -44, -94, -69, 50,
   4, -22, 40, -39, -15, -22, 27, -64,
   -12, -54, -32, 66, -37, 76, 43, 113,
   45, 76, -32, 90, -116, -53, -115, -11,
   83, -120, -38, 39, 120, -111, -93, 119,
   -14, 13, 96, -38, 41, -23, 31, 122,
   125, 3, 89, -12, -90, -93, -87, 17,
   66, -24, -97, 53, -38, 0, 28, -71,
   74, -93, 43, -109, 87, -96, 48, -54,
   97, -108, 10, 95, -128, -50, 48, -103,
   -110, -31, -48, 120, -13, -67, 24, 30,
   -27, -95, -31, 47, -66, -52, -38, -92,
   73, -60, 30, -13, 23, -2, 62, -113,
   -53, 90, 41, -122, -119, 98, 72, -67,
   -119, 6, -125, -128, -18, 89, -15, 73,
   -64, 38, 31, 66, 70, -52, 127, -49,
   121, -83, -74, -47, -33, -51, -93, -92,
   -13, -16, -119, 29, -105, -21, 19, 55,
   -17, 98, 42, 59, -125, -101, 120, -55,
   126, -11, 40, -1, 7, -51, -5, 0,
   -44, 48, 26, 90, 48, 102, 120, 92,
   -38, 10, 33, 18, 127, 33, -25, 119,
   67, -122, -98, 39, 120, -122, -127, 115,
   127, 37, 94, 35, 125, 4, 64, -21,
   126, -97, 127, -116, -115, 20, -127, 124,
   -31, -128, -107, -4, -83, -128, -127, -128,
   27, -57, -119, -49, 110, -5, 16, 32,
   -39, -122, -9, -62, -51, -2, -123, -128,
   88, 41, 67, -1, 123, -117, 54, 9,
   86, 50, -2, -100, 94, 7, 73, 34,
   96, -40, 14, -46, 100, -6, 24, -27,
   52, -38, -46, -16, 37, -81, -86, 76,
   108, 39, 49, -95, 48, -89, 65, 38,
   90, -84, 93, 29, -70, -87, -55, 72,
   118, 104, -9, 41, 12, -15, -69, -2,
   7, 47, 98, -123, 68, 121, 96, 116,
   122, -26, 127, -56, 71, 71, 39, 120,
   21, -43, 94, -52, -31, 51, 70, -41,
   17, -34, 3, -63, -54, 38, 10, -22,
   121, 56, -15, -84, 7, -59, 3, -20,
   -72, 54, 3, -29, -40, 58, 25, -119,
   -124, -31, -86, 14, -102, 119, 34, -58,
   -81, 93, -37, 127, 27, 36, 42, -124,
   -115, -128, 103, 92, -118, -126, -119, -122,
   -115, -128, -127, 16, 44, -16, -114, 72,
   -75, -104, -100, 127, -96, 123, -70, 31,
   26, -45, 123, -27, -26, -96, -6, 37,
   18, 66, 42, -29, 96, -81, -107, 102,
   -28, 96, 47, 56, 112, -49, -39, -114,
   -4, 12, -41, -67, -6, 103, 3, -84,
   -96, 43, -128, -119, -36, -123, -26, -11,
   17, -4, 38, -83, -31, 126, 126, 55,
   -93, -121, -115, -4, -126, -127, -66, -128,
   -111, -109, -127, -5, 88, -102, -100, -19,
   61, -126, -88, 37, -59, 26, -43, -87,
   36, 50, 8, -62, -53, -84, -32, 43,
   -66, 25, -23, -61, 121, -33, -39, -33,
   -26, 50, 29, -55, 77, -93, -53, -9,
   -105, 127, 46, -99, -88, 127, 127, -128,
   -108, 6, -103, -127, -125, 85, -109, -60,
   -28, 64, -59, 57, 121, 93, 100, -115,
   -109, -22, -4, -36, -118, -53, -79, 36,
   -123, 127, -72, -75, -126, -113, -112, -125,
   -108, 127, 115, -128, 61, 14, -118, 121,
   4, 76, -71, -33, 18, 58, 63, 19,
   2, -17, -103, 52, -31, 105, 19, -7,
   -6, 81, 76, 40, 18, -29, 15, 56,
   85, -97, -125, 65, -31, -82, 8, -20,
   101, -18, 127, 51, -27, 82, 93, 51,
   60, -113, -5, -36, 16, -96, -111, 96
};

static const rnn_weight vad_gru_bias[72] = {
   -17, -122, -85, 89, 19, -124, -73, -123,
   -126, -21, -124, -77, 88, 25, -42, 126,
   76, -67, 72, 52, -64, 50, -106, -96,
   52, -16, 15, -27, 18, -4, 68, -21,
   23, -26, 4, -15, 66, 9, 17, 73,
   78, -1, 55, 20, 51, -5, 47, -3,
   -8, -11, 6, 51, -29, 12, 9, 0,
   -2, -16, -13, -19, -36, -1, -23, -3,
   5, 14, -12, 3, 8, 35, 4, -7
};

static const GRULayer vad_gru = {
   vad_gru_bias,
   vad_gru_weights,
   vad_gru_recurrent_weights,
   24, 24, ACTIVATION_TANH
};

static const rnn_weight noise_gru_weights[12960] = {
   -7, 13, 53, 29, 61, -14, 0, -95,
   70, 10, -12, -32, 43, -2, 4, 63,
   20, 109, 27, 20, -23, -6, -74, -17,
   15, -109, 0, -25, 31, 37, -12, -66,
   9, -92, 3, 12, 69, -31, 74, 51,
   33, 4, 33, 67, -59, 41, -39, -51,
   -25, 22, -4, -21, -33, -62, -14, 28,
   6, 47, -33, -17, -23, 72, -6, 21,
   57, -36, 61, 2, 4, 73, -14, 21,
   5, 47, -26, 15, -38, -50, 85, -33,
   -38, -15, -43, -45, -16, 35, -36, 23,
   86, -19, 33, 52, 46, -57, -33, 87,
   -25, 63, -18, 6, -22, 0, 69, 3,
   -2, 64, 29, 3, 34, 28, -41, 21,
   -22, 8, -28, 34, 12, 20, -60, -28,
   4, -24, 14, 17, 16, 4, 29, 9,
   5, -3, -6, 26, -26, -45, 2, 43,
   28, 16, 3, -23, 6, 25, -1, -23,
   40, -39, -125, 42, -80, -35, 5, -13,
   -95, 21, -27, -98, 37, -38, 10, -25,
   55, -20, 17, 12, 26, 17, 4, -9,
   1, 34, 2, 48, 82, 74, -74, 40,
   6, -57, -31, 12, -12, 56, -102, 50,
   27, 0, 94, -3, -49, -40, 60, -51,
   -43, 47, 18, 9, -31, -39, -63, -16,
   -36, -9, 30, -9, 46, 44, 15, -27,
   -38, -59, -79, 34, 1, 62, -38, 82,
   -39, -3, -3, -31, -65, -81, 28, -4,
   -3, -127, -4, -39, 14, 30, -47, 77,
   11, -57, -93, -50, 12, 5, -72, 10,
   -10, 45, 24, 55, 14, -46, 19, -15,
   -7, -18, 61, 26, -7, -40, 18, -22,
   61, -24, -46, 35, 1, -27, 44, -9,
   12, -2, -51, 44, 6, -13, 40, 9,
   -29, 24, 45, 18, -3, -14, 24, -63,
   19, 42, -47, -50, 1, -33, 20, 12,
   97, -70, 116, 1, 2, -41, 19, 124,
   -6, -11, -24, 26, -8, -50, -16, 8,
   79, -38, 19, -27, 74, 21, 94, -47,
   124, -16, 47, 22, 10, -64, -51, 73,
   6, -10, -30, -19, -51, 60, 81, 20,
   83, -5, -58, -126, 58, -28, 56, -73,
   -28, -47, -5, -10, 93, 55, 88, -19,
   -35, 28, -49, 7, -45, -63, -103, -19,
   51, -79, 22, 13, -21, 35, -27, 24,
   22, -47, 13, 37, 85, -17, 18, 32,
   26, -6, -58, 36, -20, 55, 55, -67,
   -24, -9, 50, 25, -8, -55, -88, -44,
   57, 15, -28, -47, 10, 53, -33, 45,
   44, -24, -22, 11, 50, -51, -118, -24,
   19, 23, 38, 70, -57, 14, -14, 67,
   47, -24, 11, 13, -27, -16, -1, 0,
   57, 49, -12, 2, 59, -34, 28, -72,
   -46, -33, 59, -2, 0, -12, -23, -62,
   59, -124, 90, -17, 112, 78, -41, -37,
   69, 9, 5, 41, 21, -6, 20, 31,
   -43, 2, -40, 35, 1, 11, -52, 33,
   34, 44, 22, -5, -5, 115, -74, 25,
   10, -4, 19, 36, -23, -9, 6, 42,
   1, -45, -1, -51, -51, -16, -54, 12,
   -50, -76, -1, 30, 22, 14, 106, 1,
   30, 29, -53, -3, 14, 27, 6, 35,
   12, 25, -8, -42, -63, 5, 16, 50,
   -40, -22, 46, 62, 44, 40, -65, 54,
   12, -17, 68, -86, 39, -49, 48, 80,
   -31, -33, 17, -84, -53, 44, 13, 3,
   -47, -20, -20, -27, 19, 51, 10, -27,
   14, 52, 30, 8, -15, -4, -18, 9,
   51, -20, -1, 4, -12, 12, 1, 1,
   22, 29, 8, -22, 48, -7, -5, 13,
   -16, -20, -9, 0, -7, 1, 37, -6,
   -6, 30, 10, 32, 16, 22, -4, -50,
   -41, -8, 51, -34, -94, -2, 26, 51,
   57, 11, 17, 43, 11, 74, -84, 11,
   2, 57, 28, -26, -30, 26, 61, -79,
   66, -35, -15, -44, -13, 24, 23, 66,
   6, 102, 7, -51, -20, -42, -17, -31,
   3, -114, -71, -110, 1, -71, -29, -18,
   4, 41, 70, -47, 25, 15, 29, -64,
   71, 9, -33, -54, -5, -4, 28, 1,
   59, -5, 69, 12, -26, 19, 69, 21,
   99, -18, 65, 59, -57, 20, 53, -45,
   -11, -65, -30, 5, 25, -42, 27, -58,
   -6, -28, 83, 49, -30, -51, 2, -22,
   10, 24, 7, -28, 60, 21, -36, -19,
   21, 22, -16, 22, 25, -33, -19, -1,
   11, 14, 21, 19, -10, 27, -47, -7,
   19, -14, -24, -29, -4, 14, 4, -58,
   -43, 29, -18, -11, -23, -26, 63, -61,
   -29, -35, 13, -25, -14, -14, 1, 23,
   19, -49, -48, -27, -5, 66, -4, 35,
   -23, -1, -8, -56, -45, -32, -8, -25,
   -58, -24, 16, -25, -64, -15, -43, -51,
   -4, -6, 5, -35, -19, -106, -41, -15,
   -41, 62, -8, -11, -29, -20, 13, 60,
   -73, -86, -44, 43, 7, 46, 49, -32,
   13, -77, -18, -24, -79, 50, 27, 36,
   25, -8, -36, 8, -16, 36, -49, -33,
   -5, -13, -6, -36, 56, -47, -5, -1,
   32, -76, 23, -18, -6, 29, -24, -52,
   -51, 29, -25, 8, -22, -57, -40, -43,
   -39, -4, 38, -40, 84, -6, -51, -32,
   9, 11, -16, -26, 8, 34, 33, 5,
   -17, -32, -18, -46, -17, -37, 26, -5,
   -50, 6, -23, -33, 46, 13, -10, -37,
   11, -5, -36, -11, -67, -12, 13, -26,
   -36, -2, -13, 14, -38, -15, 8, 63,
   51, 50, 8, 12, -34, 31, 26, -20,
   18, 1, -79, 11, -53, 28, 76, -26,
   18, 40, 19, 45, -1, 4, 25, 11,
   -17, -42, 9, -50, -9, 7, -23, 15,
   28, 51, 46, -68, -10, -21, 23, -90,
   -33, -8, -44, -78, -54, -1, 10, -31,
   47, 15, -33, -40, 10, -9, -6, -22,
   -5, -17, -1, 31, 0, 40, -18, 21,
   33, -59, 43, 27, 22, -24, -27, -33,
   -22, 5, -15, 49, 45, -40, 3, 4,
   80, -15, -32, 38, -74, -4, 5, -41,
   -46, 0, 21, -19, 12, 24, -64, 3,
   -40, -19, -44, 61, -32, -61, 6, -4,
   -14, 3, -16, 30, -16, 27, -18, -5,
   -22, -41, 12, -9, -26, -23, -33, -15,
   -28, 1, 16, -17, 41, -40, 69, -38,
   -30, 26, 10, -1, -15, 6, -69, -43,
   35, 18, 8, -9, -40, 17, 14, 15,
   -30, -26, 5, -27, -35, 15, -15, -9,
   67, -101, 46, -56, 9, -37, 4, 48,
   31, -28, -9, 83, 41, -35, 7, 15,
   15, 64, 36, -6, 109, -40, 14, -47,
   41, 12, 1, 109, 95, -28, 92, 45,
   4, -102, -6, -59, -38, -69, -22, 70,
   84, -97, 11, -35, 56, -6, -13, -70,
   -54, -11, -26, 77, 83, 24, 27, 21,
   -2, 59, -65, 27, 74, -21, 40, -43,
   24, -57, 42, 8, 34, -8, 14, 33,
   -33, 8, 21, 14, 69, 76, -15, 62,
   -39, 97, -65, 95, -94, -10, 44, 4,
   26, -49, 56, -68, 63, 15, -61, -21,
   -20, 26, 38, -4, 2, -6, 1, 21,
   -21, 34, -37, -52, 15, 21, -10, -17,
   3, 7, -61, 24, -14, 7, -48, 12,
   -34, -12, 68, -1, -1, -41, 84, -72,
   28, 1, 16, -14, 1, 27, -24, -38,
   -34, 39, 19, 16, 6, -85, -18, 25,
   14, -1, -21, -89, -46, -19, -56, 119,
   1, -3, -36, 0, 32, -33, -9, 4,
   22, 24, -57, -32, 127, 1, 95, -2,
   40, 52, 5, -75, 50, 7, 75, 19,
   15, 20, 7, -64, 9, -23, 56, -3,
   12, 118, 13, -74, -6, -13, -35, 17,
   8, -104, 51, 48, 50, 14, -48, 18,
   2, 110, -15, 35, -60, 14, -13, 16,
   -103, -77, 0, -54, -13, -1, 68, -29,
   4, -32, -26, -9, -62, 45, 7, 42,
   10, 42, 1, -55, -89, 27, -9, 13,
   48, -41, -12, 13, 11, 74, 78, -28,
   -44, 6, -38, 15, 26, -12, 1, -2,
   32, -18, 3, -5, -15, -34, 6, -16,
   -6, -8, 29, 37, 0, -14, -4, 38,
   -26, -9, 44, -16, -9, -1, 11, 18,
   -9, -35, 39, -1, -51, 21, 5, -21,
   -23, -20, -10, 34, 10, 43, 8, -16,
   -44, -72, -12, -25, 25, 67, -91, 54,
   65, -24, -6, 9, 18, -20, 41, 24,
   -39, -23, 83, 31, 101, -32, -24, -58,
   -19, -58, 24, -21, -26, -11, -53, -38,
   -29, -21, 8, 11, 10, 31, -54, 12,
   -21, -78, -39, -1, -43, -26, 51, -15,
   -13, -59, 1, -11, 49, -23, 23, -20,
   21, -47, -35, -23, 53, 3, 5, -7,
   10, 4, 19, -7, 28, 46, 5, 51,
   -17, -39, 8, -3, -49, -9, 0, -24,
   -4, 12, 71, -33, -6, 23, 32, -58,
   56, -10, -8, -36, -33, -14, -43, 14,
   8, -17, -6, -10, 4, 49, 14, -32,
   -2, -3, -35, 51, -22, -25, -41, -61,
   -36, 37, -15, -28, -39, -12, 59, -46,
   -4, 19, 2, 25, -34, -3, -21, -31,
   -21, 45, 39, 16, -34, -14, -27, 38,
   -45, 41, 22, 51, 36, 17, 13, -24,
   7, -109, -20, 32, -57, -1, 31, -23,
   0, -31, 33, 22, -19, -9, 26, 21,
   -1, -54, -33, -16, -70, -36, 67, -86,
   24, 17, -32, 3, 43, 62, 15, 28,
   55, -43, -47, -21, 25, -43, 29, -5,
   -16, 25, 47, -5, -7, -34, -24, -38,
   -28, 36, 12, -7, -14, 37, -21, -61,
   62, 105, -77, -42, 3, 7, -45, -28,
   -62, -59, 9, -30, -53, 14, 5, -21,
   -22, -50, 17, -61, -70, 34, -27, -55,
   25, 19, -11, 70, 21, -16, -3, -31,
   51, -14, -27, -29, -97, -60, 49, -60,
   12, 5, -5, -15, 25, -1, 44, 48,
   -28, 38, -17, -20, -20, 32, -32, -10,
   -30, 0, 19, 28, -9, 42, -24, -11,
   -9, -7, 26, 6, -39, 43, -15, -15,
   -27, -21, -24, -20, 29, 22, -15, 12,
   4, 44, 8, 55, -37, 13, -41, 4,
   -56, 30, -3, 48, -37, -16, 17, -18,
   -40, 15, -30, -47, -64, -28, 31, 42,
   -63, 86, 13, 34, -53, 2, 102, 19,
   -55, 77, -42, -14, -36, -16, -76, 16,
   5, 46, 47, 29, -71, -38, -61, 6,
   -21, 93, 58, 63, 63, 31, 50, 15,
   10, -12, 4, 1, -51, -37, 26, 42,
   -5, 22, -3, -16, 103, 85, -4, -19,
   22, -31, -28, -70, 113, -38, -59, -39,
   12, 24, 25, -12, 4, 54, -14, -5,
   0, -46, 56, -44, 7, -33, 35, -23,
   -42, 1, -25, -15, 33, -65, 20, 9,
   25, -31, 57, 23, 53, 77, -27, -22,
   14, -1, 9, -7, -14, -50, -72, -51,
   16, 4, -49, -2, 43, -48, -8, 5,
   -33, -5, 20, -36, -19, -23, 44, 69,
   -19, 14, -49, -36, -24, -13, -29, 15,
   68, -4, 5, 2, -35, 71, -56, 30,
   -22, -66, -62, -31, -22, 56, 36, -35,
   38, 31, 21, 121, -38, 16, -25, -18,
   -24, 5, 28, -18, -79, -1, 22, 8,
   -34, -22, -34, 31, 62, 12, -13, -45,
   8, 48, 12, 4, 26, -2, -31, -46,
   42, -10, -9, -6, -30, -10, 7, -63,
   -65, 76, -111, -66, 2, -5, -12, 16,
   54, -33, 26, -83, 15, 28, -28, -56,
   15, -36, 43, 8, 19, -24, -26, 0,
   1, -8, -69, -6, 24, -1, -15, -29,
   20, 29, 81, 2, -100, -35, 30, -8,
   67, 71, 19, 20, 36, 41, 80, -57,
   -28, -9, 39, -10, -24, -37, 13, 14,
   -26, 4, 2, 11, -21, -24, -5, -29,
   -17, -7, 7, -11, 26, 25, 1, -11,
   -12, -19, 4, -15, 4, 10, 5, 12,
   -13, 10, -4, 16, -14, -22, -1, 18,
   -33, 27, -33, 0, 17, -9, 6, 3,
   -13, 15, 13, 64, 93, 11, 85, -42,
   -69, -2, -15, -32, -2, 5, 67, 34,
   36, -23, -11, 28, 82, 24, 43, -62,
   -25, 23, 1, 24, 14, -12, -37, 3,
   68, 45, -11, -81, 88, 4, 16, -95,
   0, 1, -12, 104, -11, 13, -37, 42,
   19, -2, -62, -3, 9, 18, -33, 59,
   -22, 19, -36, -38, -47, -62, 26, 6,
   -8, -42, 57, -8, -7, -8, -12, 27,
   76, 17, -37, -12, -64, 41, -35, -14,
   21, -3, -32, 9, 16, -33, -9, -27,
   41, -4, -62, -14, -5, -4, 21, -12,
   2, -46, -20, -31, -3, 1, 65, -18,
   -13, 0, 25, 3, 8, 6, 41, 9,
   6, 33, 16, 31, 22, 24, 23, -10,
   -17, 14, -5, -82, 5, 6, 39, 16,
   -83, -14, -22, 11, -3, -2, 43, 4,
   52, -17, 55, 38, -12, 6, 9, -9,
   53, -23, -12, -39, -26, -19, -36, -6,
   17, 17, -8, 36, 36, -64, 78, -6,
   21, -12, -63, 42, -90, 115, -8, 59,
   39, -7, -45, -50, 45, 48, 119, -34,
   -27, -18, -16, -23, -10, 41, 27, -44,
   8, -42, -62, -106, -31, 60, 28, 0,
   54, 37, 45, 46, -7, -30, -18, -36,
   -119, 36, 55, -27, -34, -92, -12, -35,
   11, -35, -59, 45, -93, -59, -23, -40,
   12, 85, -24, 63, 42, -22, 28, 1,
   43, -16, 45, -61, 31, 12, -61, -31,
   6, 88, -5, 2, -32, 18, 51, 86,
   -26, 12, 4, 44, -44, -30, -18, 24,
   -28, 71, -41, 0, 0, -21, 37, 27,
   -51, 9, 43, -37, -14, -34, 19, -10,
   -54, 23, 33, 0, 34, 23, -4, 20,
   47, -14, -10, -34, 64, 15, 20, -21,
   23, 23, -56, 25, 6, 19, -71, 119,
   90, -56, 33, 39, 6, 7, -30, 85,
   -45, 2, 11, -18, 58, -42, -13, -34,
   20, -4, 19, 28, 29, 16, 52, -4,
   -19, 90, -22, 2, -58, -23, 80, 19,
   19, 21, 22, 30, -22, 1, 19, -31,
   41, -22, 14, 0, -51, 7, -57, -14,
   -15, -17, 48, 17, 8, -78, -19, 105,
   -74, -74, 22, -14, 29, 48, -13, -3,
   6, 2, 49, 36, -111, -36, -27, 15,
   5, 19, 15, 40, -87, -9, -55, 26,
   20, -62, -52, 2, -54, -48, -20, 34,
   -108, 11, 72, 19, -14, 2, 24, 30,
   50, -26, 34, -80, 2, -23, 15, 25,
   4, -6, 16, 7, 3, 11, -20, -9,
   36, 8, -16, 27, 6, 27, 21, -30,
   40, 1, -4, 55, 17, 15, -57, 18,
   -34, -2, 7, 21, 8, -5, 12, -37,
   -9, -25, -37, -15, 24, 9, 31, 29,
   -47, -27, -61, -64, 30, 7, 37, -51,
   -90, 23, -32, 9, 40, 63, -20, 19,
   2, 71, -73, -71, -53, -8, 12, 17,
   38, 108, 36, -47, 64, -63, 40, 107,
   -22, 54, -45, -74, 79, 30, 88, -4,
   -15, -33, 11, -16, 43, -16, 12, -118,
   -73, 14, 38, 29, -4, 2, -28, -14,
   91, 16, 33, -13, 37, 58, -21, 27,
   -4, -31, -75, 9, -49, -2, -57, -8,
   0, -65, -56, 20, 45, -56, -1, 52,
   48, 6, -6, 11, 45, -4, -4, 2,
   24, -36, -1, 79, -2, -2, 34, -80,
   106, -52, 4, 30, -27, -57, 26, -2,
   -35, 5, 26, -8, 77, 24, -16, -25,
   -1, 21, 1, -94, 48, -22, 3, -21,
   68, -3, 5, 5, 19, 1, -51, -11,
   41, -9, 43, -23, 14, 19, 44, -3,
   77, -53, 12, 69, -57, 41, 12, 78,
   -117, -60, -43, -38, -92, -27, -43, 52,
   101, -113, -30, 16, 119, 0, 16, -43,
   7, -2, -55, -36, 26, -5, 53, -64,
   -22, -18, 48, 124, 1, 53, -81, -16,
   -8, -25, 23, 14, 28, 21, -38, -3,
   15, 33, -26, -93, 43, 11, -78, -18,
   -13, 12, -94, -1, -95, 93, -13, 99,
   -29, 41, -55, 22, 41, 22, -24, -39,
   25, -57, -61, 33, -48, -70, -58, 30,
   33, 16, -8, -50, 42, 44, -36, -27,
   11, -14, -39, 38, -73, -36, -22, -75,
   110, -18, 4, -35, -62, 2, -43, -15,
   10, 19, 15, 16, -50, 58, -54, 29,
   -22, -4, -10, 14, -83, -99, -9, -36,
   -10, 20, 0, 66, 14, -78, 4, -52,
   -36, 14, -4, -6, 5, -8, -20, 49,
   -42, 27, -17, -18, 29, 4, -33, -91,
   -31, 1, 2, 56, 24, -23, -8, 17,
   9, 59, -81, 25, 16, -16, 18, 15,
   -52, 1, 40, 49, 12, 37, -4, 47,
   -10, -3, -45, 11, 13, 29, 36, 41,
   -41, -13, -52, -2, 54, -37, 77, 76,
   -4, 27, 51, -76, -3, -9, -33, -13,
   -50, -45, -4, 16, -11, 9, -40, 13,
   21, -10, 64, -10, -24, 27, -12, -48,
   -1, 43, 74, 49, -35, -35, -43, 56,
   -31, 108, -15, -74, 10, 57, -29, 12,
   -31, 30, -3, 31, -41, -4, 121, 72,
   24, 21, 12, -1, -50, 13, 18, 1,
   0, 53, 18, 3, 37, 58, 27, -48,
   -31, 57, -18, 3, 0, -24, 17, -2,
   43, -32, 21, -57, -10, -43, -17, -9,
   -34, -5, -27, -12, 46, -7, -1, 64,
   2, 7, -26, -66, 6, -40, 35, -7,
   21, 7, 27, 8, 66, 23, 23, 42,
   -4, 9, -58, -26, -13, -2, 12, 9,
   -31, 62, 49, 3, -10, 26, 24, -114,
   87, 23, -61, 101, 21, 7, 103, 22,
   -81, -35, -33, 0, 13, -38, 50, 71,
   -57, -32, 58, -75, -46, -35, -6, -50,
   -77, -28, -19, -110, -108, 69, -63, -67,
   -2, 13, 55, 21, -40, -64, -62, 71,
   13, 74, 32, 11, 6, 37, 9, 17,
   -60, -11, 12, -18, -3, 38, -106, -12,
   -51, -113, -41, 42, 10, 37, 30, -14,
   56, -59, -12, -37, -101, -27, 5, 12,
   8, -92, 6, -29, -33, -18, 21, 40,
   -11, -90, -47, 86, -110, -5, 87, -83,
   -1, 7, 33, 5, 54, -3, -6, -28,
   -21, 14, -19, -21, -33, 38, -82, -10,
   44, -24, -43, -8, -21, -2, -18, -29,
   25, 60, 10, -14, -56, -5, -34, -67,
   -62, 28, 36, -14, -32, 8, 24, 113,
   54, -9, 19, 93, -30, 17, 0, 5,
   -24, -52, 29, -97, -100, -27, 4, -111,
   -100, 39, 8, 8, -17, -1, 76, -10,
   -112, -10, 65, -52, 23, 3, 7, -25,
   -23, 30, 100, 23, 4, 39, -31, -6,
   7, -16, 4, -38, -23, -34, 24, -98,
   -68, -54, 27, 52, 44, 27, 124, -46,
   -5, 69, -3, -33, 3, -27, -54, -9,
   62, 10, 40, 29, 21, 24, 87, -34,
   -17, -18, -11, -60, -2, 14, -55, -11,
   -125, -83, 28, -31, 86, 56, 21, 43,
   -42, -32, -23, 24, -28, -5, -35, -14,
   65, -44, 0, -65, -61, -8, -49, 10,
   11, -78, 66, 5, 33, 53, -21, -26,
   -33, -15, 14, -87, 49, -32, 64, -6,
   -81, -47, 8, -33, 57, 47, -26, 69,
   -22, 27, 5, 7, -34, 17, 5, 23,
   -29, 9, 18, 23, -51, -12, 22, -35,
   -4, 45, 12, 2, 16, -19, -47, 11,
   -52, 59, 41, -17, 118, 32, 21, 99,
   -28, 63, 111, 44, 85, 24, -55, -34,
   62, 7, 24, -40, -28, 27, 13, -48,
   90, -35, -43, 41, 19, 75, 80, 75,
   1, -64, -47, 80, 31, -13, -35, 63,
   15, -103, -31, -65, 35, 16, -65, 56,
   22, -78, -20, 55, 2, 116, -3, 100,
   -60, 67, -29, 54, 7, 49, 4, 89,
   31, 58, 61, 17, -21, -17, 5, -49,
   -12, 113, 0, -18, 52, 12, 41, -22,
   41, -4, 46, 40, -11, -114, 11, 91,
   103, 93, 20, -69, 82, -30, -68, 13,
   -41, -57, -21, -22, -75, 64, 25, 26,
   36, -35, -16, 22, -27, 18, -19, 24,
   -7, -55, 5, 51, -75, -30, -27, -28,
   38, -28, 14, 57, 52, -25, 52, -51,
   2, -8, -6, 23, 20, -11, 23, -82,
   -10, 30, 37, 11, -31, -44, 12, 3,
   28, 40, 4, 82, 34, -46, 23, 18,
   -3, 5, -22, -62, 70, 14, 33, 3,
   -15, -1, 8, 65, -15, 79, 80, -10,
   55, 20, -51, 13, 13, 84, -22, -58,
   36, 18, 31, -15, 34, 35, 42, -34,
   -4, 37, 49, 36, 14, 27, -83, 8,
   22, 61, -11, -27, 23, -38, 52, 32,
   -31, 1, 78, -23, -20, 15, 50, -7,
   31, 22, 19, 3, -16, 13, -23, -53,
   19, 6, 24, 16, 32, 15, 19, 44,
   38, 21, 17, -11, 42, 30, -20, 14,
   49, -37, 25, -7, -22, -40, -22, -32,
   19, -22, -38, 8, 46, -34, -7, 22,
   -29, -2, -4, 29, 15, 8, 4, 6,
   33, 2, -4, 20, 0, 29, -34, 5,
   5, 5, -29, 28, 39, 4, 52, 17,
   -6, -24, -1, -32, 10, -45, 37, -2,
   -19, 37, 61, -43, 23, 12, -5, -22,
   9, 82, 49, 77, -81, 59, 54, -69,
   -13, 38, 16, 47, -2, 14, 4, -49,
   -8, -1, 13, 14, -22, -46, 58, 11,
   -12, -18, 90, -40, 29, -10, -40, -5,
   46, -4, -26, 67, -12, 30, -28, -42,
   13, 1, 67, 92, -61, 62, 50, -23,
   31, 33, -34, -36, -9, -50, -18, 40,
   -26, -8, 97, -44, -47, -2, 49, -29,
   -62, -44, 99, 30, -9, -78, -63, -40,
   -19, -4, -43, -10, 61, 21, -50, 10,
   7, 23, 33, 40, -8, 35, -79, -49,
   -49, 10, -13, -17, -97, 47, -95, -23,
   6, 27, -9, -35, 28, 44, 31, -38,
   47, 14, 25, 40, 8, 21, 7, -16,
   30, 67, 11, 20, -21, 14, -5, 14,
   1, 23, -3, 6, -45, 37, -69, 20,
   11, 1, 7, 9, -52, 5, -7, 30,
   14, -12, -16, -25, 36, -4, -9, -59,
   29, 5, 57, 9, -109, 43, 66, 21,
   -51, 6, -59, -15, 27, -9, -6, 45,
   -33, 0, 44, 38, -12, -12, -64, 28,
   6, 1, -45, -51, 22, -27, -50, 9,
   20, 9, 26, 37, 16, -33, 7, 8,
   -30, -27, -21, -14, 26, -6, 22, 23,
   6, -28, -32, 36, -26, 2, -17, -18,
   -31, 28, 27, 5, -3, 25, 21, 5,
   13, 10, 19, 60, 16, -9, 11, 6,
   -6, -28, 17, -48, -45, 3, 34, 39,
   15, -8, 84, 1, -7, -9, -57, 16,
   50, -6, -64, 0, 17, 43, -2, 1,
   9, 9, 10, 8, 27, 11, -26, -15,
   17, -16, 4, 2, 9, -1, 7, 2,
   -8, 14, -16, 22, 9, 24, 30, -24,
   19, -19, -9, 4, -10, 9, 28, 10,
   -31, -31, 56, -32, -7, 13, -18, 52,
   -4, 47, 5, 9, 13, 8, -8, -52,
   4, 39, -26, -15, -28, -17, -6, -24,
   11, -24, 0, -32, -13, 13, 21, -23,
   22, -4, 33, -9, -19, -16, -25, -12,
   24, 7, 26, 14, 24, -16, -28, -20,
   -17, -20, 9, 30, -36, 14, 26, 5,
   -25, -34, -8, -13, 15, -19, -40, -28,
   7, 20, 26, 22, 3, 33, -23, -7,
   16, 13, 24, 8, 25, 3, 7, -8,
   -11, -14, 8, 19, -4, -1, 8, -23,
   -40, 19, -2, 0, 17, 26, -21, -8,
   -33, -12, -28, 35, -15, -11, 6, 19,
   -28, 28, 13, 5, -18, 13, -25, 18,
   -4, 7, 9, -31, -20, -15, -25, 17,
   -20, -15, 46, 11, 16, 30, -8, 5,
   15, 38, 35, -26, -26, -32, -29, 55,
   -22, -11, 31, -23, 13, 10, -23, 17,
   17, 46, -16, 26, -12, 3, -29, -6,
   12, 14, 34, 19, -12, -31, 7, -21,
   8, -70, 12, -2, 55, 37, -15, 16,
   -59, -51, 16, -13, -12, -1, 19, 58,
   44, -3, 72, -37, 72, -10, -23, 18,
   -22, -17, -48, 6, -19, 28, -46, 47,
   -11, -54, -25, 43, -4, -20, 11, 25,
   -25, -28, -13, 20, -76, 74, 32, -60,
   7, 10, -10, -16, -8, 6, -31, -7,
   -30, 48, 47, -46, 9, 34, -19, -34,
   27, -76, 19, -53, -12, 50, 39, 22,
   -9, 14, -6, 3, 51, 16, -30, 11,
   -51, 29, -3, -34, -38, -38, -40, 19,
   85, 29, -48, 64, 60, -42, -3, -29,
   -40, -3, 49, 4, -3, -15, 11, -12,
   11, 36, 10, -20, 14, 26, -38, -6,
   -14, 5, 29, -11, -3, 4, 44, 11,
   -29, -5, -9, -48, -28, -38, -23, 26,
   60, 21, -15, 19, -2, -3, -25, -18,
   -7, -29, -6, 0, 4, 35, -19, 13,
   77, 7, 22, -1, -16, 11, 46, 94,
   -22, 7, 0, -82, 62, -21, -3, 22,
   -13, 15, 15, -12, 8, -44, -13, 41,
   -17, -4, -57, -6, 96, -16, 21, 28,
   15, 81, 3, 2, 35, 24, 48, -13,
   -28, 36, 2, -8, -33, -22, 53, 48,
   12, 18, -68, -11, -35, -21, 44, -20,
   -13, 3, -2, 3, 14, 66, 9, 14,
   8, 55, 40, 1, 20, -45, -44, 16,
   -43, -17, 43, -10, -20, 7, 59, 20,
   7, 16, -14, 30, 68, -33, 4, -13,
   -29, 21, 19, 11, -36, 39, -7, 1,
   6, 33, -29, 27, -54, -12, 29, 31,
   -14, 24, -28, -23, -66, 46, 12, 35,
   7, 13, -10, -9, -26, -7, 12, 50,
   -2, -8, -15, 16, -34, 6, 11, 19,
   -37, 27, 23, -19, 20, 1, -10, -12,
   26, -5, 27, 5, 13, -21, 17, 40,
   23, 22, 18, 9, 7, 11, -38, 0,
   -37, 9, 0, -39, 19, 7, -12, 19,
   -23, -41, 1, -33, 52, 21, 41, 8,
   12, -7, 1, 23, 1, -19, 9, 17,
   -31, 1, 25, -12, 18, 30, 15, 4,
   -32, 18, 12, -27, -31, -11, 30, -35,
   14, -47, 8, 30, -26, 37, 20, -23,
   13, 41, -19, 36, 11, 1, -8, 38,
   -36, -39, 21, 3, -5, -17, -29, -37,
   -6, 7, 36, 25, -27, 2, 36, 43,
   21, -4, 32, -19, 9, -41, -11, -9,
   25, 47, -23, -54, -42, -17, 11, -28,
   -19, 25, -17, -46, -6, -15, 65, 19,
   -20, -30, 24, -25, 40, -33, -3, 24,
   4, -17, 17, -4, 11, 34, 15, -38,
   -38, -15, -3, 2, 6, -7, 0, 21,
   -9, -14, -31, -35, -19, -21, 1, 27,
   31, -23, 15, 38, -9, 54, -5, -16,
   18, 2, 17, -11, 25, -18, -5, -17,
   44, -32, -40, -15, 41, 25, -29, 19,
   -33, -17, 5, -22, 52, -14, -22, 24,
   -28, -28, 47, 3, 45, -10, -21, 12,
   15, -3, -1, -8, 11, -31, 9, -4,
   -35, -26, -2, -47, -41, 42, -5, 13,
   -11, 16, 37, 21, -1, 15, 14, 0,
   -36, 24, -9, 67, 21, 25, 24, -32,
   21, 10, 11, 19, -21, -13, -8, 9,
   -15, -4, -16, 15, 19, 12, -4, -13,
   -8, -18, -23, -4, 9, 16, 32, 15,
   -19, -7, 33, 27, -17, 15, -38, 17,
   -16, -5, -18, -28, -24, 19, -11, 28,
   -7, -41, -12, -1, 7, -28, 9, -30,
   -39, -13, -15, -30, 17, 13, 37, -7,
   1, 19, -8, -6, 5, 5, -29, 26,
   22, -3, -22, 33, -26, -22, 27, -25,
   9, 13, 14, 24, 16, 0, 8, -18,
   -11, 72, 6, 16, -9, 33, -15, 25,
   -34, -6, 3, -13, -21, 31, -10, -32,
   9, 9, -14, 1, -68, -16, 2, -43,
   30, 9, -11, -56, -9, -23, -5, -27,
   -13, -24, -15, 44, 8, -43, 7, -6,
   -10, -20, 25, -8, -17, 3, -42, -31,
   5, 54, -3, -10, 13, 17, 6, -8,
   -18, 30, 28, 21, 8, 9, -4, 30,
   21, -22, 14, 20, 9, -24, 4, -15,
   -8, -13, -8, 12, -40, 8, -29, -28,
   30, -15, -15, -11, -12, -2, -34, 9,
   23, 3, 26, 12, -5, -20, 29, 21,
   42, 36, 24, -32, 8, -2, -13, -15,
   13, 3, 5, 53, 37, -1, 20, 34,
   11, -25, -36, -12, 24, 15, 20, -52,
   2, 14, 2, 0, -33, 9, 1, -21,
   11, -25, 36, -39, 21, -2, -32, 5,
   32, -35, 13, 16, 41, -12, -2, -8,
   39, -22, 3, 15, -9, -2, -23, 5,
   -25, 23, 12, -26, 31, -37, 24, -22,
   12, 12, -3, -11, -12, 30, -13, 14,
   22, 16, -52, 14, -6, 3, 43, -34,
   -5, 26, -20, 6, 14, 10, -14, 19,
   15, -34, 38, -38, 17, 32, 7, 11,
   0, 19, -13, 7, -25, -8, 3, -24,
   -12, 20, -7, -12, 26, 18, 11, 2,
   -10, -18, 39, -7, -16, 19, 31, 8,
   21, 7, -14, -2, 6, 29, -8, 9,
   -28, 17, 34, 30, -18, 3, -17, -33,
   14, -12, -20, 1, -11, 2, -4, 19,
   -17, 45, -5, 19, 18, -27, -19, -19,
   14, -19, 9, -30, 23, -43, -13, 28,
   -13, 7, 16, 18, 26, 12, 13, 24,
   21, 5, 29, -4, 10, -18, 19, -7,
   12, 17, -46, 5, -15, -37, 1, 15,
   19, -11, -16, 32, 10, -28, 14, -27,
   -7, 3, -76, -27, 24, 14, 10, -5,
   -39, 26, 5, 32, -67, -50, -72, -25,
   56, 1, 13, 6, 18, 10, -10, 31,
   27, 4, 21, -26, -24, -1, 3, -7,
   10, 35, -30, 13, 14, -24, 58, 35,
   33, 67, 16, -6, 37, -34, 6, -5,
   2, -50, 31, 0, 43, 34, 14, 5,
   -13, -5, -27, 7, -13, 2, -55, 12,
   -56, -3, 8, -14, 53, 24, 33, 14,
   48, 9, 30, 13, -13, -49, 14, 18,
   3, -10, -4, 29, 19, -24, 46, 6,
   43, -39, -1, -25, 1, 11, 1, 7,
   -16, -1, 45, -8, -9, 54, 14, -17,
   -8, 31, -15, 26, 18, 56, -32, -4,
   -14, -29, 5, 21, 13, 25, 3, 5,
   2, 47, 19, -21, -19, 2, 44, 11,
   20, -1, 10, 12, 0, -37, 16, -15,
   -14, -21, -7, -11, 3, 32, -27, -25,
   0, 88, -79, -7, 5, 68, 9, -34,
   30, 84, -20, -46, -17, -18, -66, -99,
   -1, 17, -4, -16, 5, 33, -36, 59,
   -4, -5, 26, 102, 25, -13, 72, -16,
   -3, 21, 8, 57, -35, 20, 46, -35,
   16, 0, -46, 13, 49, 42, 21, 66,
   -18, -2, 50, -34, 12, -14, 41, -19,
   23, -25, -30, -19, 38, 20, 50, -26,
   8, 39, -9, -28, -5, 4, -6, -2,
   -15, 2, -16, -23, 2, -46, 6, -19,
   -4, -73, 12, 12, -10, -27, -14, -20,
   -16, -46, 42, -26, -14, 31, -37, -23,
   -10, -4, 2, 11, 0, 2, 27, 24,
   -6, -4, 20, -50, -16, -9, 50, 9,
   34, 2, 12, -11, -51, 31, -25, 44,
   36, 6, 12, -7, 28, -17, -1, 29,
   11, 48, 30, 14, -5, -9, 1, 33,
   52, 14, 23, 23, 34, -4, 8, -3,
   -30, -2, 39, -24, 6, 10, -2, -1,
   19, 16, 23, 24, -15, 8, -37, 36,
   -7, 2, 25, 12, -42, -5, -14, 1,
   -1, 5, -35, -44, -8, 6, -34, 38,
   -12, 5, -4, -7, 16, -22, -10, -18,
   32, 7, 38, 24, 55, -26, 13, 44,
   27, 27, -14, -6, -19, -15, 14, -14,
   -1, 17, -29, -30, 28, -4, 17, 18,
   -25, -4, -20, 10, -8, 16, 31, 14,
   0, 3, -14, -7, -3, 1, 42, 8,
   18, -3, 28, -9, -5, -20, 11, 8,
   19, -15, 7, -4, -28, -4, 61, 1,
   9, 33, -6, -29, 27, 3, -12, 0,
   -8, -2, 33, 33, 2, -17, -27, -9,
   45, 6, -34, -25, 11, -35, -23, -5,
   5, -11, -25, 12, -37, -10, -17, -7,
   36, 0, 25, 9, -19, 17, -21, 8,
   -25, 10, 11, 10, 0, 21, 0, 18,
   15, 43, -76, -38, 62, -3, -1, 15,
   4, 12, -3, -40, -10, -12, -12, -33,
   -29, 14, 33, 45, 18, -15, -18, -3,
   -24, 7, 8, -56, 39, 17, -30, -12,
   3, -19, 46, 35, -24, 0, 3, 62,
   -37, 49, -8, -17, 31, 56, 12, -34,
   17, 15, 9, 28, 0, -30, 5, 41,
   13, -6, -5, 39, -6, 13, 19, 14,
   -16, 20, 9, 17, -21, -9, 10, 5,
   -4, 23, 11, 10, -24, -23, 2, 24,
   -25, 1, -21, 59, 34, 11, -59, 23,
   25, 49, 8, -18, 17, 21, -18, 26,
   20, 16, -18, -5, -12, 27, -22, -24,
   -29, -7, -20, 22, -16, 16, 10, -22,
   -26, -14, 8, 23, -1, 19, 17, -7,
   -42, 31, -11, 20, 27, 16, 15, -28,
   31, 9, 5, 4, -22, 11, -15, 24,
   -35, 30, -15, 2, 11, -2, 14, 6,
   10, 33, 25, -9, 64, 79, 49, -62,
   -41, -26, 23, -86, -31, 27, 62, -17,
   -51, -71, 1, -26, 42, 20, 22, 15,
   31, 26, 72, -26, 123, -40, 13, 4,
   20, 9, -14, 28, -11, 28, 15, 27,
   -3, -29, 35, 21, 37, 2, -14, 39,
   -20, 71, -27, 15, 45, -95, 13, 19,
   2, 22, 0, 40, 23, 6, 53, 33,
   43, -65, -16, 7, 26, -41, 55, -13,
   -66, -62, -72, 7, -27, 19, 6, 5,
   -30, -15, -10, -67, -54, -24, 40, 11,
   67, -58, -17, -53, -40, -1, -34, -45,
   47, -18, 40, 15, 11, -48, -8, 5,
   51, -16, 12, 32, -31, 18, -13, -1,
   -28, 33, -21, -21, -8, 6, -1, 19,
   -14, -27, -25, 1, -41, 26, -41, -21,
   -37, 26, 5, 36, 1, -10, -8, -30,
   17, 25, 28, 16, 38, 12, -9, 52,
   42, -38, 68, -1, 30, -86, 53, 50,
   -38, -116, 79, 26, -58, 45, 9, 21,
   74, 27, -38, 62, 72, 4, 5, -5,
   -3, 3, -88, 98, 37, -1, -44, 2,
   -22, -59, 16, 7, 24, -1, -29, -59,
   21, 46, -9, -9, -48, 16, -18, 16,
   13, -63, -64, 22, -79, 50, 21, 8,
   1, 7, -90, -19, -37, -20, -23, -49,
   -5, -14, 30, 5, 21, -15, 69, 73,
   0, 70, 48, 38, -1, 13, -34, 11,
   -2, 33, -10, -9, 16, 9, 8, -9,
   -7, 41, -32, 0, 68, -8, 33, 1,
   10, -25, 9, -54, -2, 8, 75, -3,
   -2, -4, 7, 0, 36, 30, -7, -23,
   37, 5, 28, 30, -17, 10, 6, -61,
   -24, -15, 1, 38, -42, -35, -4, -19,
   9, 20, 22, -4, -1, -23, -49, -22,
   -35, 15, 11, 40, -14, -23, 30, -37,
   -25, 21, -50, -3, 68, 124, -46, -7,
   115, 22, -16, -13, -22, 10, -31, -72,
   3, -25, 9, -42, -51, 26, 10, 63,
   -46, 42, 96, 36, -61, -47, 29, -27,
   10, 46, 23, 57, 41, -30, -32, -2,
   -28, 6, -2, 33, 46, 45, 48, 46,
   14, 1, 16, 24, 62, 9, -4, -72,
   21, 19, 7, -34, 4, 30, -32, 24,
   1, -8, -7, 45, 28, -18, -18, -22,
   -45, 21, 20, -18, -31, 9, 39, -48,
   20, 10, 20, -58, 34, -33, 1, -19,
   20, 58, -17, -33, -38, 71, 5, 26,
   22, 6, -16, 6, 6, 46, -18, -36,
   -12, 0, 17, 36, -26, 25, -28, 23,
   -17, 18, -24, -19, -26, -9, -70, 15,
   25, 27, -6, -11, 8, 18, -8, 20,
   3, 5, 24, -20, -20, -21, -3, 0,
   3, -8, -4, 16, 8, 39, -35, 12,
   -20, 68, -39, -64, 29, 43, 53, -21,
   -29, 24, -36, 57, 5, -36, 68, -60,
   -26, 31, 16, -19, -43, -42, 16, 33,
   5, -11, -66, 62, 41, -73, -19, -18,
   -61, 51, 32, 22, 74, -31, 35, -116,
   54, 24, -80, -1, 0, 50, 41, 79,
   30, -57, -78, -35, -72, -55, -20, 43,
   -12, 32, -29, -32, 53, 43, -11, -32,
   -17, 104, 40, 14, -43, 14, -1, 45,
   18, -21, 25, -48, 12, 1, 18, -50,
   -6, 31, 8, -8, -15, -50, -36, -20,
   -66, -5, -49, -12, 15, 13, -15, -14,
   -40, 36, -28, 15, -20, 22, 41, 48,
   14, 7, 18, 16, -55, 33, -18, 20,
   35, -8, 11, 40, -7, 3, 5, -44,
   -46, -41, 17, 44, 28, 5, 59, -23,
   -17, -9, -52, -28, -30, -13, -4, -40,
   -42, -3, -21, 13, -25, 24, 58, 5,
   9, 17, 37, -42, 34, 92, -6, -27,
   -21, -10, -83, -15, 33, 73, 50, -14,
   1, -42, 0, 8, 59, 61, 1, 1,
   -6, 7, -11, 48, 50, -51, 17, -6,
   -59, 0, 78, -24, 48, 0, 19, -16,
   49, -39, -34, -87, -58, -58, 48, -13,
   -8, -11, -49, -27, -11, -2, 26, 8,
   -39, -2, -5, 9, 11, 22, 50, 35,
   -8, 32, 27, 14, -12, -12, -41, 26,
   -1, 27, -45, -56, 5, 31, 57, 37,
   -36, -21, 45, -36, -11, 14, -2, -17,
   59, -18, -28, 6, 5, 41, -1, 7,
   29, -20, 4, -24, -37, 21, -15, -14,
   8, 28, -16, 11, 38, -17, 13, -3,
   -16, -18, 35, -14, 17, 0, 4, 20,
   -19, 14, -44, 22, -4, 22, -13, -14,
   8, 26, -11, 2, 43, 2, 12, -29,
   -20, -10, -7, -16, -35, 23, -23, -10,
   -3, -65, 33, -51, 83, -9, 31, 47,
   -3, -9, 5, -23, 7, -20, 21, 22,
   0, -1, 21, -45, 48, -24, -12, -23,
   -39, -12, -98, 62, 44, 31, -88, 16,
   2, -16, 19, -27, 24, 37, 10, 45,
   -59, 7, -47, 26, -15, 31, 22, 11,
   -3, 4, -46, -4, -52, -63, -24, 21,
   22, -38, 25, 5, 10, -37, 42, 22,
   0, -10, -25, 8, 25, 21, -27, 3,
   -29, 14, -9, 14, 53, 53, -25, 2,
   -14, -8, 0, -7, 6, -7, 16, 13,
   -37, -26, 32, -23, 62, -38, -1, 60,
   -19, 23, 28, -23, 0, -32, 12, 10,
   -16, -12, -2, -51, -2, -29, 1, 31,
   -13, -10, 30, -44, -2, -1, -13, -25,
   12, 13, 4, -39, 15, -12, 14, -30,
   -20, 3, -36, -5, -8, 14, -42, 43,
   35, 40, -17, -22, -25, 15, -35, 11,
   35, -10, -4, 10, 34, -17, 36, 17,
   -14, 18, 9, 10, 52, 63, -26, -19,
   5, 47, -10, 14, 32, 2, 44, -1,
   -31, -10, -44, -46, 73, 26, 42, -20,
   10, 20, -27, 3, -35, 30, 41, -110,
   36, 11, -11, 57, -45, 43, 31, 2,
   6, -27, 2, 22, 26, -26, 14, 0,
   25, 15, -25, 79, 5, 20, 8, 17,
   29, -5, -40, -15, 5, 7, -18, -87,
   -43, -2, 17, 50, -3, 41, 5, 49,
   -30, 19, 35, -81, 34, 9, 50, -20,
   -36, 30, -24, -42, 24, -36, 13, 28,
   3, 47, -7, -28, 27, 28, 20, -2,
   33, 0, -10, -5, 15, 0, 21, -17,
   3, 18, 1, 31, -34, 2, -5, 79,
   0, -14, 27, -32, 11, 29, -38, -34,
   7, 46, 26, 21, -22, 35, 27, 20,
   5, -35, 18, -60, 17, -12, -4, 37,
   12, 47, 50, 43, 26, -17, -8, 43,
   -42, -20, -12, -90, -8, 52, -54, 44,
   -18, -11, -4, -7, -27, -32, 39, -18,
   73, 83, -41, -8, -18, 87, -72, -17,
   12, 93, -14, -11, -23, 46, 15, 1,
   -13, -12, 106, 39, -12, -17, -26, 11,
   -4, 31, 32, 33, 43, 13, 15, -33,
   7, 18, 28, 2, -22, 24, 47, 9,
   10, -31, 6, -11, -10, 3, 38, -97,
   23, 18, -31, -3, 26, 54, -21, 15,
   31, -6, 3, -60, -26, 39, 34, 5,
   -38, 15, -44, 11, -1, 22, 38, -17,
   11, 17, 60, 16, 60, -74, -12, -20,
   -39, -19, -3, 9, 32, 35, 51, 36,
   29, -8, -8, 16, 43, 14, -25, 31,
   45, 35, -29, -5, -67, 19, -24, 34,
   16, -1, -4, -35, -13, 9, 20, 42,
   15, -18, -16, -9, -33, 45, -39, 29,
   13, -45, 34, 18, 51, -10, 1, -11,
   -30, -1, 19, 32, 7, 12, -31, -2,
   16, -47, 18, 19, 38, 6, 28, -11,
   9, 27, -35, -17, -19, 11, -28, -25,
   -39, -44, 0, 56, 37, 1, 19, 5,
   25, -7, 57, -5, 45, 38, 27, 8,
   1, 4, -23, 3, 33, 11, -7, 2,
   26, 14, 39, 1, 1, 23, -7, -52,
   -12, 27, 39, 53, -27, -29, -11, -13,
   5, -39, -10, -1, 5, 41, -16, -4,
   0, 31, -2, 31, 7, -33, -32, 7,
   -11, 37, -17, -9, 7, -14, 12, -7,
   34, -10, 18, 20, 3, -24, -19, -1,
   42, 15, 8, -30, -9, 8, 14, -12,
   19, 30, 10, 6, -27, -10, -27, -18,
   -24, -23, -7, -14, 25, -11, -1, 45,
   -13, -3, -15, 19, -10, -52, -35, -25,
   -43, -4, -19, 31, -17, 36, 4, -20,
   16, -3, 71, 60, -21, 5, -29, -13,
   44, -27, 34, -14, -24, 26, 16, -20,
   15, 14, -37, 25, 4, 20, 47, 11,
   -4, 50, 23, 28, 1, -8, -76, -4,
   -27, -19, -19, 13, 47, 41, -64, 25,
   36, 53, 60, 51, -16, 1, -21, 8,
   -17, 2, 28, -24, -7, -40, 8, 35,
   -34, 61, -19, -87, -7, 5, -36, 12,
   4, -5, -32, -4, 47, -5, 37, -33,
   27, -7, -32, 41, -36, 7, -37, 4,
   -1, -16, -9, -35, -18, 66, -28, -3,
   -87, -8, 4, 41, 0, -10, 26, 19,
   30, -23, 31, 3, 55, 0, -38, -17,
   -65, -10, -22, 34, -33, 42, 13, 31,
   -14, -16, 9, -8, -31, 12, -49, -5,
   12, 5, -3, -15, 11, -29, 17, -28,
   -55, 32, 31, -21, 5, 16, 17, 41,
   8, -3, -3, 15, -20, 3, -21, -21,
   55, -3, 31, 35, -11, 17, 45, -24,
   8, 5, -3, 13, 6, -27, 11, 23,
   35, 25, -6, 12, -43, 37, 6, -21,
   -6, 20, -25, 13, -16, 8, -25, -12,
   12, -16, 6, 37, 8, -16, 5, 46,
   48, -2, -4, -39, -37, -35, 33, -64,
   -31, -2, -17, 3, 13, 21, 34, -29,
   -5, -7, -18, -1, 3, 49, -43, -6,
   -13, -2, 25, -3, 26, -21, -6, 20,
   26, -38, 18, 7, 22, 20, -17, -17,
   12, -50, 7, -31, -56, 28, -4, 0,
   -23, 51, 1, 6, -11, 10, -28, -43,
   -4, 19, -34, -8, 18, 11, 0, -5,
   -14, -3, 11, 9, -35, 20, -44, -14,
   -9, -1, 26, 25, -9, -17, -26, 17,
   9, -13, 22, 10, 0, 6, 0, -28,
   -7, 23, 27, 1, 2, 2, 7, -26,
   16, 34, -3, -29, 14, -38, 16, 6,
   16, 27, 22, 30, -11, 14, 9, 3,
   -56, 54, 68, -26, -52, -22, 24, 21,
   -24, 4, 18, 23, -45, -6, -64, -23,
   38, -31, -10, 55, -2, 16, 48, 21,
   36, 13, -54, -55, 29, -24, 15, 30,
   -21, 33, -56, -12, 76, -45, -5, 31,
   3, 6, -28, -44, 15, 4, -50, 52,
   -4, 56, 6, -14, 26, -16, 40, 10,
   -3, -4, -8, -61, 0, -41, 10, 37,
   49, -56, -33, -27, -43, -12, 36, 24,
   -1, -21, 11, 35, -17, 2, -45, 8,
   6, -29, -12, -14, -48, -36, -14, 4,
   3, -24, -4, -21, -41, 44, -6, 8,
   23, 11, -40, 13, -5, 6, -23, 29,
   -6, -15, -15, 37, -12, 25, -9, 28,
   17, 4, -8, -12, -28, 22, 33, -6,
   -4, 32, 9, 31, -5, -17, -17, -20,
   -21, -24, 44, 24, 17, -53, 19, -31,
   9, 3, -17, 1, 10, 2, -21, -1,
   -15, -13, 3, -12, -9, -8, -8, 1,
   -1, 6, 19, 4, 9, 9, 3, 3,
   -13, -12, 7, 6, 17, 22, 1, 13,
   -12, -1, -7, 7, -6, 2, -5, 7,
   -1, -13, 8, -26, -1, 1, 26, 2,
   -10, -5, -22, 18, 15, -10, -22, 20,
   12, -5, -8, 7, -4, -9, 16, 2,
   3, -25, 2, -20, -4, 12, 5, 3,
   -10, -1, -19, 7, -11, -5, -27, -20,
   -12, -3, 9, 7, -16, -12, -13, 6,
   1, -17, 0, 12, 9, -7, 10, -16,
   19, -13, 4, -2, 10, -23, -9, 15,
   -3, 0, -4, 13, 4, 19, -9, -13,
   9, -3, -5, 12, -7, 12, 6, 20,
   12, 11, -4, 5, 10, -23, -16, 13,
   18, -6, 12, 9, 8, -1, -7, 13,
   -5, 2, 5, -19, -1, -7, -7, 7,
   27, 15, 47, 49, -26, -18, 16, -44,
   -6, -46, 23, -4, 43, 1, 26, 22,
   -25, -54, 3, 14, -24, 19, -5, -59,
   -19, -28, -26, -30, 28, -2, -6, 20,
   44, -17, 14, -6, 21, 24, 0, 16,
   41, 5, -8, -13, -8, 27, 10, 5,
   93, 29, 34, -28, -7, -70, 6, 30,
   24, 8, 94, -16, 53, 8, -4, -11,
   15, -45, -3, 6, -31, 5, -17, 11,
   19, 56, -5, -14, 16, 4, -2, 20,
   14, -24, 1, -17, 11, -23, -22, 1,
   1, 13, 14, 16, 17, -18, -61, 19,
   -27, -8, 32, 29, 17, -37, 22, 29,
   19, -25, -29, -16, 46, -7, -18, -13,
   16, 8, 5, 16, 1, 6, 24, 39,
   34, 2, -18, -4, -29, 11, -13, -19,
   38, -31, -24, -1, 26, 16, -13, -33,
   16, 15, 27, 6, 12, 17, -25, 30,
   -8, -36, 102, 14, 35, -42, -9, -52,
   27, 16, 53, -15, 28, -24, -7, 36,
   -37, -3, 108, -14, 54, -42, 69, -4,
   -22, -68, -1, -65, -19, 19, 42, -15,
   4, -50, 34, -30, 7, 5, -30, 26,
   7, -67, -42, -47, -34, 20, -10, 17,
   -12, 18, -25, 10, 34, 76, -65, -81,
   -8, -12, -127, -17, -46, 22, -36, 38,
   43, 20, 61, 36, -8, 14, 26, -45,
   31, 25, 9, 33, 6, -82, -17, -119,
   5, -118, -2, 46, 2, -23, -42, -2,
   20, -4, 24, -18, -46, -25, 89, 17,
   31, 10, -8, 7, 2, 98, 35, 29,
   14, 27, -31, -34, 61, -51, -16, 25,
   16, 9, 5, 47, 13, 5, 22, 16,
   75, 5, 2, 22, 64, -23, -11, 7,
   21, 48, -81, 2, 7, -16, 13, -73,
   -1, -12, -2, 8, 36, 15, 27, -22,
   9, -23, -59, 1, -15, 63, -6, -61,
   8, -47, 21, -38, -16, -3, 13, 25,
   -60, -22, -12, 86, -9, -25, 26, -18,
   -21, -49, -51, 22, -41, 50, 17, -10,
   13, -22, 42, 2, -1, 59, -26, -25,
   6, -70, 20, 35, 8, 54, -33, -25,
   0, 21, 7, -48, 39, -92, 0, -7,
   -72, -38, 103, -8, 2, 25, -5, -21,
   42, 7, 46, 19, -115, -9, -30, -41,
   -16, 10, 0, 42, -20, -34, 31, 78,
   10, 73, 36, 56, 36, 79, -35, 32,
   -20, 28, -5, 88, -27, -1, 5, 28,
   10, 38, 9, -33, 27, -125, 8, -24,
   -20, 18, 17, 34, 3, 9, 3, 0,
   -6, -9, -22, 14, -17, -19, -32, -26,
   56, 27, -20, 6, 41, -44, -4, -33,
   2, 50, 9, -7, -24, 29, 25, 35,
   -51, -41, -7, -3, -14, 15, 7, -40,
   12, 57, 59, -14, 87, 16, -9, -41,
   -54, 6, -17, 34, 2, -6, -1, 44,
   -11, -13, -20, -25, -28, 15, 29, -62,
   77, 34, -2, -15, 34, 35, 24, -8,
   -43, 29, 22, 6, 19, -22, -38, -21,
   -23, -40, 39, -14, 51, -28, 94, 12,
   123, -62, -30, 40, 42, 99, -78, -63,
   -26, -76, -23, 2, 126, -111, -23, 27,
   -51, 32, 17, 0, 0, -77, 43, -46,
   -49, 8, 30, 6, -97, 44, -10, -56,
   7, 27, -57, 126, 14, -79, 30, 64,
   -23, -9, -27, -57, -21, 66, -66, -11,
   26, -1, 44, 54, -23, 63, 7, 7,
   -10, -4, 47, -44, -9, -8, 13, -23,
   -29, 39, -65, 25, -7, -14, 18, 2,
   -56, -26, 12, -44, -4, -1, -8, -1,
   -24, -52, 7, -15, -13, 44, -17, 11,
   -51, -2, -13, -34, 36, -59, -5, 0,
   -18, 44, 44, -117, -4, 7, -11, 50,
   7, -48, 32, 12, 36, 15, 30, 24,
   7, -12, -50, -18, 35, 88, 13, 1,
   65, 125, -20, -14, 18, 24, -23, 23,
   21, -53, -7, -32, 34, 30, 6, -24,
   15, -9, 39, -6, -27, -35, -53, -13,
   -45, -47, 12, 69, 127, -31, 28, -39,
   -27, -14, -27, -15, 9, -33, -46, 61,
   -35, -21, -6, -9, 51, -33, -41, 54,
   -49, -40, 30, 77, -60, 33, 21, 67,
   55, -66, -56, -18, 100, -4, 80, 21,
   -63, -11, -8, -23, 72, -1, 59, -31,
   -25, 19, -20, -41, -61, -33, -17, 28,
   29, -25, -9, 36, 23, -26, 6, -8,
   45, 8, -6, 7, 13, 2, 18, 36,
   -118, -15, -9, 10, -31, -24, 37, -3,
   -11, 16, -22, -42, -3, -18, 0, -7,
   -53, 14, 5, -2, 44, -19, 25, 23,
   31, -28, -98, -59, 127, 32, -71, 18,
   30, 24, 22, -56, -28, 60, 20, 39,
   54, 93, 7, 50, 21, 118, -122, 30,
   123, -13, 125, 36, 15, 118, -120, -40,
   -56, -26, 5, -11, 4, 118, 127, -29,
   67, 109, -94, -69, -43, 14, 9, -55,
   -38, -81, -113, -47, 124, 14, -127, 123,
   -124, 80, 63, 48, -76, 82, -23, -94,
   -107, 14, -34, 57, 48, -56, 33, -36,
   -40, -37, -92, 58, 82, 127, 116, -7,
   -25, 114, 6, -11, 124, 118, 2, -3,
   31, -26, -43, 119, -99, 20, -86, -21,
   107, 67, -120, -21, -103, -63, 20, -97,
   69, -7, 18, 127, -34, 126, 121, 43,
   -47, -126, -79, -43, -32, -128, 87, 5,
   -126, 9, -7, -30, 55, -7, -11, -77,
   -5, 96, -35, -36, -26, 64, 21, 89,
   -106, -94, 25, -7, 30, 100, -128, -99,
   30, -40, 71, -22, 6, -51, 22, -74,
   48, -18, -48, 99, 36, 74, -7, -59,
   -47, -41, -61, -45, 51, -43, 93, -11,
   4, 24, -78, -125, 78, -45, 99, -58,
   17, -35, 60, 127, -56, -36, 32, -70,
   37, 0, -55, 41, -108, 71, -72, -73,
   -48, 0, -10, 38, 11, 8, -36, -127,
   -31, 124, -70, -77, 31, 33, -39, 56,
   3, -44, -126, 38, 104, -15, 40, -36,
   -34, 67, 119, 41, 44, 15, 15, 50,
   79, 2, 3, -61, -42, 79, 69, 112,
   20, 118, 7, 71, 69, 98, 79, 31,
   -25, 42, 2, -30, -126, -36, -44, -63,
   25, 77, 17, -127, 10, -7, 127, -20,
   53, -2, 108, -78, 127, 3, -33, -47,
   0, 71, 126, 37, -23, 8, 5, -3,
   -55, -56, -25, 96, -90, 83, -24, 126,
   -20, 34, -31, -14, 127, -40, 106, 78,
   52, -80, 26, -89, 127, 8, -35, 48,
   -69, 5, 28, 22, 8, -22, -86, -18,
   15, 18, 87, -10, -31, -12, -66, -6,
   -43, 124, 99, -89, -61, 35, 111, -67,
   0, -101, 21, 101, 36, -71, 21, 127,
   -92, -127, -105, 11, -71, 5, 20, -8,
   -1, -126, 8, 73, -115, -75, 126, -35,
   -127, 25, 107, 61, -126, 62, -127, -127,
   127, 106, -64, 127, 39, -127, -127, -127,
   -10, 69, 126, 90, -44, -75, -89, 21,
   125, 124, -83, 115, 12, -54, 125, 5,
   59, 126, 83, -7, 120, 45, -127, 127,
   60, -48, 125, -10, -128, -7, -25, 89,
   -28, -126, -46, 126, 127, -35, -37, 60,
   82, -84, -49, 105, 48, 48, 37, -103,
   -43, 65, 76, 126, 34, 27, -67, -15,
   47, 127, -20, 124, -57, -77, 34, -32,
   -20, 78, -29, -20, 60, -103, -124, 55,
   -92, -22, -94, -22, 2, -37, -13, -81,
   -32, -67, -88, -126, 113, -26, 5, -76,
   -53, -127, -106, 106, -82, 111, -126, -62,
   35, 65, 67, -87, 9, -13, -88, -125,
   -103, -124, -49, 118, 125, 107, 114, 14,
   -7, -100, -10, -103, -64, 122, -124, -119,
   -13, 62, -20, 72, -30, 91, 67, -6,
   -124, 67, -126, 125, 10, 41, 122, 65,
   -62, -93, 39, 70, -9, 111, 1, 27,
   -23, 18, 34, -74, -22, -7, -52, 16,
   -92, 54, -125, 123, -74, 85, -67, -127,
   -24, 2, 63, 6, 57, 17, -100, -14,
   50, 57, -107, 75, 9, -35, 2, 32,
   -126, 125, -48, 127, -13, 20, 127, 27,
   -92, 52, 57, -41, 19, -51, 76, 118,
   29, 2, 100, -4, -34, 75, -105, -14,
   -28, -58, 28, 67, -23, -102, 59, -41,
   -108, 117, 50, 45, 101, -27, -39, -69,
   -109, -55, 91, 42, 127, 43, -56, -106,
   83, -87, -126, -123, -57, 39, 37, 100,
   -121, 8, 21, 101, 22, -115, 1, 10,
   19, -71, -24, 63, -31, -58, -108, -123,
   27, 55, -48, -101, 35, 22, -3, 99,
   -89, 127, 50, 40, 30, 25, -121, 10,
   -40, 79, 108, -127, -28, 46, -2, -123,
   112, -59, 35, -125, -115, 47, 87, -68,
   69, -72, 114, -81, 95, 40, 86, 41,
   -51, 18, 31, -28, 35, -65, 23, -42,
   -126, 121, 108, 123, -126, 106, -59, -61,
   115, -127, -56, -21, -38, 96, 60, -57,
   1, 77, -31, 111, 33, -71, 0, -72,
   -120, -59, 124, -127, -124, 67, -33, -23,
   92, -126, 6, -89, 125, 62, -66, 60,
   -72, -74, -58, -90, -77, -99, 52, -126,
   -97, 57, -44, 23, -36, 96, -103, 80,
   -70, -38, -24, 127, -25, 88, 117, 57,
   -123, 24, -102, -87, -67, 45, -128, -127,
   -80, -119, -125, -36, -24, 30, 33, 108,
   -79, -15, -65, 76, -16, 36, -80, -69,
   -39, 119, -49, 124, 126, 23, -3, 48,
   26, -38, -13, -109, 91, -124, -74, -6,
   -91, 126, 126, -62, -60, 5, -125, -125,
   93, -72, -65, 127, -61, -82, 55, 110,
   118, 79, 103, 108, -39, 116, 42, -105,
   -64, 58, 10, -76, -53, 127, 47, 35,
   -13, 65, 101, 115, 95, 0, -84, 73,
   37, -8, 44, -104, 87, -103, 125, 75,
   -67, -84, 55, -121, 40, 124, -53, -41,
   -108, -75, -91, 101, 127, 50, -23, -27,
   124, -53, 125, 117, -62, 114, -34, 32,
   -95, 44, 27, -126, 125, 127, -86, 115,
   -127, -48, -125, 126, -61, 58, 42, -62,
   -40, 75, 59, -125, -33, -40, -124, -126,
   126, 34, -15, 29, -126, 115, -127, -17,
   -70, -47, -38, -56, 64, 50, -89, 55,
   -8, 34, -19, -49, 127, -6, -11, -123,
   39, 109, -16, -128, 27, 54, 68, -114,
   -37, 113, 112, -128, -80, 31, 9, 98,
   -77, 23, -8, 127, -63, -127, 20, 42,
   -6, -114, 125, 126, -64, -48, 24, 4,
   -46, 88, -26, 127, 102, 126, 23, 126,
   35, -104, -127, 109, 72, 40, 67, 126,
   -112, -41, 126, 73, 84, 126, 67, 109,
   -47, -90, 64, -125, -12, -90, 90, 17,
   -79, 13, -25, -76, 113, 73, 59, 78,
   -50, -121, -124, 49, 31, -41, 57, -105,
   112, 60, 48, 63, 126, 48, 45, -38,
   -67, 127, 12, 58, -126, -8, -16, -112,
   -78, 64, 30, 127, 72, -79, -128, 73,
   95, -124, 110, 50, 35, -106, -82, -50,
   40, -128, -119, 120, -57, 0, 18, 70,
   -15, 100, 42, 10, 3, 69, 127, -105,
   103, -9, -47, -127, 57, 101, -121, -107,
   104, 118, 127, 66, 49, -43, -13, 22,
   -112, 85, 73, -120, 125, -108, 107, 38,
   -62, -74, 74, -52, -6, 127, -126, -6,
   15, 75, 95, 121, -34, -113, -126, 84,
   62, -121, 76, 123, 36, -46, -86, -53,
   8, 126, -6, -126, 109, 50, 125, 124,
   117, -109, 120, -64, -128, 7, -36, -126,
   -32, 73, -4, -117, 120, 112, -10, 121,
   62, -121, -108, -61, 25, -12, 100, -11,
   -127, -120, -38, 18, -127, -72, -79, 32,
   96, -107, -119, -44, -36, -55, -19, -46,
   -20, 69, 79, 28, -6, -123, 43, 110,
   -120, -128, -126, -126, 54, 17, 22, 37,
   -128, -127, -124, -125, -125, 127, -127, -116,
   127, -128, -104, -125, -122, -6, 30, 122,
   68, 127, -31, 127, -87, -123, 127, 113,
   -100, 37, -77, 25, -124, 80, -57, 98,
   -72, -30, 23, -115, -98, -38, -108, -128,
   97, 81, 28, -22, 35, -128, 9, -105,
   115, 11, 5, 45, 12, 127, 9, 5,
   5, -21, 65, 122, -71, 40, 26, -17,
   -65, -111, -31, 42, -111, -56, 21, 3,
   51, 83, 18, -13, 14, -128, 46, 127,
   31, 127, -55, 58, -6, 75, 47, -54,
   98, 3, -87, -44, 95, -22, 127, 67,
   12, -12, -8, -33, -86, -79, -63, 67,
   82, -48, -16, -30, -33, -7, 97, -57,
   44, -58, -19, 95, -122, -16, -124, -91,
   -79, 47, 96, 8, 7, 0, -16, 98,
   -21, 90, 49, -60, -61, -79, 127, 127,
   -101, 53, -123, 121, -43, -7, 58, -7,
   -12, 124, 127, -101, 9, -126, 14, -1,
   -43, 61, 50, 63, 60, 14, 21, 126,
   19, -54, -1, -128, 78, 64, -63, -126,
   -26, 33, 59, 85, -128, 58, -69, 114,
   15, -22, 126, 80, -119, -29, 127, 107,
   -34, 3, -117, 123, -17, -2, -126, 49,
   80, -26, 13, -23, -38, 62, 52, -119,
   -70, -114, 12, -124, 65, 127, -26, 59,
   21, -11, -98, -73, 101, 79, 125, -10,
   76, -68, -103, -120, 29, 127, 87, 57,
   -1, -22, 0, 122, 15, 116, -114, -127,
   121, 126, -37, -51, 126, 7, 127, -48,
   -16, -40, 19, -39, -127, -127, 127, -2,
   8, -40, 22, 2, -102, -14, 19, -19,
   -38, -69, -108, 35, 29, -31, 50, -105,
   8, -118, -30, 67, -102, -40, -36, -11,
   77, 56, 124, 8, 100, 127, 123, -60,
   53, 63, -22, -53, -88, 35, 14, -1,
   91, 126, 13, 63, 48, -115, 109, 127,
   -23, 127, -108, -120, -81, -28, 83, 83,
   5, -125, 49, -128, -17, 16, -123, -23,
   -71, -96, 73, 82, -44, -127, 29, 28,
   3, 127, 80, 125, 85, 9, 50, -32,
   -93, 108, -65, 26, -13, -109, -4, 82,
   38, -104, 92, 126, -127, -127, 127, 52,
   -101, -105, -66, 57, -125, -19, 1, -125,
   52, 108, 54, -127, -32, 121, -77, -115,
   -65, 100, -127, 117, 98, 93, 47, -1,
   44, 24, -16, -96, 82, -1, -125, 91,
   127, -127, 127, -111, -128, -87, 23, -128,
   71, 19, -58, -35, -128, 127, 40, 28,
   -57, 64, -101, 124, 106, 101, -116, -93,
   -64, -45, -25, -65, 45, 10, -53, -60,
   11, 18, 41, 60, -123, -75, -17, 115,
   -28, -101, 61, -46, 127, -128, 83, -125,
   99, -125, 127, -124, -12, -75, 36, -38,
   -25, -127, -124, 68, -127, 126, 10, -21,
   10, -43, -128, -128, -9, 17, -117, 11,
   -101, 127, -123, -63, 125, -127, 127, 124,
   -127, -122, -122, -127, -29, 85, -127, -71,
   89, -55, 19, 10, 124, 13, -17, -55,
   -74, 54, 125, -6, -7, -99, -79, -53,
   -1, -59, -1, 114, 0, -13, 23, 66,
   -52, -128, 58, 69, -65, -123, -126, 89,
   31, -3, 102, 1, 95, -124, 70, 7,
   15, 112, -113, 102, 44, -128, 104, 88,
   -15, 122, 32, 72, -34, 122, -112, 63,
   -34, -122, -37, -112, 127, -128, -18, 108,
   81, 39, -30, -44, 104, 27, -126, 75,
   -124, -23, -126, -50, 118, -121, -28, -26,
   89, 117, 49, 14, -36, 12, -44, 29,
   -24, -26, -117, 29, 9, 41, -5, -112,
   -76, 117, 3, 27, 46, 22, 127, -24,
   -106, 103, -124, 103, 20, 122, -15, -121,
   -78, 127, 126, 61, 112, -128, -11, 81,
   122, -94, 127, 4, 127, 77, -127, 121,
   121, -128, -121, 127, -38, 60, -92, -54,
   8, 121, -45, -9, 125, 127, 54, 127,
   -39, 115, -120, -105, 127, -43, 102, 69,
   -124, -35, -30, 17, -2, 122, -57, -51,
   -70, 40, -38, 3, 127, -32, -108, -63,
   127, -82, 22, -112, -115, 40, -4, 18,
   65, -48, -59, -91, -98, -45, 90, 112,
   -104, 125, -56, 16, 28, 28, -125, 6,
   -13, -99, 63, 124, 109, -20, 119, 63,
   -127, 37, -122, 126, -117, -15, -82, 25,
   -88, 26, 9, 56, 48, 42, -76, -84,
   -40, 38, 73, 2, -36, -123, -94, -9,
   95, -19, 84, -113, -111, -50, 2, 27,
   34, 52, 54, 60, 127, -55, -33, 3,
   40, -128, -89, 126, -126, 111, -128, 105,
   -105, -58, -126, -63, 55, 26, 51, -58,
   120, -53, -46, 91, -93, 70, 9, -126,
   -79, 76, 127, 127, 83, 31, 127, -126,
   1, 15, 116, 127, -20, 51, -30, 25,
   70, -21, -11, 127, 96, 6, 126, -29,
   -23, 63, -91, 77, 109, -67, 36, 18,
   3, 2, -121, -55, 19, -2, 38, -111,
   41, 1, -36, 102, -26, -128, -73, -64,
   127, 84, -36, -127, -100, -12, -19, 95,
   -33, 15, -55, -41, -57, 100, -26, 78,
   -98, 21, -58, 34, 41, 125, -19, -77,
   -8, -91, -43, 35, -7, -123, 125, 90,
   -127, -45, 103, -43, -126, -50, -20, -125,
   -34, 50, 6, 5, 25, -14, 127, -115,
   -34, -100, 1, 80, 75, 44, 12, 40,
   28, 90, 60, -42, 6, -88, 24, -113,
   -24, 65, -34, -20, 100, -55, 34, -12,
   -83, -128, 104, 58, -124, -125, -124, 65,
   45, 40, 98, -98, 84, -127, 100, 40,
   108, 25, -126, 94, -122, -15, 127, 35,
   -80, 0, -62, -87, -3, -74, 107, -128,
   -19, 117, -12, -119, -21, -109, 101, 114,
   -92, -127, 55, -126, 24, -87, -127, -124,
   86, -30, -6, -1, -55, -48, -125, 50,
   127, 35, -113, 64, 30, -126, 24, -5,
   2, 47, 4, -26, -24, -78, -112, -4,
   29, -43, -48, 69, 114, 32, 57, 19,
   112, 31, -23, 108, 24, 98, -120, -67,
   -56, 126, 25, 58, -8, 36, 34, -16,
   14, 123, -30, 74, -56, -83, -15, 123,
   -58, 70, -73, 81, 127, 41, -128, 123,
   -13, -91, -78, -75, 126, -124, -124, -35,
   35, -30, 78, -106, 113, -67, -87, -9,
   -89, -68, 22, 88, 86, -57, 97, 25,
   48, -34, -114, -8, -17, 0, 64, -32,
   -69, -7, 105, 116, -38, -124, -67, -70,
   -56, 127, -2, 51, -79, 86, 14, -105,
   -118, 126, 18, 7, 40, -109, 58, 125,
   79, -121, 118, -60, 48, 2, -79, -75,
   -27, -125, -16, -90, -44, 78, -115, 127,
   -21, 102, -117, -97, 125, -107, 125, -38,
   -119, 58, 75, -61, 121, -8, -25, 93,
   -126, 29, -118, 0, -62, 56, -124, 97,
   122, -12, -6, -89, -127, 87, -119, 83,
   126, -35, 7, 20, -47, 43, -83, 44,
   102, -22, -115, 120, -1, -103, 74, 91,
   88, 108, 102, -56, -69, -84, 121, -127,
   7, 36, 90, 98, 86, -31, 121, 42,
   -41, -80, -37, 15, -124, 89, 104, 18,
   0, 126, 80, -18, -54, -123, 127, 11,
   -27, 10, 50, 127, 1, 60, -30, -35,
   -26, 119, -6, 11, 12, -43, 27, 92,
   -40, -69, 126, -5, 59, -4, -57, 54,
   35, -127, 123, 126, -94, -1, -19, 126,
   35, 27, 10, 86, 125, 122, -60, -24,
   10, 24, -126, -65, -84, -86, 30, -112,
   -117, 81, 42, 110, 113, 109, 124, -128,
   52, 81, -25, -76, 127, -83, -13, -58,
   116, 3, -68, 94, 114, 39, 127, 43,
   -21, -35, 23, 1, 28, 33, 57, -54,
   -51, 9, 17, -5, 61, 31, 9, -76,
   13, -8, 27, -59, 55, 100, -128, 10,
   -50, 43, -2, -22, 101, -10, -8, -97,
   45, 7, 18, -55, -67, 73, -39, 9,
   -126, -21, 56, 11, 8, 1, 19, 45,
   -30, 28, -61, -16, -38, 62, -24, 58,
   -6, -126, -88, 6, -50, 102, -57, -24,
   22, 46, 0, -102, 46, 49, -28, -48,
   -27, -110, -119, 67, -92, -15, -125, -119,
   -18, 90, -60, -9, 16, -78, -6, -16,
   12, -124, -21, -56, -45, 28, -21, -116,
   4, -54, 55, 20, 52, 123, 41, 24,
   -58, -124, 106, 103, 57, -88, 10, -28,
   127, -42, 32, -73, -127, 55, 122, 6,
   13, 26, -99, -37, 26, 3, -16, 22,
   4, -18, -37, 109, -125, -33, -110, -16,
   47, 13, -125, 16, 45, 46, 31, -54,
   -38, -95, 33, -32, 29, -48, -97, -27,
   24, 47, -35, 26, 32, 44, -67, -73,
   -121, 47, 64, -33, 76, 26, -109, -59,
   -59, -40, 77, -124, -48, -55, -21, -43,
   -56, 15, 31, -31, -127, -109, 80, 111,
   -10, -3, 34, 1, -40, 31, 70, 71,
   -125, -18, -114, -121, -41, -128, -40, -7,
   116, -62, 8, -69, 51, -3, -121, 40,
   29, -87, 39, -74, 16, 85, -97, -77,
   47, -125, -122, 124, 9, 99, -7, 30,
   24, -13, 75, 51, 25, -49, -32, -68,
   124, -128, 118, -57, -94, -128, -11, -2,
   -118, -36, 1, -49, 124, 116, -102, 42,
   28, -127, -45, -123, 49, -75, -3, -15,
   -61, 27, 47, -103, -126, -51, 110, -86,
   12, 57, -42, 84, 17, 96, -98, -75,
   -24, -111, -30, 59, -87, -109, -55, -93,
   123, 77, -91, 84, 26, 32, -73, -123,
   -18, 85, -62, -127, -7, -14, 10, 126,
   38, 66, 9, -76, -68, -70, 58, -77,
   85, -31, 81, 11, 47, -20, -26, 18,
   116, 103, -95, 34, 34, 34, -28, 1,
   61, -7, 63, 69, 16, 62, 123, -17,
   36, -2, -126, -128, -45, -61, 1, 112,
   -6, 18, -41, 125, 91, 46, 6, 39,
   -6, 110, -73, 56, -20, -58, 56, 29,
   116, 3, 1, 125, 7, -6, 62, -26,
   59, 64, 125, 126, -37, -15, -123, 94,
   -67, 127, -122, 42, -29, -108, 125, 110,
   -92, -18, 74, 20, 9, -40, 88, 110,
   -20, 46, 25, 36, 62, 15, -27, 93,
   5, -15, -125, -72, -6, 0, 39, 4,
   -24, 76, -102, -102, 59, 32, 16, 44,
   79, 87, 41, 70, 105, -19, -91, -108,
   -78, 27, -96, -31, -42, -105, 85, -82,
   29, -61, -9, 35, -39, -116, 126, -13,
   8, 108, 126, 64, 48, 11, -18, -7,
   -26, 14, 1, 56, -121, -67, 42, -81,
   122, -19, -17, 127, -126, 41, -31, 109,
   -42, -38, 29, 95, -126, -81, -78, -88,
   -104, -12, 85, 84, 56, 75, -28, 3,
   -90, 98, 28, -7, -11, -107, -45, 4,
   -33, -23, -20, 70, -23, -71, 70, 123,
   -71, -54, 71, 46, -13, -14, 77, -5,
   -61, 47, -10, 127, 115, 15, -83, 61,
   126, 103, -121, -111, -9, -34, -79, 71,
   -107, 65, 31, 33, 3, 76, 73, -17,
   16, -101, 22, 33, -123, 125, 84, -5,
   -2, -41, -118, -13, -12, -9, -19, 54,
   -18, -25, -15, 119, -42, 47, -53, -68,
   18, 40, -126, -105, 79, 89, -70, 80,
   9, 49, -89, -63, 85, 16, -127, -46,
   -105, 55, 109, -44, 30, 55, 64, 123,
   46, -125, 20, -78, -5, -58, 47, 13,
   -105, -57, 107, -27, 60, -104, 87, -49,
   -126, 4, -9, 22, -102, -27, -11, 12,
   -84, 113, 126, 58, -115, -51, 92, 1,
   -126, -118, 85, -92, 11, 47, 20, 38,
   20, -13, -42, 42, 126, -123, 127, 113,
   -38, -125, 26, 119, 24, 28, 124, 30,
   -7, 36, -96, -20, -25, -126, -36, -122,
   116, -45, 111, 20, 117, -51, -86, -15,
   120, -34, 91, 52, 126, -116, 122, 18,
   -24, 114, -87, 57, 113, 127, -56, 62,
   -59, 81, -36, 63, 0, -126, 106, 66,
   -101, 40, 100, -39, -30, 69, -42, 111,
   6, -5, -51, -49, 19, 127, -7, 12,
   -26, 44, -68, -117, -56, -36, -11, -55,
   -118, 78, 109, 63, 59, -46, 63, 22,
   -66, -3, -100, -121, 96, 86, 71, -64,
   13, -73, 126, 53, 69, -124, 6, -13,
   -18, 17, 79, -115, 104, -65, -70, 56,
   -17, 121, -58, -89, -31, 4, 100, 127,
   93, 36, 30, -16, 75, -59, -6, -24,
   127, -25, 108, -38, -16, -20, -36, 23,
   90, -128, -51, 127, -4, 114, -26, 72,
   115, -13, -14, -87, 13, 127, -59, -16,
   -41, -122, -123, -127, 102, 118, -49, 88,
   -47, -11, 70, -33, 34, 66, 65, -68,
   67, -60, -45, 82, 30, 101, -126, -30,
   53, -98, -19, 105, 59, -84, -67, 89,
   -55, -6, 2, 12, -15, -112, -51, 17,
   70, 33, -26, 5, -101, -124, 127, 127,
   6, 117, 103, -88, 90, 17, 108, 125,
   61, 17, -78, -60, -85, 48, 125, 38,
   -35, 7, -53, 46, -71, -36, 38, -12,
   105, -57, -52, -27, 55, 4, 35, 51,
   -107, 15, 31, 127, -99, 32, 126, 28,
   -81, 93, -90, -18, 120, 39, -122, 24,
   -61, 127, 115, 100, -50, 22, 127, 31,
   21, 44, 71, -42, 46, -18, -59, -62,
   50, 12, 7, -12, 59, 1, 1, 43,
   -86, -82, -27, 11, 19, 69, 70, 36,
   -67, -9, 68, -105, 41, 24, 19, 8,
   -94, -11, 1, -43, -93, 33, -6, -42,
   -9, 42, -10, 61, 5, -9, -14, -50,
   -18, 31, -63, -11, 11, 5, 106, 62,
   23, -63, 10, 18, -16, 60, 31, 40,
   -50, 79, -20, -59, 11, 29, 27, -79,
   53, -51, -123, -124, 23, -11, -19, -8,
   35, 123, -31, 4, -58, 123, -58, -59,
   -38, -125, -125, -67, -5, 68, -37, -117,
   15, -39, 86, -29, 72, 99, 32, -12,
   -17, 18, 36, 34, -24, 76, -9, 7,
   11, -71, -20, -21, -101, 44, 6, 36,
   -117, 13, 0, -8, 30, 55, 10, -49,
   -10, 2, -4, 94, -63, 40, 11, 43,
   -73, 6, 84, -1, 33, 6, 74, -34,
   13, -123, 15, 5, 58, 27, 56, -120,
   57, 60, 73, -27, 71, -23, -21, -77,
   -54, 19, 58, 58, -127, -9, -23, -9,
   40, 54, 81, -119, -93, -37, -40, -63,
   23, 20, 14, -55, -42, 30, 90, 123,
   22, -54, -32, 91, -40, 71, 48, 29,
   -32, 13, 52, 44, -17, -48, -4, -9,
   -15, -3, 45, -14, 59, 33, -128, 32,
   -5, -60, 17, -25, -60, -60, 11, 66,
   81, -115, -128, 121, -74, 62, -78, 9,
   8, -112, 26, -115, -49, -127, -118, 30,
   4, 33, 53, 55, 62, -22, 57, 36,
   19, -79, -56, -9, 103, 117, -80, 40,
   -94, -37, 97, 38, 2, -33, 14, -12,
   -33, 50, 3, 104, -69, -126, -30, -58,
   15, 61, -74, -65, -3, 14, -44, -29,
   -40, 58, 67, 80, 74, -4, 29, 16,
   56, 24, 61, 58, 38, 2, -43, 0,
   -38, 12, 40, 40, 46, -29, -31, 15,
   -49, -11, 100, -2, -44, -10, -5, 23,
   0, -27, 51, -42, -32, 58, -56, -84,
   99, -99, -34, 107, 5, 32, 7, -17,
   9, 39, -46, -3, -13, -23, -106, -10,
   -37, 22, -28, 125, -102, -23, -64, -56,
   10, -62, -2, 39, 75, 79, -18, -127,
   57, -2, 28, -46, -38, -7, -11, 46,
   68, -93, -70, 12, -2, -96, 126, 25,
   3, 89, 52, 33, 122, -55, 27, -83,
   115, -57, -65, -54, 119, -38, -72, -13,
   120, -23, 60, -84, 19, -18, 41, 114,
   35, 37, 32, 55, -17, -101, -14, 10,
   -50, 66, 24, -47, 21, -18, 22, -18,
   12, 38, -12, -1, 61, -55, 16, -51,
   39, 74, 25, 19, -3, -23, -50, -1,
   0, 15, -65, -46, 15, 18, 51, -24,
   -16, 43, 1, -21, -3, 59, 74, -25,
   -84, 127, -42, 95, 17, 40, 42, 98,
   34, -90, 54, -4, 24, 3, -51, 42,
   1, -37, -7, 9, -15, 62, -120, 16,
   119, -47, 105, 112, -101, -26, -69, -121,
   28, 115, -6, 14, -35, -84, -94, -121,
   123, 14, -37, 88, -51, 21, -26, -58,
   68, 69, -30, -88, 56, 98, 39, 25,
   11, -29, 57, -82, 77, 42, -40, -32,
   5, -10, 86, 70, -5, 57, 61, 43,
   5, -29, 94, 10, -124, 12, -56, -48,
   65, -38, 39, -96, 30, 107, 125, 30,
   -126, -47, 72, 16, -41, -79, -118, -74,
   127, 42, -26, 59, -107, -97, 40, -64,
   72, -105, 83, 86, 1, -20, 43, 38,
   80, -40, -17, -69, 46, 113, 10, 40,
   -58, 49, 25, -48, -123, -9, 77, 23,
   76, 0, 80, -16, -127, 15, 6, 86,
   30, 56, -10, 125, 12, 33, 20, -27,
   12, 95, -85, 7, 112, 31, -7, -23,
   -124, 27, -86, 72, 4, 43, -33, 26,
   -68, 56, 72, 117, 50, -109, -67, 112,
   63, -35, -69, -21, 38, -71, -127, -5,
   8, 1, -59, 29, 58, 15, -18, -12,
   -43, 122, 24, 125, -9, 52, -50, 58,
   13, 68, -13, -122, -45, -10, -72, -25,
   41, -108, -42, 66, 38, -67, 32, -53,
   18, -5, -70, 33, -78, -31, 113, -67,
   -45, 57, -7, 6, 90, 114, 94, -125,
   119, -112, -92, -119, 1, -99, 102, -42,
   -34, 55, -8, -104, 125, 82, 106, -4,
   72, -8, -87, 76, 11, 114, 41, -52,
   8, -36, -14, -42, 80, -13, 111, -15,
   62, 82, 44, -26, 34, -65, -3, 46,
   33, -29, -48, -24, 50, 38, 20, 97,
   17, -65, 49, -49, 41, 98, -53, -33,
   25, 51, -122, -37, -7, -83, 31, 89,
   -42, 26, -120, -33, 37, 92, -118, 87,
   112, -92, -122, 102, -45, -38, -61, -61,
   -66, 14, 82, -6, 38, -51, -60, 97,
   -17, -38, -56, 67, 32, -58, 25, -92,
   10, -104, 56, -42, 71, -55, 49, 62,
   -128, 83, -24, 79, 62, -5, 31, -59,
   -108, 120, 55, 42, 61, -127, -1, 127,
   127, 48, 127, -42, 19, -93, -109, 31,
   -44, 40, -67, -47, 69, -77, 72, 29,
   -121, 14, -19, 21, 119, -106, 43, 25,
   38, 2, 18, 5, 88, -2, 103, 48,
   15, -21, 15, -111, -62, 25, -15, 45,
   31, 118, -17, 127, 9, 16, 34, 119,
   86, 2, -36, 35, -34, -68, 127, -11,
   -11, 45, -1, 37, 10, -103, -7, -36,
   -52, -33, -15, 113, 93, 0, 15, 57,
   -17, -4, -125, 36, 115, 53, -82, -26,
   -24, -52, 44, 49, -23, 24, 14, 14,
   25, 121, -30, -27, -97, -92, 40, 17,
   -104, -89, 79, 22, -6, -48, -70, -23,
   -63, -10, 47, -25, 78, 31, -68, 116,
   -85, 49, 15, 24, 11, -20, 0, 49,
   60, -2, -31, 55, 62, 7, -49, -51,
   -23, 56, -21, 30, 85, 12, -24, 124,
   6, 3, 7, 56, -96, 124, -30, 26,
   -106, 31, -46, 38, 10, 45, -87, 57,
   -47, 15, -127, 69, -14, -8, 93, -34,
   81, 78, 16, 48, -83, 44, -32, 18,
   -23, 7, -19, -62, -84, -40, 65, 40,
   -29, 51, 12, 30, 31, 44, 60, 120,
   -2, 53, -84, -41, 27, 10, -71, 68,
   12, -16, -8, 13, -81, 48, -11, 6,
   -73, -41, -29, -46, 5, -26, -26, -8,
   77, 125, 20, -59, 3, 9, 41, -56,
   5, 6, 120, -22, 5, 32, 60, -31,
   38, 73, 15, 53, -67, -21, 7, -29,
   -51, 94, -29, 47, 29, -48, -1, -120,
   87, -96, 51, -62, -95, -41, -83, -24,
   -50, 13, 70, -33, 27, 8, 4, 53,
   34, -34, 39, 90, -39, -87, -24, -68,
   -7, -11, -17, 40, -62, -98, -123, 39,
   32, 38, 3, 112, 10, 20, -73, 5,
   60, -3, 38, 24, -82, 89, 57, -40,
   -88, -88, 7, 13, 7, 37, -73, -21,
   -53, -19, -60, -6, 127, 54, -25, 47,
   81, 65, -3, -127, -19, 16, -36, 46,
   -86, 25, 33, -80, 42, 4, 43, 117,
   -47, -24, 63, 9, 51, 13, -67, 103,
   -47, -37, 35, -11, -28, 46, -46, -112,
   9, -29, 34, -26, -37, -71, -21, -9,
   -110, 53, 2, 4, 56, -52, 51, -64,
   61, 6, -35, 57, -43, 53, 32, -72,
   -5, 55, 85, 26, -85, 70, -3, -19,
   -47, -86, 14, -45, 74, 77, -14, -42,
   -52, -68, -24, -25, 109, 54, -126, -120,
   7, -30, -2, 41, 28, -29, 66, -40,
   53, 0, 71, 99, 121, -60, 127, 41,
   -88, -124, 123, 24, -8, -77, 0, -64,
   -13, -34, 12, 18, 4, -2, -128, 22,
   6, -58, 96, 95, -5, -18, -25, -32,
   -67, 83, -30, -128, -71, -46, 22, -17,
   -10, -126, 106, -75, 9, -9, 6, -39,
   -70, 57, 127, -30, 125, 95, -59, 112,
   23, 3, 53, -105, 52, -91, -11, -4,
   32, -48, -6, 103, -44, 26, 2, 53,
   -13, -118, -45, 37, -9, 55, -125, -78,
   -5, -23, 118, -30, -7, -15, -123, -68,
   19, -94, 51, 24, 48, 31, -114, 40,
   -12, 70, 91, -100, 34, 35, 123, -12,
   -24, -89, -22, 40, 61, 3, 19, 120,
   2, -99, -21, -39, -53, 41, -38, -35,
   -97, -126, -95, 27, 1, 106, 22, 94,
   -23, -57, 61, -105, 74, -46, -7, 61,
   -101, 41, -37, 47, 94, -25, 76, -35,
   -17, -45, 45, -25, 125, -33, -124, 55,
   -119, 32, -30, 0, -6, -33, 53, 22,
   -37, 4, -36, -4, 115, 126, 25, -127,
   -51, 42, 19, -26, 21, 32, 53, 87,
   -101, 127, -30, -124, 40, 11, -24, 1,
   -14, 88, 0, -29, -24, 6, -74, -25,
   13, 127, 40, -16, 69, 28, 98, 9,
   95, -78, -33, -22, 29, 127, -18, -41,
   127, 4, -75, 122, -31, -80, 101, 120,
   48, -45, 45, 76, -28, -19, -25, -99,
   -3, -57, -8, -123, 8, -32, -42, 2,
   -85, -11, -9, 16, -33, 99, -34, 29,
   -19, -107, -15, -11, 38, -37, 48, -7,
   -38, 69, 51, -126, -107, -2, -62, -45,
   42, -85, -22, 100, -67, 24, -28, -21,
   -22, 97, 30, 74, -54, -9, -19, 38,
   -86, 41, 116, -44, -76, -37, -57, -32,
   103, 33, 72, -48, -52, 4, 39, -104,
   46, -107, 34, -95, -126, 127, -125, -3,
   28, 23, -15, -74, 41, 30, 24, 77,
   46, -20, -38, 33, 42, 19, -29, -62,
   -104, 15, 87, 20, 35, 46, 127, -9,
   117, 80, -51, 37, 107, 39, 16, 34,
   -126, 24, 67, 61, 66, 31, 113, 64,
   32, 19, 127, -86, 127, 127, -20, -43,
   25, 102, -38, 92, 73, 123, -12, 16,
   -74, -10, 36, 123, 75, 90, -73, 75,
   18, -47, 91, -47, 50, -107, 17, 52,
   -55, 31, -43, -13, 28, 108, 51, 35,
   63, -68, 2, 18, -36, -16, -2, -4,
   -49, 6, 127, 49, 46, 7, -100, 51,
   -125, 45, 15, -32, -61, 91, 11, 13,
   38, 29, 21, 5, -29, -94, -10, -67,
   -98, 114, -20, -37, 16, 47, 50, -78,
   42, 50, 42, -59, 127, -13, 126, -6,
   7, -82, 40, -85, -29, 49, 20, 107,
   66, 41, -16, -83, -98, 113, 71, -116,
   -126, 89, -39, -124, 31, 41, 36, 38,
   66, 5, 13, -34, -122, -82, 84, -27,
   2, -15, 18, 98, 42, 22, 55, -81,
   24, 78, -93, 21, 20, -80, -34, 65,
   -121, -122, 107, -6, 23, 25, 84, -89,
   7, 55, 122, 90, 77, 34, -128, 30,
   -21, -20, 23, 16, 127, -12, -120, 94,
   -127, 27, -47, 20, -63, 39, -127, -99,
   -106, -54, -36, -83, 2, 43, -17, -86,
   101, -70, -30, -92, 14, -10, -112, -74,
   2, 27, 61, -10, -26, 51, -125, -60,
   -43, -25, 19, -81, 57, 75, 43, -93,
   -9, 8, 14, 31, -9, -44, -74, 51,
   79, 32, -54, -78, -94, 37, -44, 50,
   -120, -61, 23, -53, 12, -121, -6, 125,
   9, -58, -35, -55, 93, -10, 11, 45,
   31, -33, -30, 19, 19, 8, 15, 9,
   -29, -40, -64, 19, -12, 13, 13, 10,
   -28, 57, 40, -8, -21, -10, 3, -36,
   -9, -47, 30, -8, -23, 14, 9, 22,
   37, 82, -2, 6, 29, 14, -34, 24,
   82, 30, -27, -42, -28, 3, 42, -62,
   38, 27, -30, -22, 5, 16, 35, -11,
   -85, 76, -76, -20, -37, 0, -60, 29,
   37, 19, -24, 6, 57, 11, 15, 115,
   3, 58, -28, 0, -53, -16, 38, -20,
   -114, 6, -4, -121, -68, -23, 27, -94,
   4, -2, 9, -18, 15, -19, -23, 0,
   5, -25, 27, -5, -5, 31, -68, -17,
   78, 4, -15, -9, -18, -17, -26, 11,
   -7, -43, 33, -18, 8, -25, 23, 1,
   3, -10, -82, 17, 27, -36, -18, 5,
   11, -3, -2, 33, 2, 13, 10, 23,
   -6, 77, -44, -124, -6, 40, 15, 95,
   -17, 21, -57, 65, -120, -21, -20, -4,
   8, 61, 8, -10, 11, 3, -25, 4,
   43, -35, 104, -12, -27, -8, 12, -47,
   12, -25, -5, -65, -32, -60, -20, 65,
   -1, -30, -127, 53, -22, -60, 22, -42,
   -37, 4, -19, -99, -86, 7, 41, 51,
   -83, 21, -37, 27, 122, 47, -21, 24,
   -61, -43, 27, -74, 15, -114, -120, -27,
   5, -15, 27, -106, 45, -68, 35, 23,
   -57, -14, -22, -14, 36, 12, -19, -10,
   35, -4, 46, -25, -12, 20, 123, -79,
   -13, -43, -64, -29, 9, 24, -54, -124,
   -20, -13, -34, -38, -46, -4, -1, -6,
   -96, -127, -3, 0, -71, 2, -69, 0,
   30, -16, -36, 2, -34, 0, 36, -20,
   4, -24, -7, -16, -23, -73, 3, 48,
   15, -28, -3, 32, 22, -49, 10, -13
};

static const rnn_weight noise_gru_recurrent_weights[6912] = {
   37, -53, -7, -4, -77, -80, 124, -8,
   126, 45, -110, -14, 21, 76, -36, 90,
   13, -17, -33, 28, -104, 46, 39, -69,
   41, 55, 7, -22, -65, -26, -28, -9,
   100, -8, 32, -79, 40, -20, -14, -31,
   -9, 96, -48, 124, -41, 41, -111, 7,
   1, 18, -71, -69, -82, -9, 70, -123,
   4, -4, -57, -4, -17, 122, -10, 19,
   1, 93, 69, 102, 20, -58, 30, -14,
   52, 69, 54, -110, -23, 40, 89, 62,
   17, 65, 42, -82, 61, 79, 100, -42,
   -39, 71, 85, 57, -51, 30, -104, 125,
   -54, -25, -51, -121, -29, 27, 5, -28,
   41, -9, 34, -77, -13, -68, 52, 41,
   -46, 17, 70, -21, 55, -79, -9, -65,
   -31, -56, 35, -42, -95, 81, 88, -17,
   20, 80, -43, -54, -24, -16, 25, -37,
   -24, -59, -35, -34, 15, 34, 65, 35,
   50, -1, 20, -3, -3, 60, -82, -45,
   -50, -33, 2, -13, 9, 71, 56, -52,
   93, -2, -14, 127, 126, 125, -43, -6,
   -119, -106, -6, 89, 71, 53, -30, 11,
   -9, 24, -18, -86, -2, 19, -81, -53,
   -3, -71, 0, -7, 8, -14, -43, -5,
   75, -42, -125, 10, -67, -13, -58, -5,
   -6, -110, 2, 14, -41, -34, -64, 14,
   115, -1, -1, 1, 22, -17, 101, 69,
   32, -60, -68, 11, 51, 6, -20, 43,
   28, 49, -44, 22, -5, 16, 43, -97,
   -70, -39, 98, 11, -9, 23, 66, -43,
   40, -31, 20, -28, 113, -93, -59, 49,
   -59, 110, 10, -5, -24, 14, 7, -28,
   -39, 19, 15, 60, -55, -15, 26, 127,
   106, 103, 24, -44, 15, -16, 67, 125,
   124, 5, -84, -23, 25, -39, 59, 80,
   -78, -1, 70, -65, 70, 53, 44, 49,
   -24, 110, -8, -16, -84, 61, -49, -27,
   23, 59, -41, 24, 7, -76, 5, 57,
   -46, -93, 125, 7, 98, -26, 33, 47,
   54, -103, -14, -48, -6, 47, -52, 29,
   -18, 3, 47, -69, 26, 49, -86, -4,
   -22, -23, 9, 15, 41, 74, 76, 41,
   -28, -27, -117, -43, -60, 48, -56, 35,
   36, 42, -23, -80, -6, 24, 39, 0,
   35, -92, 36, 35, -85, -86, 77, -16,
   -8, 40, -16, -80, 77, 3, 86, 73,
   -7, 46, 71, -20, -51, 73, 85, -116,
   31, 72, 22, 3, 30, -92, 2, 61,
   -38, 22, -23, 53, -61, 42, -66, -67,
   46, 114, -2, -124, -9, -83, -61, 20,
   -115, 3, 78, 13, 47, 4, -60, 5,
   1, -26, 29, 51, 31, 22, 19, 105,
   14, -34, 24, -20, -3, -25, -2, 80,
   -121, -44, -48, 20, 65, -102, 90, 92,
   -91, -43, 104, -12, -72, 3, -80, 8,
   -68, 57, 28, -3, 88, 28, -4, 22,
   75, 16, -55, 124, 18, 72, -14, -17,
   -98, -53, 68, -11, -68, 123, 4, 89,
   -27, -40, -6, 18, 33, -18, 25, -25,
   21, 18, 31, 34, -39, 91, 46, 46,
   13, -29, -36, 24, 93, -22, -32, 94,
   -30, -55, 30, 17, -35, 91, 104, -9,
   55, 49, -81, 27, -57, -3, -51, 92,
   51, -23, -34, -118, 87, 44, -19, 72,
   -4, 67, 31, -6, 83, -79, -51, -41,
   11, -88, 24, 71, -125, -35, -13, 45,
   14, 104, -87, -21, 54, 21, 12, -36,
   -5, 1, -3, 72, -55, 20, 58, 90,
   -9, 98, -3, -41, 87, -9, 54, -55,
   -49, 100, 41, 16, 104, -3, -36, 52,
   -43, 9, 35, -52, -9, -50, 105, 106,
   -25, -80, -62, -18, -3, -18, 49, -40,
   -39, -34, -47, 30, -15, 16, 64, 125,
   27, -66, 34, 80, -91, 61, -3, -7,
   -43, 33, 27, 18, -126, 4, -58, -65,
   18, -13, 50, 57, -47, 37, -31, -73,
   96, -19, -4, -2, 14, 35, -121, -29,
   -13, 90, -21, -4, -33, 18, 55, -77,
   -69, -56, -13, -50, -61, -66, 38, -10,
   10, 58, 57, -17, -59, -23, 39, 58,
   17, -7, 41, -17, 93, -19, -22, 36,
   59, -118, 127, -42, 38, -88, 42, 3,
   -15, 60, -26, 32, 35, 111, 93, 103,
   -56, 32, 40, -65, -96, -9, -87, -2,
   61, 67, -94, -25, 10, -121, 52, -1,
   -53, 27, 53, 57, -65, 15, -85, -6,
   -113, 18, 1, -3, -8, 21, -84, -52,
   47, 74, 25, -49, -111, 89, 103, -13,
   108, -2, -14, -26, 45, 6, -11, 49,
   55, -76, 112, 4, -82, 97, 23, -86,
   -41, -74, 84, 123, 35, -21, 57, -117,
   5, 76, 103, -1, 6, -69, 53, 30,
   -10, 21, 5, -68, -78, -15, 25, -60,
   60, -45, -109, -10, 123, 31, 10, -40,
   -59, 24, -8, 27, 47, 127, 38, -37,
   -31, 95, -11, -94, -45, 16, -56, 15,
   20, 17, 127, 40, 10, 38, -33, -56,
   43, 1, -68, -21, 124, 38, -11, -21,
   18, 113, 45, 2, -6, 28, 28, 42,
   10, -31, -52, 43, 20, 98, -22, 59,
   15, 100, -15, 56, 57, -35, 51, -11,
   0, -9, -83, -3, 5, -78, -47, -13,
   127, -88, -9, 97, -69, 14, 50, -75,
   63, -56, 24, 28, 79, 46, -122, 39,
   69, 120, 12, -126, 53, -54, 50, 49,
   48, 26, 92, 3, -113, -41, -78, 127,
   -26, -26, 34, 118, 4, 29, 68, 38,
   63, 21, 10, 30, -49, -128, -28, 5,
   21, -51, 99, 4, 40, -50, -11, 114,
   -102, -6, 103, -77, -38, 86, -97, 98,
   95, -21, -50, 65, 72, 64, 36, -6,
   -28, -50, 68, 13, 24, 48, 19, 76,
   61, -13, -43, -80, -23, 55, -83, -5,
   33, -43, 50, 9, 13, -1, 57, 42,
   -65, -19, -79, 7, 34, 42, 30, -29,
   63, 33, 10, 84, -67, 53, 17, -26,
   13, -16, 55, -40, 78, -85, 20, 61,
   8, -24, 8, -33, -42, -21, 24, 34,
   -38, -2, -65, -13, -11, -49, 53, 13,
   -59, -99, -34, 44, -25, 120, 5, -5,
   31, 11, -9, 24, -119, -123, -75, 24,
   -33, 18, -19, 5, 16, 36, 68, 62,
   25, -49, 52, -24, 69, 73, -16, 56,
   13, 34, 40, 102, 20, -97, -52, 125,
   -47, 26, -14, 47, 14, -101, 29, -14,
   -57, 79, -33, 76, 99, -19, 3, 17,
   85, 69, 100, 21, -22, 71, 118, 50,
   7, -83, -120, 101, -1, 124, 91, 66,
   78, -69, 5, 39, -30, 5, -22, 65,
   31, 15, -19, 5, -96, 122, -49, -1,
   7, -43, 116, -1, -22, -109, -54, 23,
   84, 38, -42, -10, -78, -31, -36, -22,
   -16, -18, 68, 110, 115, 103, 55, 32,
   -30, 54, -121, 105, -26, 63, 3, -50,
   42, 54, 101, 59, -14, -19, 25, -46,
   70, -6, -3, -26, 31, 74, -45, -11,
   68, 52, 37, 17, 86, -59, -13, -106,
   -17, -80, 9, 26, 69, -70, 119, -22,
   5, 0, -4, -39, 66, 44, -40, -18,
   117, 65, 16, -10, 80, 7, -94, -9,
   -4, -59, -20, 23, -25, -10, -17, 60,
   -82, 20, -81, -15, 52, -41, -10, -34,
   30, -14, 127, -16, -12, -15, 27, -39,
   -6, -35, 51, 33, -74, -41, -13, -46,
   -9, 57, 127, 56, -104, 52, 58, 65,
   35, 99, 26, 24, 51, -1, 69, 63,
   104, -66, -37, -12, -119, -93, 28, 41,
   14, 104, -9, -3, -43, 8, 102, 64,
   1, 43, 10, 3, -22, 71, 12, -80,
   52, -38, 34, 15, -86, 92, 74, 49,
   -11, -55, -115, 22, -2, 21, 12, 34,
   3, 19, -13, -33, -31, 26, -51, -32,
   -56, 55, 25, 15, 43, -30, 12, 62,
   -5, -34, -26, -37, 19, 26, -73, -43,
   47, -98, 18, -103, 59, -23, 42, -46,
   -45, -17, 19, -51, 70, -31, -33, -31,
   103, 49, -25, -1, 127, -31, 86, 2,
   -31, 83, 126, -17, -81, 14, -100, 1,
   -76, -59, -127, 32, -5, 98, -39, -37,
   100, 37, -40, -91, -126, -39, -19, 79,
   40, -125, -44, -127, 6, -89, -25, 27,
   88, -75, 80, 41, -53, 66, -81, -44,
   -18, -35, 43, 99, 75, -18, 32, -31,
   68, -12, -95, 7, 115, -57, 26, 55,
   61, 48, -119, -51, 58, -77, -57, -87,
   55, 70, -93, -19, 11, -36, -65, 81,
   51, 48, 30, 23, 59, 37, 49, 52,
   34, 22, 16, 59, 19, 84, -48, 59,
   20, -102, -26, 56, -91, 125, -25, -9,
   11, -72, -77, -34, 5, -57, -8, 9,
   -79, 33, 27, 21, 14, 67, 97, 3,
   -2, 51, -61, -51, -4, 27, 79, 32,
   -19, 26, -7, 5, 69, 30, -56, -99,
   75, -90, 22, 44, 0, 16, 66, 29,
   -38, 100, -121, 40, -63, -49, 27, -118,
   -11, -53, 23, -66, 27, -42, -91, 16,
   43, 62, -127, -2, 68, 35, -84, -4,
   -110, -55, 29, 78, 46, 38, 125, -67,
   51, 4, 62, -123, 32, -32, -73, -7,
   92, -5, 90, 8, 116, 24, -128, -54,
   48, 48, -21, -37, 13, 5, -20, -126,
   13, 23, 47, 52, -30, -37, 31, -2,
   -126, -33, -12, 34, -32, 29, -22, -5,
   -1, 39, -27, 42, 63, 20, -4, -34,
   9, -54, 54, -53, 53, 57, -122, 15,
   20, 63, -84, -90, 36, -26, 17, 28,
   21, -124, 63, -56, -31, -43, 59, -6,
   -50, 22, 10, -86, 97, 89, -111, 43,
   40, 79, 59, -12, 12, -39, -12, -27,
   -89, -102, -8, -60, 11, -16, -10, 13,
   8, 105, 31, 88, 53, 0, 39, -19,
   21, -90, -1, 25, 11, -4, -53, -77,
   29, -54, -68, -2, -35, -16, -124, -37,
   -15, 6, -12, 90, -23, 6, -13, 90,
   -13, -99, -40, -53, -81, 80, 18, 12,
   30, 0, -12, -3, -29, -26, -123, -35,
   10, 43, 26, -5, 42, -8, -119, 71,
   -53, 6, 14, -45, -128, 31, -95, -128,
   59, -126, -127, -123, -12, -85, -17, -120,
   6, -88, -29, 28, 119, -35, 24, 115,
   23, -24, 14, -30, -45, -49, 4, -3,
   10, -72, -90, -18, -68, -32, -45, 20,
   -30, -23, 9, -15, 33, -68, -57, -4,
   62, 98, -62, -32, -4, -32, 58, -127,
   68, -40, -1, 0, -19, -103, -57, 8,
   118, 96, -116, 41, -48, 60, 120, 48,
   80, -112, 52, 72, 59, -69, -50, -35,
   50, 125, 0, 13, 8, -50, 120, 16,
   -23, 49, 67, -28, 46, -81, 28, -62,
   66, 80, -37, 50, 62, 127, -56, -118,
   -106, -7, -73, -20, -60, 11, 26, -50,
   -52, 101, -32, 81, -122, 23, 69, 60,
   -39, 46, 1, -6, -58, -21, -19, 112,
   -22, 71, -16, 23, 117, 87, -58, -120,
   -44, 54, -96, 55, -75, 9, -99, -19,
   28, -16, -66, -105, -6, -61, -30, 3,
   2, -19, 24, 36, 2, -82, 50, 79,
   85, -21, -40, -53, -31, 52, -6, 94,
   34, -13, 18, 4, -18, -6, 9, 57,
   -5, 4, -11, -56, -34, 5, -30, -40,
   39, 37, -36, 16, 8, 43, 22, 76,
   27, -23, 22, -4, -73, 29, -31, 19,
   -2, -6, 63, -71, -40, -126, -32, -37,
   -30, 0, 1, -53, -1, -11, 3, -52,
   10, -35, -10, 17, 51, 59, 17, 38,
   57, 37, 17, 53, -1, -128, 28, 27,
   -3, -13, 100, 25, 35, 39, 3, 9,
   -39, 24, -8, -79, 14, 55, -33, -11,
   -47, -90, 39, -13, -7, -55, 18, 39,
   15, 52, -58, -40, -71, -21, -46, -3,
   -7, 38, 126, 19, 78, -21, -10, 38,
   -65, 84, 94, -9, -35, 13, -14, 24,
   8, -127, 6, 56, -58, 78, -64, -27,
   39, 99, 13, 83, -41, -16, 64, 29,
   -34, -114, 22, 18, 49, -106, 68, -110,
   52, 3, 24, 61, -12, 55, 102, -14,
   13, -5, -12, -52, -89, 8, 14, 112,
   24, 1, -80, 34, -59, -41, 42, -59,
   -21, -62, 75, -7, 19, -82, -48, -61,
   26, 43, 37, 87, 87, -19, 45, 80,
   21, 4, -17, 105, -40, -86, -30, -71,
   11, 8, -80, -115, -22, -2, 14, -75,
   106, 95, 72, 2, 40, -40, 47, -37,
   38, 48, 39, 54, -70, 73, -68, 37,
   39, 49, -53, -12, 13, 108, 49, -40,
   46, -48, 114, -45, 87, -19, -89, 1,
   19, 16, -121, -26, -54, -6, 12, -38,
   26, 81, 22, -94, -72, -12, 47, -13,
   -125, 62, -48, -41, 4, -11, 17, -113,
   -78, -1, 73, 35, -66, -68, 55, -33,
   -15, -29, -48, 15, 9, -57, -2, -128,
   32, -14, -20, 85, -31, 47, 37, -104,
   59, -42, -49, 29, -11, 88, -19, -15,
   52, -101, 26, 33, 13, -13, 64, 105,
   9, 10, -69, 34, 8, 18, -40, -9,
   -14, 13, -30, 38, 17, 8, 16, 116,
   31, -5, 10, -70, -38, 74, -57, 41,
   77, -3, 28, 22, -5, 45, -117, -1,
   -31, 58, -53, 6, 55, -19, 14, 125,
   38, -50, -17, 14, -10, 46, -20, 8,
   -74, 17, -13, -25, -81, -85, 0, -55,
   24, 66, -40, -24, 8, 38, -48, -55,
   -18, 39, 41, -66, -78, -27, -51, -14,
   0, -11, 95, 115, 36, 1, -28, -26,
   75, 61, 37, -88, 124, 88, -7, 92,
   34, -127, -62, 75, -20, -38, -84, -15,
   -125, -108, -6, -56, -8, 127, 93, 26,
   29, 105, -62, -17, 44, -75, -40, 35,
   3, -89, 23, -73, 127, 65, -42, 11,
   12, -33, -16, 68, -117, 49, -50, 116,
   90, 31, 18, 115, -48, 80, -52, 37,
   -20, -4, 84, -43, -54, 26, 5, 127,
   55, -28, -15, 108, -66, 115, 39, 67,
   -59, -24, 18, -16, 58, 103, -32, -5,
   106, 25, -2, 80, -48, 67, -48, 34,
   55, 3, 79, -4, -5, 72, -44, 1,
   -15, 56, -66, -12, 114, -57, -92, 127,
   100, -39, 22, 9, -97, 3, 95, 33,
   -42, -15, 34, -86, -81, 115, 61, -9,
   -66, 62, -92, 40, 5, 52, -50, 85,
   -127, 37, 42, 53, -48, 56, -78, -71,
   3, -127, 16, 38, -42, -6, -52, -72,
   36, -110, -44, 33, 85, 27, -8, 46,
   -28, -19, -29, 52, -26, 74, 43, 18,
   -75, 18, 29, 23, -28, 86, 31, 116,
   42, 32, -5, 19, -20, -40, -54, 68,
   -29, -90, 16, 26, 46, -7, -86, 68,
   16, 42, 11, -33, -31, -2, 28, -29,
   9, -118, 127, 33, -33, -109, -56, 35,
   -8, -20, -103, -81, -13, 36, 72, 0,
   -59, 31, 52, -79, 21, -47, 61, 124,
   14, -29, -92, -22, 26, -52, -62, -2,
   -11, -124, 29, -88, -35, 9, 49, -122,
   -65, -120, -46, 81, -54, -2, -20, -127,
   95, -2, 74, 12, 26, 92, 40, -32,
   -53, 65, -118, -5, -53, 27, 28, -27,
   -90, 48, 42, -29, 82, 79, 75, 40,
   -95, 26, 33, 62, 14, -68, 121, 49,
   7, 5, 31, 9, -54, -28, 49, 42,
   41, -70, 1, -24, 66, 17, 15, 8,
   20, -50, 27, -37, -60, 22, 20, -32,
   0, -13, -2, -82, -25, -67, -20, 81,
   -24, 52, 102, -5, 33, 33, -39, -53,
   -41, -5, 5, 23, 36, 1, 3, -69,
   4, 81, 42, -66, -12, 29, 47, 50,
   17, 41, 18, 16, 13, -111, 42, 25,
   -33, 38, 101, 111, -115, 65, 83, -14,
   54, -127, -10, 86, 104, 13, 73, -12,
   98, -33, -64, 74, -65, -58, 89, -25,
   -96, -29, 10, -95, 34, 7, 39, -36,
   -7, -53, -9, -15, -39, -74, -94, 83,
   65, -58, -29, 14, -7, 8, 91, 19,
   -85, -20, -82, 52, -17, 29, -4, 4,
   13, -59, -82, -125, 58, -57, -4, -12,
   84, 90, -28, -24, 8, -4, 32, -16,
   -6, -8, -32, -63, 16, 2, -69, 1,
   36, -20, -72, 69, 57, -29, 83, -43,
   -25, 46, 33, -60, 33, -36, -23, 2,
   17, 15, 27, 0, 14, 14, 18, -82,
   0, -126, 29, -104, -102, -3, -54, 8,
   -32, -14, -27, 3, -16, -30, 35, -25,
   17, 38, 4, 16, 124, 39, 46, 16,
   -33, 18, 29, 75, -28, 36, 30, 11,
   -56, -10, -68, -82, -127, -75, -38, 16,
   -101, -34, 115, -11, 62, -84, 35, -5,
   23, -9, 17, 97, 86, 4, -33, -60,
   5, 14, -61, 74, 97, 8, -59, 53,
   74, -110, 35, 43, 100, -72, 17, -12,
   32, 43, -24, 20, 28, -100, -54, 21,
   -10, -54, 11, -43, -109, 32, -28, 53,
   -92, -55, 92, -75, -67, 43, -12, -54,
   7, -60, -9, -18, 7, 89, -33, 44,
   -10, 7, -36, 16, 69, 81, -27, 4,
   0, 57, 25, -33, 8, -54, -16, 4,
   -93, 67, -6, -48, -30, 121, -16, 37,
   30, 7, 38, 12, 16, 15, -53, 110,
   -13, 61, 3, 78, 88, -74, -17, 2,
   54, 9, 22, 21, -100, -54, 26, 6,
   -3, -44, -61, 50, -58, -54, 70, 31,
   1, 27, -16, -25, 48, 25, 37, 11,
   -52, -11, -9, 65, 28, -43, 20, -57,
   -28, 57, 62, -40, -76, -71, -71, -14,
   48, 53, 121, 63, -48, -116, -38, 75,
   56, 36, -26, -54, 68, 32, 4, 80,
   37, -31, -80, -17, -23, 29, 5, -65,
   -34, 74, 83, -38, -40, 3, -32, -7,
   96, -11, -4, -7, -9, -2, 13, 0,
   -3, 33, 58, 57, -29, -69, 71, -109,
   88, -95, -3, -44, -86, 117, 97, -89,
   -57, -38, 8, 92, -77, 72, -87, -12,
   -63, -31, 11, -29, 36, -25, -59, 80,
   67, 0, 42, 36, -28, -22, -83, -53,
   53, -8, 81, 52, 10, 52, 76, 30,
   -69, -2, -27, 23, 83, 68, 11, -3,
   -50, 32, -70, -19, 7, 42, 25, -70,
   10, 25, 11, 18, -27, -58, -7, 29,
   -19, -7, -28, -25, 86, -18, -41, -100,
   2, 9, 96, -6, -7, 99, 68, -122,
   -69, 66, -54, -40, -54, 6, 55, 47,
   -23, -79, -53, -37, -13, -67, 23, 22,
   5, 18, 71, -29, 14, -43, -31, -18,
   17, -34, -14, -17, 45, 45, 26, 47,
   56, -68, -23, 54, -119, 76, 12, -67,
   -19, -16, 28, 111, -2, 10, -43, -65,
   6, 11, 37, -99, -9, -9, 17, 121,
   -9, -17, 13, 65, -26, 10, -89, -31,
   85, -96, -93, 33, -100, 12, -57, 74,
   -11, -4, -17, -127, -39, 11, 3, 5,
   -21, 66, -21, 85, 15, 1, 80, 83,
   111, 43, -69, -99, 9, 42, 14, 11,
   47, 18, 13, -82, 13, 33, 57, 15,
   -47, 28, 9, -2, -72, 18, 42, 59,
   3, -45, 51, 97, -104, -7, -83, -107,
   -46, 53, 73, -39, -32, -128, -93, 81,
   35, 58, 35, -38, -12, -21, 65, 50,
