/*This file is automatically generated from a Keras model*/

#ifdef HAVE_CONFIG_H
#include "config.h"
#endif

#include "rnn.h"
#include "rnn_data.h"

static const rnn_weight input_dense_weights[1008] = {
   44, -28, -3, -46, -2, 22, 22, -4,
   59, 5, -41, -9, -44, 30, -1, -2,
   10, 6, 28, 1, -10, -4, -11, 13,
   69, -28, 26, 22, -1, -68, -64, 7,
   79, -70, 22, 28, -73, 31, -13, 14,
   -63, 12, 50, 10, -22, -5, 33, 25,
   73, 72, -16, -49, 60, 2, -40, -27,
   -48, 13, 43, -17, 55, 34, 62, 35,
   31, 50, -98, -3, -58, -4, -75, -68,
   4, -50, -35, -68, -20, 37, 24, -35,
   -30, -11, 39, -70, -82, 19, 34, -39,
   32, -76, 41, 28, -15, -9, 99, 70,
   -17, -22, -85, 54, -54, -53, 13, -3,
   -62, -99, 77, -79, 61, -1, 77, -15,
   -83, 38, 5, 4, 42, 36, -56, 57,
   -33, 94, 16, -17, -32, -94, -58, 48,
   36, 33, -74, -50, 6, 29, 22, 83,
   53, -35, 4, 6, 15, -2, -44, -51,
   53, 40, 54, -41, -47, -118, 61, 39,
   48, -23, -8, -8, 39, -32, 78, 19,
   110, 51, -85, -58, 0, -27, 28, -71,
   67, -37, -57, -52, -66, -1, 19, 83,
   65, -14, 50, 20, -75, -14, 46, -8,
   16, 83, 14, -103, 88, 40, -73, 14,
   33, 75, 126, -107, 40, -75, -106, 63,
   -13, 10, -67, -36, -5, -113, 111, 8,
   71, 29, 35, -84, 13, 79, 19, -76,
   -14, 38, -23, 41, -19, 34, -73, 102,
   -33, 10, -63, -93, -78, 45, 59, 59,
   -50, 127, -26, -98, 16, -23, -98, 78,
   -47, 61, -107, -61, -73, 112, -29, 38,
   -38, 80, 98, -18, -54, 101, -121, -8,
   111, -117, 24, 101, 127, -34, 47, -59,
   -75, 8, -124, 27, -68, -10, 39, -36,
   86, 3, 31, 127, -27, 15, -128, -128,
   2, -60, -36, 38, 33, -97, 84, -32,
   68, 55, -7, 65, -42, 33, -47, -70,
   102, 37, 67, -6, -124, 12, -106, 25,
   119, -90, 21, 64, 86, 83, -8, 85,
   25, 55, 24, -10, 64, 114, -39, 66,
   -22, 34, 33, -49, -20, -21, -127, 2,
   43, -75, 66, 24, 86, 4, 96, -49,
   46, -14, -6, -23, -92, 11, 2, -24,
   -80, -35, -67, -30, 36, -77, 19, -14,
   -88, 85, 0, 20, -80, -70, -103, -15,
   -67, 48, 31, 8, 33, -2, 82, 42,
   -19, 96, 62, 53, 9, 11, -27, 26,
   56, -93, 18, 92, 92, -101, -17, 26,
   -25, -59, -77, 56, 48, 42, 95, -128,
   -36, 60, 32, 36, -5, 29, -80, -128,
   -128, -128, 19, 127, 82, -71, 4, -61,
   56, 14, 127, -128, -59, -89, -12, 108,
   -16, 18, -99, -128, -28, -24, 127, 36,
   99, 108, -52, -101, -112, 127, -128, 11,
   -8, -27, 0, 40, -10, 5, -47, 102,
   86, 19, 46, -121, -64, -63, 127, 112,
   83, 123, 25, -7, -31, 57, -114, -76,
   44, -39, -1, -63, 71, 10, 49, -37,
   -52, 46, -69, -25, 5, 21, -9, -68,
   -65, -31, -48, 95, 57, -121, 49, -109,
   19, -64, -45, 75, -82, 32, 59, -8,
   -31, -82, 12, -5, 8, 15, 98, -20,
   1, 25, -8, 57, -42, -54, -24, -57,
   115, 38, 123, 5, 70, 27, -127, 72,
   7, 42, 88, -91, -92, -117, 62, 41,
   110, 25, 45, -120, -37, 49, -29, -60,
   -11, 46, -127, 111, -124, 126, -13, -110,
   15, 81, -105, 123, -22, -34, -122, -98,
   -121, -127, -17, 52, 125, -127, 32, 127,
   -24, -127, -127, 123, -3, 122, -52, -109,
   -70, -22, 40, 30, 37, 123, -60, -63,
   -56, -52, -73, 82, 127, -63, 113, 99,
   55, -52, 106, 20, 20, -110, 61, 94,
   95, -57, -81, -15, -56, -113, -12, 79,
   14, 42, -94, -71, -126, 34, -102, -124,
   33, -49, -127, -67, 63, 10, 7, -128,
   -37, 84, 27, 17, 39, 64, -56, -45,
   -56, 24, -117, 107, -59, -13, -128, -11,
   -6, -78, -102, -63, 52, -58, -24, -16,
   -83, -17, 13, 18, -10, -33, -59, -28,
   44, -75, 40, -27, 47, 8, 37, 74,
   109, 127, 88, -44, -48, -52, 12, 98,
   -73, -79, -19, -125, 84, -61, 55, 77,
   104, 87, 89, -94, -111, 52, -127, -28,
   -69, -54, 97, -55, -44, -128, 14, 127,
   118, -38, 125, -109, 20, 34, -19, 30,
   -44, 114, -59, 118, 41, -90, 90, -1,
   40, -93, 43, 1, -34, -31, -15, 39,
   0, -86, 81, -25, 5, -67, 52, 96,
   57, 6, -67, 88, -44, -94, -79, -29,
   40, 127, -68, -13, -8, 17, 28, -27,
   -33, 13, -87, 68, -86, 61, 34, -49,
   -73, 76, -88, -87, -38, 121, 44, 29,
   -20, -2, -20, -7, -67, -52, -37, -48,
   0, -80, 90, -92, 101, 73, 89, 102,
   41, -46, -24, 35, -37, -76, 71, -28,
   -38, -28, 47, 29, -7, 50, -68, -12,
   -18, -2, 18, -24, -16, 86, 127, -15,
   54, 51, 87, -26, -9, 10, 45, 65,
   21, 11, -34, 55, -54, 59, 32, 79,
   67, 86, -128, -7, 33, -68, 38, -25,
   113, 31, 50, 11, -16, 63, -22, -17,
   -7, 41, -99, 46, -79, -9, -18, -118,
   -16, 43, 52, 55, 14, 12, -104, 16,
   -6, -17, 38, 98, -22, -48, -8, -17,
   -104, -29, -90, 31, 43, -11, 62, -70,
   -53, 76, -23, 124, -14, -26, -13, -94,
   -105, -60, -46, 41, 66, -60, -18, 27,
   -37, -40, -43, -51, -17, -76, 44, -62,
   -68, 77, -58, 79, -7, 29, 39, 70,
   28, 12, -123, 0, 35, 2, 1, 29,
   -47, -24, 28, -1, 42, -72, -27, 116,
   28, -37, 75, 11, -62, -102, -31, -42,
   50, -13, 62, -55, 63, 52, -70, -45,
   36, -47, 47, 41, -24, 50, -48, 12,
   -21, 48, -27, 46, -8, -54, 2, -13,
   -13, 6, 57, -121, 71, 94, -50, -60,
   25, -10, -13, -99, 68, 32, 62, 71,
   54, -10, -62, 14, 99, -3, -15, 102,
   4, -6, -52, -63, -47, -11, -77, -26,
   -39, -63, 46, 68, -51, 24, 29, -9,
   15, 9, -7, 18, -19, -93, 12, 37,
   -34, -51, -33, -31, -32, -5, 9, -10,
   5, -48, 3, 82, -67, 62, -53, 32,
   77, -21, 65, -12, -46, 29, -19, -92,
   -12, 29, 6, 27, 118, 20, -35, -73
};

static const rnn_weight input_dense_bias[24] = {
   1, 6, -23, -18, 8, 1, -13, -1,
   24, -31, -11, -12, -1, -5, -38, -10,
   -10, -4, 15, -1, 43, 13, 65, 9
};

static const DenseLayer input_dense = {
   input_dense_bias,
   input_dense_weights,
   42, 24, ACTIVATION_TANH
};

static const rnn_weight vad_gru_weights[1728] = {
   -16, 28, -22, 83, 1, 88, 35, 2,
   14, 0, 35, 102, 56, 27, 27, 48,
   120, -38, -47, -1, 39, 81, 27, 38,
   35, -45, 31, -8, -7, 0, 13, 81,
   28, 37, -46, 48, 29, 61, 47, -22,
   -15, -11, -51, 6, 24, 40, -55, -43,
   -66, 9, 52, -45, -13, 25, 16, -28,
   -44, -12, -23, 37, 0, 8, -42, -47,
   -37, 58, 37, 5, -3, 11, 58, -54,
   3, -26, -39, -23, -13, -40, -17, 12,
   10, 54, 12, -14, -58, 64, 22, -28,
   -49, -3, -8, 35, 41, -15, -83, 33,
   77, -77, -52, -44, 14, -53, -33, 37,
   -7, -9, 8, -57, 28, 39, -64, -42,
   -17, 26, -18, -1, 3, 67, 62, -79,
   35, 46, 2, 33, 2, -6, 36, 29,
   -43, 8, -48, -66, 48, -27, -19, -39,
   -13, 45, -29, -35, -15, 34, 43, -5,
   94, 71, 5, -26, 59, 69, 109, 47,
   70, 36, 69, 77, -17, -11, 43, 8,
   77, 97, -61, -63, 64, -64, 66, 93,
   -6, 14, 28, 20, -19, -25, 66, -11,
   -68, 7, 43, 33, -9, -38, -68, -4,
   -30, -37, 35, 38, 56, 13, 54, 58,
   16, 30, -1, 77, 3, 73, 81, 24,
   -43, -38, 75, -2, 12, 81, -48, 45,
   -15, -3, -40, -36, 52, 6, 5, 31,
   -72, -82, 86, -39, -58, -75, -33, -36,
   40, 0, -62, -13, -42, 56, -2, 15,
   -9, -31, 62, -64, 37, 21, -65, -64,
   4, -71, 53, -60, -8, -13, -38, -35,
   -26, 14, 51, -42, -62, 50, 80, -24,
   -55, 28, -30, -76, 8, -4, 20, -29,
   -5, 2, -35, -22, 32, 53, -64, -3,
   34, 47, 28, 21, -17, 29, 56, -73,
   -26, 8, 46, 4, 15, 7, 24, -16,
   55, 77, 91, 15, 62, 28, -21, 38,
   4, 22, 49, -28, -25, 92, 1, -20,
   -41, -27, -35, -44, 33, -33, -26, 2,
   -51, -64, -74, 62, 65, -45, -5, -45,
   -107, 5, 26, 58, -31, -34, -41, 35,
   -71, -71, -50, 7, -39, -7, -54, 23,
   57, -50, -59, -13, -3, 13, 55, -18,
   -45, -29, 7, -21, -9, 11, -26, 42,
   -13, 35, 55, 13, -20, 44, 12, -12,
   -45, -55, -94, -1, -15, -41, -77, -110,
   -34, 9, 29, 45, -79, -36, -25, -126,
   -80, -15, 1, -58, 14, 60, -34, 11,
   -2, -2, 5, 23, 13, -64, 17, 39,
   -10, -47, 45, -82, -21, -41, 27, -14,
   13, -62, 57, -29, -7, 59, -1, -39,
   7, -66, 14, -40, 32, 34, 22, 57,
   39, 56, 59, -12, 42, -27, -7, -12,
   -17, 48, 26, 17, -13, -30, -55, 31,
   62, 39, 46, 15, 37, 45, 51, 84,
   92, 36, 84, 27, -24, -53, -50, -127,
   40, -2, -1, 72, 7, -3, -17, 24,
   -76, -32, -52, 36, 22, -86, -59, -40,
   -85, 26, -63, -58, 15, -14, -82, 5,
   -29, -107, 17, 40, -23, 27, -30, -4,
   15, -38, -30, -17, -44, -7, -64, 23,
   36, -42, -22, -15, 21, -49, 21, -14,
   -19, -35, -58, -41, 13, 0, -45, 17,
   -3, -31, -34, -82, 123, 36, 36, 2,
   -13, 43, 26, 49, 76, 99, -15, 121,
   126, 80, 50, 22, -48, -51, 42, 8,
   52, 4, 9, -68, -10, -40, 57, -69,
   1, 65, -34, -41, 0, 52, 58, -53,
   83, 49, -2, -92, 100, 72, -21, 127,
   -2, 40, 96, -51, 13, 87, 73, 14,
   -75, -45, -58, -17, -55, -12, -61, -31,
   -65, -1, -41, 51, 83, 49, 43, 24,
   38, 38, 53, -72, -46, 23, -23, 28,
   -2, -31, -2, 6, -21, 1, 23, -15,
   49, 20, 37, -15, 38, 43, 42, 15,
   -38, -24, -13, 3, 12, 9, -10, -2,
   53, 52, 19, 67, -16, 42, -16, -64,
   -26, -16, 41, 64, 70, -23, -40, 81,
   -8, -13, -24, -41, 31, 16, 70, 3,
   19, -3, 33, 31, 32, 65, -29, -21,
   0, -3, 51, -12, 20, -13, 39, 14,
   18, 37, 52, 34, 55, -2, 41, 23,
   92, 26, -18, 50, -55, -5, -14, -111,
   15, 57, -60, -61, 49, -11, 53, -29,
   -101, 98, -69, 1, -5, -16, 44, -54,
   -3, 33, 15, -24, 23, -59, -53, -13,
   0, -77, -26, 57, -36, 17, -12, -46,
   -11, 27, -12, -43, -34, 31, -19, -9,
   46, 60, -1, 23, -63, -32, 30, 17,
   -20, 26, -29, -48, -2, -39, 32, 51,
   -46, -32, -12, -8, 44, 2, -5, -11,
   -11, 65, -31, -4, 36, -22, 25, 59,
   -10, 19, -60, -26, -39, -57, -77, -1,
   31, -68, 65, -50, -53, 10, 54, -40,
   77, 24, -48, -27, -22, -12, 91, -36,
   -36, 65, -50, -48, -65, 15, -58, -76,
   46, -52, 42, -33, 22, -44, 39, 0,
   50, -46, 10, -29, 34, 68, -16, 35,
   -55, -53, -15, -31, 35, -2, 63, 26,
   -51, -69, 18, 92, -65, 12, 10, -18,
   25, -25, 54, 18, -1, -60, -37, -43,
   -50, -8, -46, -1, 38, 9, 28, 17,
   -45, 18, -80, 1, -32, 48, -37, 43,
   -43, 8, 48, -29, -70, -34, -72, 44,
   -60, 27, 7, 3, -56, -19, -79, -105,
   68, -56, -26, 28, 42, -52, -65, 58,
   65, 46, 49, 9, 54, -7, 49, 72,
   -23, -72, 67, 58, -31, 41, 35, 42,
   -1, -20, -10, -8, -35, -24, -58, -2,
   52, -11, 37, 24, -30, 107, 26, -53,
   7, 40, 68, -5, 31, -57, 6, 74,
   47, -40, 0, 21, 44, 25, 15, 39,
   57, 0, 58, -11, -66, -39, -7, 45,
   -85, -31, 45, -36, 4, -6, 29, 9,
   -26, 12, 13, -43, -2, -17, 13, -44,
   -10, 2, 15, -1, 13, -69, -29, 21,
   11, -37, 27, 43, 55, -44, 3, 19,
   -66, -31, -39, 15, 40, -14, 20, -28,
   10, 2, -31, -73, 2, -14, -33, 10,
   -41, -6, -41, -53, -57, 47, -5, -6,
   30, 38, -6, -50, -39, -34, -3, 29,
   32, 23, 27, -24, 14, -38, -29, -1,
   28, -16, -12, 46, -6, -4, -39, 7,
   -58, -44, -59, 7, 62, -41, -44, -47,
   42, 19, -20, -55, -35, 5, 22, 71,
   20, -51, 4, 7, 45, 22, 22, -4,
   12, -4, 53, 93, 106, 86, 19, 22,
   29, 52, -9, 44, 114, 91, 43, 46,
   61, 38, 97, 16, 19, 53, 46, 1,
   -17, -59, 61, 62, -74, 80, 41, 30,
   30, 67, -7, 27, 21, 112, 87, -7,
   9, -34, -58, -68, 58, 68, 47, 7,
   -71, -44, 37, -6, 16, 49, 81, -18,
   -51, -82, -1, 31, -25, -27, 3, -61,
   -41, 49, -51, 66, 38, -49, -22, -59,
   68, 92, 14, -4, 77, 56, 99, 55,
   120, 61, 49, -39, 101, 41, 123, 7,
   73, 65, -13, 21, 97, -75, -16, -22,
   7, -42, 34, -71, -22, 50, -45, 47,
   41, 0, 10, -54, -34, -3, 13, 38,
   20, 54, -34, 20, 82, 33, -9, 8,
   42, 24, -39, -77, 0, 59, 55, -22,
   -7, -17, 22, -26, 48, 23, -21, -30,
   -22, 53, 32, 48, 14, 67, 69, -46,
   117, 42, 12, -22, 53, 50, 20, 77,
   -31, -13, 25, 3, 43, 9, 49, -40,
   53, 35, 25, -84, 48, -50, 11, 61,
   -48, 28, -41, -43, -88, -54, 12, 28,
   60, -92, 56, -79, -92, 12, -87, 66,
   -52, 27, -6, 16, 12, -7, 101, 7,
   -96, 23, 54, -2, -44, -22, 47, -54,
   -26, 37, -1, 10, 26, 5, -44, 20,
   -42, 84, -20, 56, -7, 10, 37, 11,
   19, 63, 26, -40, 75, 116, 59, 25,
   117, 113, 21, -72, -8, 66, 96, -80,
   37, 88, 98, -124, 65, -8, 78, 54,
   23, -28, -53, -39, 35, -41, 42, -94,
   -10, -38, -54, 4, -31, -28, 37, 3,
   -15, 17, -102, 12, -56, 66, -54, 54,
   -40, -14, 32, -1, -32, 15, 29, -48,
   -13, -81, 14, -6, 57, 46, -36, -85,
   -3, -30, -80, -23, 9, -6, -39, -44,
   -48, -60, -16, -2, -30, -28, -66, -39,
   24, -46, 23, 34, -36, -41, -49, 21,
   -73, -67, -77, 41, 48, 49, 48, -38,
   -62, 24, 10, 0, 19, 32, 58, 55,
   -37, 66, 13, 11, 8, 2, 4, 31,
   -11, -41, 39, -26, -10, 16, 51, 84,
   47, -37, 62, 27, 40, 23, -48, -30,
   -46, -35, -26, -4, -23, -2, 0, 3,
   -6, 0, 11, 53, -34, -49, 7, 70,
   -96, -84, -105, -46, 27, -71, -98, 10,
   2, -78, -69, 7, -126, -115, -127, 7,
   -127, 44, -46, 36, -56, 98, -76, -12,
   -93, -27, 31, -6, 14, -25, -37, 20,
   48, -35, -51, 46, -2, -99, -46, 28,
   27, -64, 26, 61, -104, -89, -18, -103,
   88, -102, -88, 28, 99, -59, -3, 6,
   100, 39, 119, -10, -30, -39, 82, 5,
   38, -83, -7, -126, -32, 8, 18, 90,
   -116, -68, -106, -105, -4, -101, -80, -88,
   -115, -107, -61, -35, -39, 11, -83, 43,
   -104, -122, -20, -64, -80, -33, -88, -77,
   -14, -80, -1, 7, 25, 3, 56, -18,
   51, -44, -9, 50, 20, 12, -19, -25,
   -20, 13, -51, -72, 49, 64, -23, -9,
   -46, -67, -50, -32, 44, 34, 45, -24,
   -11, 42, 26, -39, -38, -74, 42, 40,
   39, 8, -25, -23, 44, 39, 39, 9,
   7, 5, 8, 17, 14, 81, 25, 10,
   -24, 11, 64, 32, -1, 34, 19, 32,
   -1, 32, 11, 35, -61, -70, 23, 59,
   75, 32, -42, -15, -74, -41, 6, -18,
   46, -45, 45, 5, -56, 55, -9, -54,
   -35, 43, -41, -56, -92, 25, -32, 8,
   -79, 78, 66, -58, 6, 38, 36, -73,
   34, 18, 36, -67, 18, 62, -15, 26,
   15, 74, 2, 65, 75, -2, 60, -23,
   -123, -64, -116, 3, -107, -110, -18, -27,
   -128, -128, -67, -96, 14, -101, -57, -28,
   -17, -87, -125, 52, -124, 1, -42, -45,
   49, 14, 88, 65, 15, 50, 6, 29,
   70, 35, 10, 37, 73, 19, 12, -31,
   -11, -25, 46, 40, 98, 32, -48, -39,
   -38, 40, -2, 60, -1, -20, -15, -11,
   45, 48, 69, 7, 61, -46, 53, -33,
   28, 53, 61, 28, 21, 54, -7, 13,
   -45, -67, -48, -11, -32, -38, -53, 1,
   -55, -17, -60, 43, -34, -128, -39, 74,
   -62, -22, 20, 44, 0, -2, 4, -97,
   -24, 21, -3, -46, 43, 2, -7, 8,
   -44, 94, -72, -33, 52, 46, 65, -5,
   73, 10, 38, 6, 18, 45, 36, -12,
   46, -20, -37, 55, 29, -5, 49, 25,
   14, 72, 15, -3, -57, 1, -39, 2,
   -8, -3, -14, 24, -10, -12, 62, -44
};

static const rnn_weight vad_gru_recurrent_weights[1728] = {
   -3, 41, 0, -13, 65, 70, 14, 18,
   71, 64, 31, -16, -71, 56, 108, 127,
   37, 76, 33, 99, 11, -46, -75, 46,
   -2, 31, -8, 16, 43, 7, 30, 1,
   4, 26, -7, 68, 13, -81, 28, 22,
   40, 44, -4, 72, 37, 5, -46, 40,
   57, -73, 13, 47, -1, -28, -59, 37,
   54, -2, 70, 29, 75, -54, 124, -20,
   33, -62, 43, -11, -58, -51, -17, 26,
   -36, 5, -23, -1, 16, -117, -43, -93,
   -59, -67, -101, 5, 39, -23, -61, -44,
   -11, -35, -56, -67, -29, 43, -26, -56,
   68, -20, 31, -24, -44, 19, -40, -9,
   35, -51, 15, -4, 17, -17, 1, -88,
   -11, 21, -68, -66, 69, 39, -11, -22,
   -85, 6, 38, -10, -8, 85, 45, -70,
   -43, -33, -97, -3, -22, 43, -6, -24,
   -37, 6, 27, 41, 10, -54, -1, -66,
   -20, -48, -35, -15, -46, 22, -77, -65,
   -80, -26, -43, -1, 80, -3, 4, -16,
   25, -57, 0, -52, -12, 36, 3, -56,
   30, -25, -8, 9, -56, 10, 59, -80,
   39, 1, -8, -7, -12, -13, -12, -59,
   41, -78, -37, -48, 41, 44, 10, 61,
   -3, 60, -15, -49, -78, 33, 72, 0,
   -54, -66, -34, -10, -49, 19, -45, -13,
   -49, -23, -66, 47, 81, -14, 28, 20,
   80, 34, 14, 8, 5, -9, 90, 38,
   40, 46, 28, 8, -44, 28, 50, 60,
   -45, 32, 59, 0, -60, -37, -18, 22,
   -75, 56, -17, 0, 42, -14, -2, 1,
   30, 46, -34, -3, 3, 41, 7, 42,
   77, -3, 40, 9, 1, -28, -23, 58,
   -46, -25, 0, 33, -57, 28, 34, -19,
   -15, 48, 19, -55, 53, 19, 13, 60,
   -45, 15, 15, -14, 12, -35, 42, 72,
   4, -20, -6, 37, -12, 15, 49, 25,
   52, 8, -19, 33, 34, 71, 30, 67,
   -1, 56, 20, 14, 11, 20, 4, -12,
   -37, 23, 25, -54, -3, 11, 10, 10,
   58, -42, 46, 25, 0, 29, -28, 35,
   17, -1, 7, 28, 51, -43, 65, 7,
   60, -26, -32, -10, 7, -83, -64, 47,
   53, 122, 22, 83, 68, -4, 24, 58,
   45, -17, 16, 10, -38, -6, 1, -1,
   -6, -23, 6, -39, -9, -16, -35, -64,
   32, -58, -49, 6, 1, -22, -121, -62,
   -26, -61, -69, -16, 13, 93, 41, -99,
   -19, 83, -14, 62, -2, -7, -23, 17,
   -19, -31, 8, 10, 35, -28, -20, -72,
   59, -110, -21, 55, -5, -2, -39, 86,
   -18, 52, 48, -10, -19, 67, 69, -8,
   1, -25, -64, -32, -57, 18, -12, -52,
   12, 42, -11, 2, -39, 13, 42, -28,
   -51, -60, 9, 27, -50, -50, -37, -8,
   -46, -56, -18, -13, -31, 1, 3, -91,
   1, -78, -100, -19, -52, 26, -68, 0,
   8, 27, 27, -10, -33, 25, -5, 74,
   -22, -49, 17, -3, 7, -19, 13, 4,
   4, -40, 2, -43, -8, 79, 30, -12,
   -12, -11, -8, -47, -23, 24, 56, 25,
   -47, -48, -102, -40, -70, -28, -93, -9,
   -55, -35, 2, 48, 36, 12, 38, -31,
   -25, 117, 58, 8, 11, 58, -20, 57,
   13, 10, 61, 47, -52, 33, 24, -15,
   86, -6, 47, 86, 21, -53, 95, -19,
   4, -8, -6, -50, 2, -52, 2, 28,
   30, 35, 21, -29, -54, 7, -25, 13,
   -68, -11, 20, -10, -61, 34, -6, 22,
   54, -32, 32, 18, -7, -20, 29, -16,
   1, -63, -33, 89, 13, 24, -5, 100,
   -15, -22, -30, -40, -10, -41, -31, 15,
   22, -18, 40, -20, 48, -7, 59, 102,
   -4, 21, 80, 30, -90, 7, -72, 70,
   -63, 81, 75, -6, 70, 11, -46, 52,
   -1, 39, -26, -40, 30, -47, 6, 4,
   5, 3, 9, 23, 13, -28, 22, 12,
   33, 23, 51, 4, 11, -9, -33, 40,
   111, -40, -73, 12, 33, -29, -73, 35,
   16, 22, 53, 24, 44, -57, 20, 7,
   22, -14, 13, -124, 0, -74, -90, 24,
   -36, 1, 17, -23, 42, -74, 38, 32,
   -19, 29, 53, 25, 9, 57, 43, 27,
   -22, -34, 32, 55, -43, -45, -31, -19,
   7, -15, 27, -65, 82, 19, 11, -75,
   12, -39, 1, -5, -12, 19, 1, 100,
   -15, 29, 31, 30, 5, 40, -10, 13,
   15, -57, -52, 67, -14, -53, -15, 39,
   30, 24, 41, 77, 51, -14, 27, -33,
   71, -17, 5, -11, -50, 56, -51, 48,
   29, 61, 56, 34, -5, -3, 9, 33,
   -8, 37, -6, -22, -93, 117, 88, 68,
   32, 42, 26, -27, 8, -50, -44, 23,
   39, 2, -55, -24, 6, 25, -25, -10,
   12, 10, -28, 8, -46, 33, 6, 61,
   -4, -47, 5, -45, -25, 33, -2, -21,
   -10, -28, 37, -23, -21, -34, -63, 79,
   0, 11, 84, 53, 52, -5, 9, 43,
   90, 13, -35, -41, 43, 37, -95, -14,
   91, 108, 61, -7, 82, 118, 96, 64,
   59, 78, 38, -45, 0, -1, 104, 40,
   6, 77, 41, 26, 125, -51, 35, 3,
   -36, 39, -18, 9, 23, -2, 5, -15,
   -64, 76, 2, -12, -11, 26, -72, -14,
   62, 42, -16, 1, 6, -8, 7, 59,
   -13, -70, 5, -1, -31, -7, 29, -17,
   -14, 3, 18, 32, -6, 41, -72, -62,
   -24, 35, -23, 27, -25, -15, -34, -43,
   97, 63, 30, -69, 37, 65, 67, 6,
   -19, 63, 6, -67, 63, 86, 72, 103,
   39, -1, 70, -3, 61, -52, -47, 11,
   -19, -12, 29, -20, 22, -35, -19, -8,
   13, -5, -42, 1, 9, 43, 35, 44,
   -13, 4, -11, 53, -40, 19, 37, 11,
   41, -35, -62, -39, 76, -2, -73, -14,
   47, 42, 2, 46, 45, -40, 37, -13,
   69, -102, 23, 29, 22, 33, -16, 0,
   -128, -39, -86, -7, -36, -62, -35, -20,
   -128, -64, -52, -81, 40, -33, -52, 56,
   -40, -128, -96, 28, -113, 10, -11, -82,
   -6, -28, -30, 4, -120, 14, -51, 38,
   -26, 0, -50, 4, -53, 2, -30, 4,
   -11, -13, 44, -24, 61, -49, -25, 7,
   -40, 71, -23, -65, 1, 6, 85, -43,
   -49, -39, -45, -33, -38, 47, -34, -3,
   -49, 43, -36, -13, -12, 98, 33, -37,
   99, 41, 16, -18, 55, 33, 37, 23,
   -16, 42, -16, -21, -34, 86, 31, 60,
   62, 30, 48, -13, 8, 0, -24, -15,
   -28, -42, -42, -7, 23, 68, 108, 39,
   32, -11, 15, 59, -24, -23, 64, 90,
   -6, -10, -21, 36, 20, -33, -31, -48,
   55, -39, -58, 78, 28, -37, -68, 41,
   39, 57, 28, 22, 60, 19, 2, -16,
   15, -5, 55, 45, -71, -25, -58, 66,
   -63, 6, -57, -41, 11, -36, -124, 73,
   -117, -60, 38, -11, -103, -9, -56, -69,
   -41, -72, 4, -12, 24, -44, -35, 11,
   -34, -96, -31, -34, 26, -51, -32, -4,
   -28, -72, 68, 20, -78, -22, -52, -39,
   -39, -56, 32, 12, -111, 2, -23, -32,
   -11, -25, 27, 6, -11, 31, 30, -32,
   -56, -43, 26, 2, -40, 75, -19, 62,
   -77, 61, -6, -14, 56, 81, 36, -7,
   44, -16, 59, -38, -6, 26, -11, 20,
   29, 9, -15, -31, -66, 103, 64, 53,
   43, 19, 115, 4, 41, -94, -30, 11,
   -5, -9, -5, -8, -13, -3, 32, -45,
   29, -23, 20, -62, -24, 56, 30, 107,
   28, 58, -5, 19, -27, -44, -55, -21,
   50, -86, -37, 27, 79, -51, -39, 43,
   -20, 11, 49, 75, 16, -5, 10, 37,
   52, -20, 37, -17, -40, -42, -51, -13,
   -37, -56, -25, -12, 6, 0, -52, -85,
   -52, -85, 10, -40, -2, -105, 27, -127,
   38, -56, -30, -34, -74, -19, 5, -11,
   -92, -16, -4, 35, -21, -66, 27, 27,
   38, -39, -9, -19, 1, 25, -22, -41,
   24, -14, 17, -32, 73, 33, 70, -3,
   -6, 34, 102, -29, -56, 63, 6, -11,
   -23, -53, -47, 6, -10, 36, 8, -31,
   -23, 33, 29, 29, 81, 41, 31, -50,
   52, -30, -31, -16, 14, 21, -32, -14,
   -21, -10, -78, 9, -56, 24, 19, 106,
   -55, 14, -12, 20, -76, -45, 82, 19,
   53, -10, 56, -29, 1, 31, 18, -1,
   -21, 9, -4, -3, 25, 38, 31, 15,
   -12, 67, 29, 10, 76, -35, 1, 29,
   -12, -72, -23, 49, 79, -67, -8, 74,
   39, 34, 10, 23, 53, 37, 65, -2,
   86, -19, 27, -50, -9, 79, -28, 85,
   -41, -73, -69, -28, -96, -90, -108, -128,
   -68, -98, -94, -6, 126, -11, -1, 72,
   -1, -104, -128, 5, -28, 55, 13, -78,
   51, 32, 30, -18, 107, -15, 20, 21,
   99, 26, 35, -119, 11, 0, 58, 11,
   38, 54, 12, -26, 89, -27, 27, -20,
   29, -7, -53, -30, 25, -48, -33, 4,
   40, 36, 20, -99, 82, -34, 54, -29,
   44, -77, 72, 48, -17, 12, -63, -14,
   17, -1, -7, 10, -58, -64, -18, 13,
   4, -62, -33, -87, 52, 65, 3, 16,
   80, -58, -75, -63, 2, 12, 31, -24,
   27, 44, 40, -36, 13, 83, 16, -16,
   55, 5, 2, 10, -24, 40, 10, -5,
   57, 68, -1, -75, 14, 15, -9, 33,
   -28, 38, 15, -19, -45, 45, 18, -80,
   -82, -45, -68, -51, -127, 69, -2, -37,
   -50, 10, -65, 36, 27, 67, 67, -73,
   -98, -77, -118, -17, -128, -106, -103, -43,
   -88, -127, -128, 14, 44, -52, -128, -26,
   -66, -113, -128, 122, -112, 54, 12, -77,
   6, -33, 90, -29, 8, 20, -1, 23,
   25, 10, 22, -7, 46, -33, -51, 32,
   -23, 23, 4, 57, 76, 76, -67, -62,
   -1, -24, -13, -82, -22, 17, -26, -13,
   -70, 9, -6, -82, 45, 12, -31, -24,
   12, -7, 24, -33, 2, 52, 50, 3,
   -70, -44, -124, -42, -128, -46, -73, -12,
   -107, -55, -27, 49, 67, -87, -109, -8,
   12, -81, -115, 20, -82, 46, -31, -47,
   26, 15, -1, -54, -26, -49, -11, 27,
   -23, -14, -31, -10, 86, -30, 1, -2,
   -1, 25, 65, -22, 25, -28, -74, -14,
   -26, 4, 34, -54, -60, 42, 16, -39,
   -26, 14, -95, -10, -85, 57, -33, -56,
   18, 62, -1, 79, 32, 52, 54, 12,
   -56, -39, 8, -5, -41, -3, -16, 99,
   -48, 11, -12, -25, -70, -68, -82, -66,
   -79, 30, 25, -20, 5, 25, -86, 35,
   22, 22, -43, -9, -5, -16, 29, -5,
   -41, -6, -43, -6, -45, 50, 0, 16,
   -26, -30, 35, 23, 22, -63, 6, -9,
   41, -111, -79, 45, -15, -58, -19, 23,
   10, 9, 96, 48, 43, 17, 50, 87,
   70, -55, 25, -48, -45, -27, 12, 22
};

static const rnn_weight vad_gru_bias[72] = {
   -63, -66, -61, 33, -13, -31, -20, -73,
   -33, -23, -60, -24, 70, -14, -44, 63,
   -4, -14, -26, 12, -59, 32, -43, -67,
   60, 4, 60, -30, 8, 55, 25, 19,
   69, 32, 15, 4, 44, 45, 56, 27,
   52, 49, 50, 9, 65, 0, 32, 16,
   -15, 7, 8, 16, -13, 7, 7, -9,
   -9, -3, -13, -10, -9, 17, -13, -9,
   -14, 12, -6, 12, 9, 31, 15, -10
};

static const GRULayer vad_gru = {
   vad_gru_bias,
   vad_gru_weights,
   vad_gru_recurrent_weights,
   24, 24, ACTIVATION_TANH
};

static const rnn_weight noise_gru_weights[12960] = {
   -23, -44, 58, 36, 22, 43, 38, -48,
   45, -42, 56, -37, 43, 9, 15, 19,
   -18, -9, -49, 22, 2, 6, 39, 6,
   34, -43, -3, -37, 19, 41, -63, -41,
   46, -2, 18, 31, 67, -27, 23, -11,
   43, -22, 14, -41, -10, 41, 38, -46,
   39, 8, 12, 4, 35, -12, -28, 5,
   30, 7, -27, -33, -49, 16, -35, 5,
   48, 2, 17, 22, -28, 21, -27, 31,
   -24, -23, -6, 57, -15, -5, 8, -5,
   33, 0, -37, 25, 41, -1, -38, 18,
   32, -12, 38, 31, 30, 10, 16, 16,
   -28, 23, -31, -9, 11, 12, 9, 0,
   27, 32, 13, 24, 18, 7, -11, 38,
   -22, 5, -42, 38, 23, -9, -32, -40,
   -41, -15, -31, -30, 34, 27, -13, 27,
   -25, 0, -18, 4, 52, -29, 6, -25,
   45, -37, 3, -9, 8, 12, -43, -22,
   -13, -15, -49, 7, -3, 10, -47, 14,
   3, -7, -9, 9, 4, 40, 53, -20,
   -43, 7, -21, 1, -39, -12, -19, -27,
   6, -3, -43, 22, 23, -40, 20, -2,
   -29, 16, -40, 30, -22, 14, -10, -39,
   -27, 23, -16, -13, 4, -1, -29, -32,
   -37, -15, 36, 17, -22, -2, 22, -18,
   18, 17, 3, -25, 42, -41, -42, -10,
   24, 29, 22, 40, 1, 24, -38, 6,
   4, -45, -8, -24, -24, -12, 23, 5,
   12, 0, -56, -22, -22, 27, -34, 41,
   -35, 28, -23, -21, 34, -46, 16, -12,
   4, -24, -14, 5, -48, -11, -1, 12,
   21, -40, 33, -31, 8, 16, 1, -31,
   23, 6, -25, 35, -16, -28, 13, 5,
   35, 8, -29, 31, 28, 18, 37, 13,
   -23, -15, -22, 46, -11, -30, -16, 11,
   37, 28, -40, -21, -36, -52, 27, -8,
   -11, 11, 33, -24, -31, -41, -13, 7,
   -23, -6, 33, -31, -10, -76, 9, -16,
   34, -10, 24, -5, 35, -7, 29, 21,
   -28, -3, 4, -52, -22, 20, -29, -42,
   -6, -29, 5, 15, -5, -32, 37, 18,
   37, -37, -29, -8, -44, 28, -6, 9,
   33, 1, 15, 9, 55, -32, 52, -38,
   -45, -31, -28, -30, -23, -7, -36, -51,
   36, 5, -9, 30, -17, 28, -22, -1,
   15, -11, 27, -6, 52, -49, -11, -3,
   -4, -15, -80, -6, 19, 1, -5, -9,
   -40, -23, 39, -5, -13, -12, 2, 37,
   18, 18, -13, 6, 12, 19, 19, 33,
   34, 41, -19, 22, -12, 10, -6, -7,
   30, -33, 33, -19, -51, 32, 26, 26,
   2, -20, 27, -17, 19, -42, -3, -15,
   41, 55, -14, -22, 6, -37, 17, 26,
   17, -40, 43, -16, 24, 9, 26, -2,
   45, 13, 49, -27, 6, -1, -38, 6,
   6, 9, 28, 23, 10, 25, 37, -43,
   22, 0, 26, 44, -50, 8, 22, 20,
   -43, -17, 44, 22, -5, 22, 25, 4,
   -39, -36, 31, -15, 5, -14, -21, 51,
   39, 31, -3, -39, 4, -19, -46, 12,
   5, -16, -38, -8, 25, -30, 42, -67,
   -10, 40, -21, -23, 50, 39, -24, 32,
   -20, 29, 32, -26, 1, -32, 30, 9,
   12, -39, 44, 28, 27, 58, 6, 31,
   18, 15, 44, -23, 32, 14, 20, 44,
   -11, -5, 17, -6, -34, 29, 40, 1,
   0, -36, -11, 10, 1, 23, 37, -29,
   -22, 6, 15, 24, -28, -32, -30, 0,
   12, -26, 4, 17, -4, 38, -30, -1,
   27, 5, 37, -39, -3, -19, 16, 40,
   -4, -39, 43, -34, -30, 10, 14, 6,
   17, -15, 31, 5, 25, 14, 14, -14,
   -32, -63, 1, -58, 4, -32, 1, 10,
   28, 15, 32, 62, -9, 32, 12, -28,
   -22, -1, 40, -17, -47, 5, -14, 7,
   37, 0, 25, 15, -1, 9, 3, 26,
   17, 32, 32, 10, 30, -3, -33, -21,
   -14, -5, -9, 10, -7, 1, -29, 6,
   -28, -41, 32, -30, 11, -21, -33, -24,
   1, 21, 16, 16, -60, -47, -34, -16,
   23, 10, -8, -12, -48, -9, 25, 3,
   34, -20, -21, 33, -20, -45, -8, -1,
   14, 11, -70, -40, -16, -34, -9, 14,
   4, -38, 21, 42, -5, -16, -29, 13,
   -7, -8, 34, 37, -7, 14, 7, -39,
   29, -21, -10, 36, 23, -25, 19, -34,
   30, -36, 17, -24, -17, -42, 6, -18,
   13, 18, -44, 4, 7, 20, 16, -37,
   -41, 49, -37, -8, -30, -8, -6, 21,
   -12, -66, -10, -33, -36, -4, -50, 1,
   26, 36, -67, -38, 20, 15, 18, 26,
   -6, -1, 22, -10, -11, -3, 6, -52,
   7, 43, 23, 5, 70, -48, -21, -18,
   20, 4, 127, 32, -31, -68, -20, 2,
   20, -2, -42, 6, -65, -33, 12, -28,
   -80, 4, -41, -17, -21, 5, -5, -18,
   -5, -8, -2, 23, 9, -12, 1, -41,
   -21, 5, 10, 38, 29, -23, 29, 14,
   28, 4, 21, 7, 41, -38, -15, 33,
   18, -10, 11, 4, -37, 13, -7, -20,
   -43, -8, -5, -15, -27, -23, 48, 45,
   32, -19, -42, 14, 52, -6, -51, 9,
   9, -25, -43, -41, 11, 12, 37, -11,
   -28, -12, 0, -14, -25, -48, 7, 5,
   -19, 19, -24, -15, -16, -27, 22, 11,
   19, 31, -47, -15, -31, -34, -14, 40,
   -35, -35, -14, -26, -31, -7, -36, 33,
   24, 23, -19, 6, -26, 35, -22, -24,
   25, -28, -17, -27, -43, -30, 5, 16,
   26, 38, -41, 33, -25, -24, -10, -12,
   -17, 37, -25, -38, 35, -8, -24, -27,
   -23, -26, -26, -8, -1, -22, 39, -43,
   -36, 7, -2, -4, 16, 7, 6, 33,
   -22, -2, 9, 3, -25, -19, 64, -3,
   24, 30, 5, 4, 7, 3, 12, 26,
   -4, -28, -1, 19, -16, -18, 23, -34,
   22, -38, 17, 20, 29, -33, 4, -17,
   7, 21, -27, 24, -2, -15, -2, 18,
   -7, 30, 30, -29, -22, -4, -19, -29,
   24, 24, -40, 18, 21, 7, -51, -33,
   15, 13, -30, 17, -16, 22, -23, 25,
   -33, 3, 11, -24, 9, 5, -16, -21,
   -43, 21, -35, 12, 40, -27, 41, 20,
   14, 27, 11, 15, 8, 26, -31, -3,
   40, 23, -7, -21, 21, 20, 32, -32,
   -1, 15, 32, -28, -43, 13, -18, -45,
   3, 15, -4, -38, 21, -44, -25, -6,
   26, 1, 34, -24, -28, 8, -1, 3,
   62, 41, 25, 10, 68, -34, 28, 13,
   63, -27, 18, -5, 40, -8, 54, 7,
   -49, -26, -6, -32, 15, -20, -35, -31,
   56, -17, -27, 21, 2, -17, -58, -45,
   15, 34, 24, 36, -15, -2, 29, -2,
   -17, 23, 3, 6, 12, -24, 18, 32,
   38, 9, 41, 34, 1, 12, 44, -12,
   -15, -18, 42, -9, 5, 30, 0, 11,
   -3, 34, -22, 23, -30, 15, 19, 30,
   1, -25, 7, -34, 36, 30, 3, 48,
   12, -3, 11, -11, -16, -15, -17, 1,
   -18, 18, -1, 15, 33, 38, 0, -2,
   44, -2, -25, 18, -33, 7, -40, -18,
   -16, -12, 30, 1, 29, 16, 49, -46,
   9, -13, 4, 18, -45, -22, -18, 12,
   -34, -30, -29, -10, 42, -33, 13, 35,
   -19, 0, 43, -32, -10, 23, -26, 22,
   -14, 11, -51, -17, 22, -11, 1, -9,
   -14, 1, -47, -17, 37, -10, 29, 32,
   28, 20, 47, -32, 28, -41, -9, 27,
   3, -8, -37, -11, 11, -56, 11, 3,
   -8, 26, -32, -11, 17, -43, -23, 3,
   39, -42, -23, -29, 50, -14, 22, 33,
   -34, -6, -12, -35, -46, 6, -10, 26,
   5, -15, 22, 9, 28, 5, -7, -1,
   -41, -23, -22, 5, -20, 2, -21, 18,
   -6, 26, -25, -7, -34, 7, -21, -23,
   -13, 49, 30, -5, -6, 23, 4, 15,
   9, -4, -47, -5, 41, -7, 10, 39,
   41, -14, -2, -5, -5, -12, -38, -48,
   17, 22, -2, 44, -20, -1, 26, 7,
   -28, -31, 21, 9, -25, -32, -25, -7,
   28, -11, 45, 15, -22, -4, 42, -19,
   34, -30, -33, -1, 12, -1, -31, 38,
   -47, -33, -69, -36, -6, 27, -22, 13,
   -16, -19, -54, 24, 4, -33, 36, -45,
   -43, 10, 53, 19, 79, -22, 1, 27,
   49, 46, 62, 47, -18, 14, 34, -25,
   0, 25, 8, -5, -30, 51, -13, -15,
   -29, -5, -18, 17, -35, 8, 5, -17,
   -12, -27, -14, -9, 44, -25, 13, -34,
   3, 2, -54, 22, 45, 9, 18, -14,
   12, 15, -9, 13, -18, 0, -22, -21,
   9, -13, -11, -5, -58, -34, -18, -7,
   6, 20, 21, -47, -22, 38, -10, -14,
   -25, -18, -49, -17, -1, -20, -19, 21,
   -24, -26, -42, -28, -35, 35, 31, -9,
   -18, 36, -32, 47, -11, -3, -15, -66,
   -34, 14, 16, -29, -14, -7, 24, -6,
   27, -30, -39, 36, -28, 19, -17, 4,
   -9, 15, 6, -8, -40, -7, -29, 27,
   -21, 38, 10, 16, 47, 23, 19, 33,
   -26, -15, 75, 17, 29, -5, -47, -40,
   -20, -12, 1, -32, 6, 47, 36, 13,
   39, 33, 6, 10, -45, 4, 41, 9,
   10, -32, -43, -1, -21, -30, -41, 5,
   40, -36, 11, -8, 23, 1, -26, 34,
   -19, -11, -11, 23, 25, -2, 9, -19,
   21, -11, -8, -6, 3, 4, -44, 26,
   6, 11, -14, -19, -16, 16, -5, -8,
   0, 11, 51, 31, 43, 24, 13, -1,
   -42, 27, 26, -44, -43, 50, -23, 33,
   43, -34, -27, 18, 11, 43, 44, 11,
   -28, -11, 28, -15, -44, -26, -5, -11,
   11, 22, 36, 22, 38, -6, 11, 13,
   -8, -33, -26, 48, 25, -18, -21, 4,
   -15, -2, 33, 49, -15, -6, -8, -36,
   12, -19, 46, -47, -42, 18, 24, 23,
   -5, 2, 24, 38, 23, 5, 17, 25,
   -32, 33, 26, -32, -6, -40, 15, 23,
   -12, 12, 19, -14, 19, 30, 25, 43,
   10, -13, -7, -33, -35, 4, 11, 3,
   -22, 9, -21, 14, -9, 44, 41, 36,
   -39, 51, 12, -12, 5, -6, 16, -4,
   -1, 10, 33, 18, 10, 50, -1, 12,
   -48, 57, 61, -14, 15, -11, 1, -23,
   13, -11, -1, 34, 17, -17, 23, 16,
   5, 13, 32, 14, 62, 3, -7, -15,
   -28, -30, 8, -12, 32, -4, 21, -4,
   8, -42, 24, -43, -18, -17, 26, 31,
   -10, -20, -5, 13, -29, -26, 26, 19,
   31, -48, -5, -18, -30, -85, 31, 29,
   -3, -9, -1, 32, -7, -27, -37, -13,
   1, -36, -14, 10, 7, -13, -13, -40,
   42, 41, -10, -35, 32, -38, 10, 15,
   10, -45, -8, 20, -11, -35, -13, 49,
   -9, 25, -22, -31, -32, -35, -21, 15,
   0, 27, 0, 20, -15, 26, -35, 41,
   -3, 19, -10, 11, 36, 26, -32, 17,
   35, 33, 16, 57, 20, -6, 26, -70,
   -25, -21, 26, -36, 15, -19, -13, 44,
   0, -24, -19, 51, 5, -7, 1, -6,
   -43, 24, -38, 23, 12, 6, 41, -14,
   4, 3, 16, 31, -3, 12, 20, 46,
   6, 32, -27, -39, -47, 9, -33, 8,
   -11, 37, 23, -18, 45, -36, 5, -30,
   -38, 49, -4, 9, 47, 38, -24, -35,
   -13, 4, -51, -9, -27, -13, -6, -26,
   28, 10, 35, -27, -22, -6, -8, -16,
   -24, -14, -29, -4, 9, 28, 21, -21,
   -23, 15, 8, 13, 6, 26, -31, -11,
   -38, 5, 26, 3, -28, -16, 10, -29,
   20, 23, 22, 28, 4, 4, -10, -15,
   39, 29, -38, -25, 7, 15, 3, 20,
   -22, -22, -15, 37, -25, -26, -43, 34,
   -26, 6, -42, 27, -26, -42, 27, -7,
   -36, 18, -26, -18, -18, 5, 31, -8,
   -2, 1, -7, -37, -5, -1, 29, -18,
   0, -29, 24, -2, -1, -3, 19, -40,
   6, -12, 21, -37, 5, 27, 23, 23,
   39, 14, 13, 4, 81, -11, 26, 5,
   -26, -7, -35, 40, 15, 26, -4, -1,
   -13, -22, -15, 11, 25, -27, 32, 33,
   -31, 22, -6, -31, -54, 9, 28, 2,
   -14, -45, -15, 28, 23, 16, 23, 21,
   2, 15, -29, 10, 6, -50, 74, 20,
   11, 32, -45, -29, -34, -19, -35, -23,
   -13, -39, 5, 19, 9, 2, -11, 29,
   23, -15, -46, -34, -15, -27, -5, -28,
   -18, -16, -38, -11, -24, 43, 3, 14,
   -2, 22, -8, 17, 41, 5, -1, -32,
   -9, -17, 15, -21, 39, 29, 42, -35,
   -36, 13, 11, -42, 15, 24, 29, -10,
   40, 29, 1, 21, 21, 28, 26, -10,
   7, 33, -2, -18, -3, -6, -4, 24,
   -23, 12, 27, 17, 21, -48, 32, -18,
   -42, -30, 7, -1, 50, 4, 15, 2,
   0, 0, -63, 5, -18, 58, 40, -40,
   -38, -5, -22, -18, 34, 16, 31, -32,
   10, -70, -24, -38, -9, 57, 38, -36,
   27, 4, -31, 39, 39, -23, 48, 16,
   8, 29, 27, -32, -31, -52, 14, 39,
   24, -39, 28, 59, 1, -37, 27, 8,
   1, 7, 18, 22, 32, -7, 33, 41,
   0, 21, 13, 15, 11, 11, 24, 35,
   25, 68, 0, -11, 9, 30, -43, 40,
   5, -12, -14, 43, -3, 30, -22, 33,
   -3, 41, -26, -28, -24, 12, -16, 16,
   -36, -4, 6, -37, -10, -24, 28, -10,
   -5, -25, 57, -15, 4, 24, 38, 7,
   39, -11, -36, -38, 14, -16, 46, 4,
   -17, 31, -42, 40, -11, -6, -5, 30,
   46, -71, 38, 27, 41, -49, -7, -1,
   -5, -22, 70, 21, 32, -39, -13, 7,
   24, 32, -37, 34, -51, 8, -21, -31,
   5, -17, -105, 9, -45, -13, -21, 40,
   44, -6, 25, 4, -13, 71, -2, 10,
   36, -62, -26, -43, -58, 47, 14, 8,
   -8, -39, 2, 14, 14, -21, -4, 19,
   -19, -62, 5, 3, -20, -17, -37, 15,
   -7, 35, -19, 52, -45, -7, 37, -6,
   14, -5, -37, -29, 0, 5, 26, 18,
   27, 38, -31, 5, 10, -1, -39, -28,
   -10, -10, 21, -14, 21, 8, -20, 10,
   29, -11, -15, -37, 69, 22, -17, -21,
   39, -26, 12, 10, 5, 18, -28, -24,
   32, 37, -3, 19, 17, -23, 16, -16,
   34, 8, 35, -2, -3, 31, 11, -2,
   -26, 24, 8, 12, 24, -48, 0, -41,
   11, -44, -25, 28, 15, -12, 1, -8,
   -41, -24, -16, -25, 13, -31, 44, 37,
   12, 28, -49, -4, -10, 16, -21, -39,
   15, 35, -7, 28, -13, -11, -30, -10,
   64, -26, -23, -13, -76, -53, 4, 37,
   -9, -15, 8, -33, 7, 32, 16, -13,
   29, -15, -38, -8, 37, 15, 14, -27,
   11, 34, -29, -27, 15, 24, 33, 8,
   24, 9, -20, -17, 23, 61, -1, 18,
   11, -59, -46, -3, -35, -3, -1, -47,
   -30, -45, -29, 24, -3, 4, 10, -7,
   -6, -1, -23, -6, 18, 2, 26, 11,
   -39, -8, 8, -1, 58, 82, -2, -11,
   14, -3, 16, -16, -67, -16, 38, -41,
   -56, -15, -21, 42, 57, 42, 3, -33,
   -30, -23, -1, -36, 52, -41, -52, 20,
   23, 13, -9, 5, -9, 18, 26, 36,
   22, 38, 17, 29, -35, -7, 16, 28,
   -14, -15, -32, 14, 9, -40, -33, 49,
   -8, 14, -14, -42, 48, -7, 22, -3,
   45, 9, -29, 56, -18, 6, -9, 18,
   50, 16, -33, -13, 27, -13, 65, -19,
   7, 9, -10, 44, 36, 23, -20, -13,
   -4, -12, 6, 20, -4, -22, 21, -13,
   48, 25, 15, 18, 33, 7, -10, 8,
   34, 18, -45, -13, -13, 11, 34, 22,
   30, 11, 25, -32, 22, 45, -9, 31,
   -22, 20, 19, 20, 11, -6, -2, 31,
   8, 5, 33, 2, -4, 18, 19, -58,
   -18, 25, 19, 5, 4, 13, -16, 17,
   5, -21, 14, 18, -31, 34, -6, 25,
   32, 31, 1, 10, -19, -2, -1, 15,
   18, -40, -13, -30, -27, -30, 15, -26,
   -21, 43, -10, 25, 55, -26, 1, 0,
   1, -11, -15, -19, -8, 43, -14, 21,
   -25, 4, 23, 54, -9, 4, 2, -42,
   19, 34, -4, 13, -20, -35, -6, 50,
   -38, 8, -15, 50, -31, 59, 19, -21,
   -8, -6, -14, -49, -11, 18, -24, 19,
   -4, 27, -19, 17, 27, 5, -27, 4,
   -18, 10, -27, -30, 30, 18, -6, -21,
   24, 24, 43, 54, -12, -4, 33, 28,
   -39, 9, -17, 19, -20, 15, -13, -24,
   40, -27, 22, 21, 3, -12, 31, -29,
   -47, 7, 49, 24, -45, -21, -20, 10,
   14, 38, 1, -36, -21, 11, -1, -10,
   -9, 43, -4, 52, 30, -33, 14, -10,
   22, 15, 11, 26, -7, 39, -36, -9,
   6, -9, -12, -7, 27, 23, -18, -30,
   -20, 31, -38, -29, 8, 13, -23, 33,
   38, 5, -41, 13, -33, 23, -22, -24,
   -38, 22, 21, 33, -1, -17, 11, 38,
   17, -4, -4, -10, 29, -39, 15, -18,
   -4, -13, -13, -30, -4, 19, 26, 26,
   1, 14, -4, -19, -13, -12, -11, -14,
   -29, 56, 25, 44, -29, -1, 17, 18,
   21, 16, -27, 9, 6, -20, -10, 28,
   -35, -26, -48, -3, -96, 12, -1, 8,
   -57, -39, -1, -41, 1, -13, -32, -1,
   -5, 11, -47, -110, -13, 7, 10, -21,
   -9, 46, -2, 36, 16, -37, 6, 22,
   20, 19, 20, -7, 16, 28, -38, -34,
   -29, -22, 42, 9, -24, 38, -19, -76,
   11, -56, -41, -35, -22, 36, -12, -13,
   31, -25, -4, -10, -32, 33, -35, 10,
   0, -28, -10, -67, -29, 49, 28, 8,
   18, -75, -20, -1, -50, -11, -27, -12,
   -8, -17, 22, -39, 51, 28, -4, -32,
   -1, 12, -18, 13, -6, 62, -45, -50,
   -38, -46, 2, 0, -42, -19, -3, -10,
   37, 21, -22, -52, -56, 21, -28, -30,
   -23, 22, 53, -15, 31, 37, 12, 34,
   32, -11, 15, 1, -12, 19, -21, 4,
   -24, 35, 28, -42, -42, -23, 16, 8,
   21, -28, 41, -27, 7, 9, 27, -82,
   -57, -7, 45, 35, 36, 39, -26, 5,
   -31, 35, 79, 36, -3, -66, 11, -24,
   18, -21, -9, -35, -36, -30, 5, -24,
   -44, 12, -27, 18, -9, -27, 10, 2,
   6, 0, -5, -16, -44, 0, -40, 0,
   4, 37, -33, -1, 3, 34, 21, 20,
   20, 18, 15, 6, 9, 3, -15, 22,
   -33, 3, 2, 10, 8, 24, -11, 28,
   -26, 34, -19, -10, 10, -29, -10, 18,
   25, -48, -3, -1, 9, 14, -26, -21,
   4, -40, -14, 28, -20, 26, 1, -25,
   -34, 6, 49, 42, 29, -11, 33, 24,
   -1, -42, 20, 24, 38, -7, -16, 11,
   32, -12, -16, 36, -12, 29, -27, 20,
   -9, -11, 22, 73, 10, 35, -21, 1,
   18, 12, -41, 39, 5, 17, 10, 34,
   -23, 13, 24, -35, 45, -13, 19, 10,
   -32, -41, 69, 44, 24, 13, -5, 11,
   71, -15, 36, 32, -46, 23, 20, -7,
   -3, -6, -10, 34, -3, 34, -23, 38,
   -18, -15, -16, 34, 17, 8, -6, 32,
   -3, 19, -35, 16, -21, 25, 29, -34,
   21, -26, 31, 51, -36, 38, -25, -3,
   -29, 36, -10, 13, 29, -28, -15, 17,
   26, 1, -25, -27, -6, 36, 43, 8,
   28, 21, 4, 33, 10, 45, -16, -5,
   -12, -18, 1, 12, 2, -60, -10, -23,
   -21, 42, 51, 14, 39, 54, 50, 27,
   -16, -31, 3, 35, -16, 23, 17, -21,
   35, -40, -15, 13, 37, 10, -15, 52,
   46, 7, -37, -13, -31, -12, 10, -9,
   -9, 16, 20, 12, -19, 24, 43, -34,
   -33, -30, -28, 7, 4, -3, 19, -43,
   -18, -6, -11, -12, -16, -9, 0, -17,
   -2, 54, -6, 51, -36, -16, -17, 28,
   -15, 25, -29, -33, 27, -31, 32, 25,
   -5, -28, 22, 4, 76, 2, -6, -6,
   37, 2, -28, -37, -7, 39, -4, -38,
   19, -36, 31, 17, -9, 10, 26, 11,
   -26, -26, 14, 1, -32, -7, -42, 7,
   -32, 33, 15, -34, -24, -16, -4, 67,
   -43, -36, 26, -9, -45, -2, 11, -21,
   13, 5, 20, 0, -11, 28, -39, -2,
   33, 35, -2, 1, 34, 12, -16, 62,
   13, 22, 33, 48, 38, 3, -43, 36,
   32, -33, 6, 18, -5, -38, -2, -12,
   -19, -43, -33, 14, -10, 7, 15, -14,
   -37, -27, -11, 10, 25, 8, 1, -30,
   16, 30, -30, 32, -26, 35, 4, -24,
   25, 35, -27, -4, 0, -8, 26, -43,
   -28, -32, 7, -18, 10, -43, 19, -20,
   -6, 19, 16, -24, 20, 28, -24, 8,
   22, -27, 41, 67, 16, 12, -1, 28,
   -1, 2, -2, -18, -1, -24, -24, -1,
   18, 3, -34, 1, -15, -23, -2, -31,
   -27, -39, 15, 7, 29, 33, 6, -6,
   45, -30, -4, 22, 18, 3, -11, 10,
   26, -13, -14, 19, -16, 22, -33, -33,
   4, -35, -22, 41, -5, 17, 11, -13,
   -32, -2, -22, -32, -1, -24, 25, 40,
   -31, -7, 36, 11, 18, -12, -15, 15,
   -15, -20, -12, 4, 29, -12, -13, 49,
   21, -4, 47, -10, -29, -1, 8, 14,
   -29, 6, 13, -12, -9, 26, -2, 30,
   -1, -32, -25, -10, 8, 21, 16, -35,
   11, 22, -10, -18, 27, 32, 28, -37,
   -32, -18, 39, 37, 37, 24, -11, 20,
   -13, 3, 22, 37, 12, 37, -8, -34,
   31, -7, -1, 7, -32, 33, 32, 41,
   30, 17, -21, -10, 32, -17, -4, -10,
   16, -18, 11, -15, -61, 14, 31, 14,
   3, 7, -41, 6, 3, 28, 5, 43,
   -29, 23, 26, -17, -56, 5, -46, -23,
   33, 15, -34, -20, 52, -27, -16, -4,
   26, -14, 11, 16, 5, -26, 3, -6,
   -7, -30, -17, 2, 60, 11, -6, 45,
   -4, -30, 13, 40, -4, 12, -37, -37,
   -7, 11, 41, 31, -25, 11, 41, -19,
   -8, -1, 31, 31, 10, -1, 12, 16,
   -32, -34, 13, -38, -44, 17, 21, 34,
   9, -47, 35, -18, -14, -2, -14, 8,
   -5, -33, -19, 2, 4, -20, 10, -6,
   27, -4, 27, 8, 11, -2, -35, 9,
   15, -25, 4, 13, -2, 8, -12, -6,
   -13, 15, -23, 44, -3, 1, 2, -40,
   37, -36, -29, 4, 1, -36, -5, 8,
   -25, -3, 64, -55, -7, 9, 2, 5,
   -25, 24, 42, 7, 28, 27, 11, -47,
   38, -1, 12, -28, -21, -12, -33, -37,
   7, -24, -15, -22, -29, 6, 48, -14,
   51, 26, 9, 6, -20, 12, -8, 27,
   27, -2, -9, -9, 9, 40, -41, 3,
   -11, 5, 30, 35, -25, 16, 11, 14,
   -12, -16, -15, -19, 5, -27, -20, -35,
   21, 17, 25, 23, -30, 17, -36, -21,
   -2, 14, 24, -39, 38, 0, 7, -27,
   -13, -15, -3, 29, -13, 3, 10, -21,
   -25, 21, 19, -14, 16, 34, -14, 29,
   -27, 45, 20, 62, -20, -29, -31, -20,
   33, 19, 29, -18, -32, 34, -4, 39,
   -1, -3, 7, -19, -39, -31, -30, 1,
   -38, -17, 47, -35, 39, 38, -22, 25,
   13, 19, 33, -30, -10, -27, -38, 42,
   20, 4, 53, -29, 14, 3, -31, -9,
   1, 32, -30, 20, -12, 5, -31, -5,
   -26, 43, 14, 34, -12, -9, -31, -3,
   23, 15, 21, -20, -24, -6, -33, -24,
   -42, -19, -29, -10, -47, 19, 6, 42,
   56, -24, -18, -3, 19, -39, -20, -11,
   -31, -11, -11, -13, -47, 36, -23, 23,
   24, -26, -30, 30, -20, -16, -15, -15,
   -21, -35, -7, -7, -29, 47, -27, 10,
   -28, 42, 39, -4, 5, -26, -8, -10,
   -33, 29, 38, -23, 36, 10, -34, -8,
   62, -29, 12, 8, -31, 33, 3, -15,
   24, 33, 38, 11, 25, -18, -26, -24,
   -12, 36, -2, 43, 29, -36, 15, -51,
   37, -28, 28, 5, 17, -17, 13, 10,
   15, -19, 33, 22, -41, 13, 19, -22,
   2, 23, 41, -36, 49, 13, -24, 4,
   16, -30, 11, 11, -11, 18, 24, 17,
   26, 10, 31, -24, -18, -2, 18, 25,
   38, 19, -23, 33, -27, -2, 17, -47,
   8, 30, -5, -8, -27, 24, -34, 44,
   -20, -24, -36, -11, -54, -19, 24, -33,
   3, 7, -48, -31, -7, 0, -3, -51,
   24, 11, -22, 18, -9, 1, -34, -22,
   -51, 31, -86, 14, 55, 47, 21, 23,
   14, -21, -5, -17, 40, 4, 31, 2,
   -4, -5, 29, 18, -31, 6, 14, 2,
   6, -28, 14, 29, 2, -34, 22, 56,
   16, -37, -16, -37, 6, -28, 18, 23,
   -36, 34, 30, -6, 3, -17, -50, -8,
   10, 32, -40, 3, -13, -35, 30, 15,
   -33, -6, -10, 6, -32, -10, 31, -52,
   -34, -27, -33, 22, -4, -18, 12, 44,
   16, -19, -4, 13, -25, 21, 19, 29,
   -11, -10, -37, 27, -36, 48, -35, 18,
   -18, 34, 33, 33, 5, -20, -6, -18,
   10, 17, 3, -7, -6, -34, 26, 6,
   -39, -19, 49, -36, 14, -6, -15, -19,
   35, -35, 2, -26, 15, -24, 16, 25,
   13, 0, 7, 45, -6, 59, -20, -3,
   11, -16, -32, -44, 1, 17, -22, 25,
   10, -1, -26, 4, 29, 30, -33, 14,
   -2, -40, 6, 17, -8, -25, 17, 23,
   12, -24, 18, -42, 17, 34, -22, -32,
   -24, 53, 28, -62, -5, 12, -43, -29,
   0, 7, 33, 36, -48, 34, -31, -22,
   -5, -4, 1, -24, -23, 20, 12, 30,
   -6, -2, 24, -3, 26, 35, -14, -34,
   17, -42, 62, 26, -38, 22, 16, -40,
   20, 2, 14, -6, 6, 12, -25, -19,
   -2, -14, 34, -37, -9, -13, 19, -4,
   -32, 37, -14, -36, 65, -17, 42, 6,
   40, -25, 33, -27, 13, 1, 10, 10,
   16, -8, 34, 4, -18, 29, 28, 14,
   -10, -23, 25, 31, 13, 3, 7, 22,
   7, -26, -35, -37, -14, -28, 12, -16,
   19, 21, 15, 19, 0, 40, 37, -29,
   20, -16, 27, -26, 21, -66, 4, -16,
   27, -13, -37, -32, 41, 24, -27, 36,
   -1, -11, 3, -6, 52, -44, -9, 30,
   -33, -19, 58, -20, 20, 14, -41, 29,
   27, 17, 18, -23, 31, -29, -4, 4,
   -55, 12, -21, -7, -65, 34, -33, 14,
   3, 8, 41, 32, -17, -1, -1, -18,
   -33, 34, -22, 39, 29, 48, 23, -42,
   33, 9, -4, 14, -24, -9, 17, 38,
   -6, -8, -3, 27, 16, 23, 9, -11,
   2, 23, 16, -8, 42, 20, 28, -17,
   6, -12, 18, 30, -36, 52, 13, 32,
   -2, -33, 4, -16, -18, 25, -11, 0,
   -13, -37, -9, -40, 21, -31, 1, -32,
   -40, -24, -34, -33, 19, 29, 29, -35,
   11, 26, 17, -31, -3, -11, -42, 22,
   16, -16, -39, 42, -26, -32, 34, -28,
   -4, 37, -7, 42, 3, 24, -20, -2,
   -24, 11, 65, 12, 34, -32, -13, 20,
   -41, -33, 34, -2, -37, 26, 25, -17,
   0, 28, -3, 3, -15, 28, 24, -12,
   5, -43, -21, -31, -23, 13, -9, 13,
   -12, -19, -15, -11, 9, -29, -5, 31,
   1, -28, -1, -33, -29, 37, -4, -7,
   -11, 37, -23, -18, 40, 32, 11, -16,
   -7, 16, 3, -4, 29, 37, -31, 35,
   33, -39, -8, 28, 23, -25, 35, -21,
   -16, 10, 17, 4, -23, 1, -7, -12,
   14, 32, -7, 1, -9, -16, -1, 4,
   24, 24, 24, 12, 26, -18, 33, 33,
   30, 38, 19, -23, -4, 33, 0, 2,
   37, -2, 14, 36, 41, -11, -3, 37,
   5, -33, -22, -11, 29, 4, 8, -36,
   19, 33, 15, -9, -41, -17, 16, -32,
   6, -26, 20, -18, 35, 2, -29, 14,
   -5, -25, -33, 43, 41, 1, -34, -31,
   40, -47, -30, 21, 22, 4, -16, -11,
   -9, -7, -7, -9, 22, -31, -1, -44,
   -20, 20, 18, -28, -9, 20, -24, 8,
   -3, 10, -30, 34, -8, -37, 15, -39,
   -33, 9, -38, -3, -17, 24, 26, 44,
   22, -41, 30, -35, 22, 25, 29, -15,
   -21, 14, -14, -2, -43, 24, -14, -8,
   15, 4, 4, 10, 37, 17, 3, 8,
   -41, -24, 53, -32, -1, 37, 10, 9,
   -25, 5, -28, 2, 21, 36, -20, -6,
   -44, -17, 34, 25, -38, 19, 20, 11,
   -27, -37, -29, 14, -27, -7, -44, -11,
   -12, 43, 17, 6, 9, -33, -19, -22,
   31, -20, 6, -17, 22, -39, -17, 15,
   -12, 45, 43, 25, 34, 8, 22, 17,
   34, -12, 34, 15, 7, -24, 40, 3,
   29, 9, -37, 27, -10, -30, -11, -3,
   36, -12, 2, 37, 12, -28, 44, -35,
   2, 14, -55, -15, -11, 35, 30, 34,
   -29, -14, -29, 17, -36, -39, -37, -41,
   16, 21, 28, 20, 2, 11, -32, -8,
   -13, 30, 0, 13, -8, -33, 5, -6,
   6, 28, 3, 30, -33, -9, 42, 4,
   26, 76, 5, 33, 22, -17, 1, -23,
   27, -19, 26, -8, 25, 1, 0, 8,
   -40, -10, 9, -26, -25, 43, -20, -24,
   -39, 3, 3, 17, 41, 33, 2, -22,
   17, 37, 19, 17, -6, -50, 24, -9,
   19, -24, 25, -42, 29, 0, 13, 26,
   -7, 4, 20, -52, -21, 1, 24, 35,
   -12, 16, 18, -26, 40, 29, -13, -47,
   -22, 15, -7, 33, -15, 43, -23, -5,
   13, -22, 26, 17, 22, 34, 12, 8,
   8, 15, 7, -13, -24, -12, 34, 30,
   22, 16, 23, -33, 8, -32, 16, -22,
   -16, -37, 7, -31, 12, 43, -13, 6,
   19, -49, -63, -43, 2, 53, -25, -28,
   22, 18, -22, -31, -16, -24, -26, -46,
   -1, -1, -5, 24, 46, 43, -64, 21,
   0, 24, -4, 48, 3, -60, 44, 30,
   -19, -8, 11, 40, -22, 19, 49, -38,
   -9, 70, -44, 33, 8, 22, -38, -2,
   -5, -8, 36, -33, -4, -15, -1, -37,
   -8, 8, -28, 34, 32, 11, 37, -27,
   2, 26, -11, -19, -26, -26, 10, 22,
   33, -5, 4, 37, -43, -15, 11, -20,
   -6, -24, -7, 22, -40, -32, -11, 41,
   24, 11, 1, 26, -23, 6, -20, -22,
   -41, -42, 18, -14, -8, -31, 27, 31,
   -13, 25, 0, -27, 8, 2, 26, -16,
   22, 21, 15, -30, -29, -1, -9, 13,
   -21, 10, 14, -26, 18, -17, -12, -10,
   28, 39, 44, 34, 20, -34, -17, 34,
   -1, -4, -29, 15, 45, 29, 22, -36,
   -31, 8, 9, -16, 13, -6, -36, -14,
   27, 22, 45, 22, -47, 0, -31, 2,
   9, 42, 40, 1, 31, 40, -18, 47,
   -31, -12, -51, 0, 31, 14, -14, 10,
   9, -26, 10, -12, -3, -13, -22, 12,
   50, -28, 24, 0, 1, -31, 23, 23,
   -34, 36, -8, -17, -8, 11, -18, -19,
   -30, 29, -19, -2, 24, -9, 26, 42,
   16, 16, -10, 9, 13, 38, 11, 8,
   -27, 17, -37, -17, 23, 27, 21, 7,
   -2, 10, -8, -21, -22, -15, 12, 5,
   -9, -11, 16, -28, -13, -41, 31, -7,
   0, 28, -25, -44, 5, 24, -20, 14,
   -8, -25, 16, 44, -14, -12, -32, -24,
   -5, 1, -37, -23, 28, -43, -10, 8,
   12, -35, -41, 30, -36, -30, -30, -24,
   36, 3, 37, 15, -25, 28, -33, 35,
   9, -19, 25, 7, 2, 34, 8, 7,
   17, 36, -47, -21, 2, 24, 3, -33,
   27, -12, -32, 19, -17, -19, -2, -46,
   -13, -18, 10, 37, 8, -4, 4, -30,
   8, -2, -24, -23, 18, 34, 38, -45,
   36, 3, 12, -4, -10, 24, 26, -10,
   29, -25, -11, -10, 36, -11, 6, -3,
   24, 55, 27, 43, 33, -24, 12, 5,
   -10, 35, 1, 32, 20, 4, 33, 21,
   -32, 28, 39, 26, -30, -51, 19, -40,
   30, -4, 7, 36, -5, -10, 5, 4,
   -39, -52, 40, 2, 3, 50, -30, -7,
   -10, 65, -22, -11, 49, 9, -10, 5,
   28, 27, 7, -14, 17, 33, -25, -26,
   -21, -18, -34, 20, -34, 40, -3, -11,
   -26, -12, 1, 33, 20, 38, 7, -10,
   -31, 40, -3, 11, 20, 15, 0, -49,
   42, 16, 39, -32, -19, 21, -21, 34,
   -23, 27, -18, 6, 6, 26, 41, -44,
   0, 28, 2, -38, 11, -12, -16, 29,
   -17, -11, 46, 29, -12, 26, -31, -14,
   -13, 29, -8, -43, 46, 41, -30, 37,
   5, 15, -45, -7, 54, -21, 3, -22,
   12, -9, 10, 2, 15, 55, 4, -49,
   33, -11, 45, -32, 46, 18, 30, 5,
   -2, 23, 16, -5, -38, -39, -34, -26,
   -11, 41, 14, -8, 39, -30, 29, 19,
   4, -27, 38, 22, -16, -39, 12, 13,
   -19, 24, 11, 2, 28, 22, -24, -41,
   -18, 7, -41, -28, 13, -6, 8, -31,
   -23, -44, 8, -62, -3, -37, -7, -31,
   -30, 36, -5, 30, -32, 40, -20, -30,
   -23, -17, 14, 42, -17, 4, 2, 24,
   -38, 16, 2, -29, -29, 6, -24, 21,
   25, 27, 19, 37, 31, 26, 3, -28,
   -35, 16, -40, 14, -34, -12, -31, -36,
   0, 22, 19, 32, 6, 25, 35, 6,
   30, -3, 55, -17, 41, 22, 25, 16,
   14, -23, 3, -25, -27, 61, -4, 5,
   75, -49, 6, -1, 4, 20, 31, 6,
   34, -22, 35, 5, -23, -6, 26, 38,
   19, 13, 29, -6, 43, 11, -27, 12,
   -26, -55, -3, -15, -45, 31, 7, 34,
   17, -18, -40, 1, -37, 5, -21, -21,
   -4, -28, -33, 28, -10, 1, 20, -33,
   40, -12, 12, -33, 16, -8, 58, 33,
   -27, -10, 21, -7, 32, -10, 6, -28,
   32, 18, -56, 3, 13, -13, -2, 17,
   33, 22, 17, -19, 31, 27, -6, -4,
   -8, -16, 20, -37, 18, -42, 36, 22,
   -1, -24, 7, 27, 28, 44, -2, 20,
   19, 6, 24, 32, -22, 33, -40, -44,
   -30, 28, 2, -11, -30, 17, 27, -31,
   39, 5, 5, 15, 1, 4, -26, 12,
   27, 47, 33, 5, -8, -43, -15, -20,
   -20, -28, -31, 11, 9, 50, 15, 15,
   5, 7, -7, 14, -42, -3, -50, -7,
   -17, -2, -27, -11, 21, -43, -4, -23,
   -32, -29, 19, 51, -15, -16, 22, -33,
   25, -5, 20, 49, -13, 4, -25, 14,
   25, 41, 26, -36, 61, 36, 17, 20,
   27, -15, -2, 26, -1, -14, -35, -30,
   30, -29, 34, -19, -16, 11, 2, 17,
   -28, 2, 26, 40, 14, -42, 15, -3,
   15, -26, 31, -3, -52, -7, -19, -9,
   8, -13, 22, -21, 30, -21, 4, -8,
   27, 14, -35, -47, -40, 15, 4, -23,
   14, -12, 39, 0, 41, 41, -6, -25,
   6, -14, 3, 56, -3, 16, -25, -27,
   35, 6, -35, -14, -42, -31, -21, 4,
   40, 13, -28, 29, 9, -19, -23, -2,
   -4, -29, 37, -41, -35, -38, -42, -1,
   -33, -37, -34, 32, -1, 46, -26, -13,
   25, 5, -7, -31, 54, -30, 17, 31,
   -28, -27, -11, 34, -14, -2, 19, -5,
   -6, -29, -21, -12, -42, 4, 18, 42,
   -26, 10, -5, 22, -9, 21, 19, -17,
   13, 19, -2, 34, 41, -56, 17, -26,
   -26, 17, -51, 27, -15, 9, 9, 31,
   -8, -29, 22, -21, -25, -15, -1, 30,
   -9, 38, -41, -30, 25, -57, 19, 13,
   31, 26, 35, -15, 21, 41, 2, -20,
   26, -43, 5, -34, 32, 40, -5, -18,
   4, 12, -20, -20, -40, -14, 19, 41,
   -9, -8, 23, 18, 26, 4, 12, 23,
   -1, 0, -21, 11, 30, 18, 38, 39,
   -29, -21, 35, -5, -21, -13, -40, 25,
   30, 23, 16, 2, 24, -16, -19, -20,
   -29, -39, -12, 30, -15, 13, -26, 30,
   -3, 31, -45, 34, -50, -11, 4, -25,
   -3, -26, 20, 20, 17, -20, -25, 27,
   -6, 7, -30, -22, -15, 0, 15, -23,
   -11, 0, -18, 32, 15, 16, 38, -33,
   -52, -17, 8, 24, 18, 7, -36, 33,
   -15, 37, -6, 40, 17, -56, 40, 12,
   -18, 7, -11, -16, 0, -13, 22, 4,
   24, 42, -28, -6, 67, -41, -9, -11,
   23, -3, -14, -14, 15, -17, 8, -14,
   -31, 9, 11, 8, -1, 4, 59, 15,
   15, 41, 30, -10, 32, -37, -45, -6,
   26, -14, -38, -9, 5, 29, 45, -39,
   -27, -15, -22, 21, -7, 4, 16, 2,
   4, -21, -5, 14, -5, -45, 13, 30,
   23, -29, 35, 0, -46, 36, -35, -12,
   1, 36, -26, 40, 25, 28, 32, -1,
   -29, -2, 22, -29, 15, -6, 3, 36,
   25, 24, -10, 34, 5, 9, -37, -25,
   -5, 20, -27, -44, -7, -38, 24, -38,
   -24, -37, 3, -20, -1, 28, -17, -27,
   -54, -47, -8, -55, 67, 0, 45, -10,
   25, -38, 62, 26, -4, -37, 25, 11,
   -8, 37, 22, -48, -18, -38, 12, -22,
   14, -40, -40, 22, 21, 8, -6, 18,
   -36, -39, 8, 27, -29, 30, 1, 9,
   -56, 1, -18, 32, 25, -12, -25, 1,
   36, -50, 7, 18, -24, -29, 7, -23,
   24, 12, -18, 11, 5, -61, -21, 9,
   -22, -27, -42, 32, 19, 6, -38, -17,
   -12, -14, 1, 5, 31, 15, -31, 6,
   -2, -19, 16, 63, -10, -20, 35, -2,
   -39, -16, 10, -9, 26, 40, 42, 54,
   5, 31, 22, -19, -78, -18, 34, 34,
   -40, -24, -20, -7, 12, 15, 9, 15,
   -32, -21, 13, -51, -10, -17, -36, -25,
   11, 21, 9, -27, 29, 11, 17, -35,
   -8, 10, -16, 30, -30, 31, -16, 5,
   42, 35, -31, 8, 33, 32, -41, -11,
   38, -14, -24, 30, -43, 4, 14, 6,
   -26, -22, 18, -23, 30, 46, -20, 3,
   21, -36, -20, 63, 24, 24, 20, -46,
   56, 24, 4, -6, 54, 42, -42, 2,
   30, -23, -4, 22, 41, 25, -6, -6,
   17, 59, 22, 23, -12, 31, 26, 27,
   -22, -14, -30, 12, 44, 33, -31, -14,
   -9, 23, -16, -30, -18, 43, -11, -12,
   2, 41, -20, 27, 8, -31, -34, 21,
   -44, -51, 22, 41, 39, -33, -14, 65,
   46, 12, 22, 43, -18, 12, 0, -15,
   -46, 5, -4, -3, -16, -26, 5, -4,
   17, 25, -4, -12, 50, 20, -20, -5,
   28, 10, -52, -9, -13, 12, 22, -31,
   -14, 17, -22, -4, -26, -28, -22, -15,
   38, -31, 29, -36, -6, 5, -21, -30,
   -11, 28, -16, 3, -22, 24, 35, 11,
   48, 19, 9, -42, 11, 29, -6, 42,
   13, -11, 40, 24, 19, -34, 19, -10,
   -42, -45, 25, -28, 12, 45, -31, 21,
   11, 22, -29, -16, -22, 1, 21, -54,
   45, 10, -8, -30, 9, 42, -7, 16,
   -25, -47, -2, 1, -10, 44, -19, 16,
   26, 52, 26, 17, -7, 7, -13, 21,
   16, -9, -12, 19, -28, 35, -19, -28,
   6, 7, 15, -42, -12, 10, -38, -2,
   -27, 23, 16, -16, 1, 28, 41, 37,
   -21, 22, -36, -8, -8, -2, -11, -8,
   30, 40, 31, 16, -16, 4, 33, -11,
   -32, 1, 15, 24, -12, 34, 29, -14,
   16, 25, 23, 14, 18, -34, -32, -11,
   -20, -11, -5, 18, 25, 21, 40, 34,
   38, -4, -18, 26, 34, 7, -30, 39,
   37, 11, -25, 8, -29, 21, 24, 20,
   23, -5, 28, -18, -39, 2, -15, -14,
   8, -5, -32, -20, 14, 25, 7, 14,
   39, 19, 53, 28, 26, -14, 34, 4,
   -45, -26, 50, 44, 6, 9, -23, 27,
   4, -31, -19, 6, 49, -15, 26, 0,
   -33, -47, -36, -29, 1, 26, 20, 9,
   -21, -33, -29, 19, 53, -7, -39, 7,
   26, -54, 54, -39, 13, 43, 24, -3,
   37, -23, 7, 10, 44, -18, -12, 27,
   -11, -19, 31, -17, 5, 32, -11, -27,
   23, 34, 3, 11, -16, 28, -2, 40,
   -6, -15, 5, -12, 10, 55, 22, 42,
   1, 8, -26, 39, 16, -55, -2, 17,
   29, 6, 6, -28, -20, -3, 18, 27,
   -3, -20, 29, 29, -16, -4, -24, 17,
   35, 5, -5, -34, -26, 26, 0, -13,
   36, 39, 21, 0, -35, -35, -41, 9,
   -37, -10, 6, 1, 28, -1, 16, 28,
   -17, 6, -25, 48, -30, -55, -39, -49,
   -37, 1, -10, 22, -9, 13, -16, -26,
   -1, 5, 41, 14, -41, 27, -33, 33,
   33, 21, 37, -14, -14, -20, 39, 3,
   28, 26, 0, 35, 30, 18, -29, -8,
   -7, -12, 61, 2, 19, -15, -10, 3,
   -13, -1, -58, 16, 29, 49, -37, 6,
   10, 52, 7, 18, 32, -22, 23, -35,
   -11, -7, -26, 5, 40, -20, -20, 45,
   -15, -3, -41, -39, -9, -10, -36, 28,
   31, -4, -38, 15, 20, 60, 71, 30,
   17, -11, -70, 20, -13, 13, -14, 41,
   -28, 25, -33, 8, 15, 23, -31, 30,
   28, -58, -4, -9, -7, -39, 32, 14,
   30, -11, -11, 37, 57, 38, -31, -1,
   -32, -18, -12, 14, -31, 30, 9, 6,
   -25, -45, 10, -4, -49, 28, -30, 34,
   -30, -9, -3, -4, -4, 46, 15, -11,
   -45, 32, -20, -21, -9, 29, 27, 0,
   12, -46, 31, 9, -31, -24, -36, -21,
   40, -8, 43, -8, 24, -19, 33, -47,
   -22, 15, 20, 4, 33, 34, 7, 50,
   14, -44, 31, 29, -23, 40, 2, -31,
   26, 4, 19, -54, -10, 33, -10, 1,
   5, -7, 34, 34, 14, -17, -37, -3,
   30, 11, -10, 0, 10, -20, -5, -22,
   -44, -22, -5, 21, -8, 29, 4, 28,
   7, -11, -32, 16, 10, -3, -23, -13,
   -17, -43, -31, 22, 6, 39, 41, 33,
   16, 9, 3, 14, 32, -18, 12, 8,
   -5, -10, 26, -14, -37, 7, -3, 16,
   -16, 22, -6, 13, -17, 34, -9, -47,
   -3, 31, -41, -1, 39, 23, 39, -15,
   -33, 1, 48, 45, -16, -17, -39, 5,
   14, 6, 38, 27, -4, -36, -39, 2,
   -33, -26, 21, -5, 35, 5, 36, 13,
   -18, 13, 26, 33, 36, 0, 8, -38,
   -23, 39, -25, -30, 15, -42, 27, 19,
   -20, -14, 11, 27, -24, 60, -52, 34,
   -24, 23, 23, -17, -37, -1, 17, -12,
   8, 2, 1, 18, 21, 11, -65, 12,
   -5, 20, 42, 50, -8, -53, -2, -7,
   -3, -29, -53, -53, 16, -9, 3, 34,
   -15, 5, -15, 32, 71, -25, 40, 23,
   8, 9, -23, -41, -4, 24, -24, 25,
   -2, 39, 34, 27, 25, 1, 34, 30,
   12, -20, -9, -29, -13, 13, -33, 36,
   30, 22, -38, -25, -30, -28, 6, 5,
   -23, -20, -16, -7, -1, 8, -13, -7,
   -35, 5, -30, -47, 14, 17, -30, -6,
   -18, -32, 26, -33, 10, 18, 15, -30,
   -20, 29, -22, 35, -1, -17, -18, 27,
   -5, 18, 45, 38, 37, 19, 16, 7,
   21, -6, -26, -29, -26, 4, 27, -19,
   8, 42, 23, 35, -19, -30, -43, -8,
   5, -35, 43, 27, 33, -45, 14, 6,
   20, 17, -23, -10, 7, -4, -34, -15,
   -32, -26, 5, -44, -17, 3, -17, -13,
   -11, 15, 36, 26, 13, 35, 22, 28,
   -24, -41, 3, 18, 18, 40, -4, 24,
   -21, 16, -1, 6, -19, -5, -14, -2,
   -10, -4, 26, -31, 3, -3, 48, -3,
   -3, -8, -11, 26, 35, -10, -16, 54,
   16, 12, -13, -5, 16, -23, -2, 0,
   32, -39, -7, -10, 2, 26, -4, -4,
   -32, 8, -21, 8, -3, -8, -40, -29,
   5, -28, 35, 6, 20, -4, -16, 27,
   -13, -31, 9, 19, -2, 9, 17, 0,
   36, -44, 10, -6, 37, -35, -43, 12,
   3, 25, -6, 33, 9, 39, -7, -3,
   34, -13, -18, 21, -27, 35, 3, 39,
   23, 31, -5, 2, 26, -34, -42, 40,
   18, -25, 26, 14, 42, 1, -13, 36,
   -22, 19, 14, -37, 18, -26, -26, 21,
   25, -19, 10, 41, 21, -20, -6, -32,
   -21, -23, 29, 25, 22, -17, 6, 19,
   -13, -49, -40, -1, -41, 38, -19, -12,
   -37, -14, -49, -21, 49, -18, -4, 5,
   46, -30, 30, 7, 30, 22, 11, -5,
   53, -45, 1, -27, -33, 31, 32, -23,
   46, 13, 25, -33, -25, -66, 8, 21,
   35, -10, 25, 46, 44, -9, 1, -30,
   24, -31, -4, 22, -20, 7, -10, 6,
   4, 38, -21, -21, 9, 17, -29, 38,
   -3, 26, 12, -17, 2, -1, -30, -41,
   34, 9, -9, 4, -6, -10, -18, 23,
   -27, -10, 34, 33, -5, -33, 42, 30,
   39, -24, -23, -11, 39, -22, -13, -23,
   23, 17, 17, -4, 17, 4, 39, 31,
   10, 2, -31, 12, -34, 0, -20, -34,
   38, -29, -18, -11, 41, 23, -16, -12,
   14, 17, 23, -1, 28, 22, -37, 27,
   6, -4, 25, -27, 32, -54, -12, -18,
   26, 21, 61, 1, -2, -30, -15, 6,
   -6, -28, 17, -7, 74, -38, 50, 8,
   -4, -13, 61, -17, -14, 46, 42, -26,
   -1, -10, 40, 2, -18, 15, 36, 11,
   -23, -29, -4, -33, -55, 5, 50, 42,
   -8, -3, 27, 4, 32, 20, -18, -26,
   -21, -40, -49, 5, -34, -22, -53, 35,
   26, 29, 35, 35, 13, -38, 11, -7,
   39, -7, 5, -5, 25, -7, -33, -65,
   11, -24, 3, -21, 20, 18, -35, 19,
   44, 21, 8, 23, -24, -53, 44, 22,
   44, -3, 10, 7, -16, 18, 40, 7,
   -2, 19, -36, -44, 20, -69, 37, 20,
   14, 29, 6, 52, -16, 17, -6, 29,
   45, 5, 4, 21, 58, -18, -24, 28,
   19, 42, -67, 5, 6, -8, 33, -12,
   10, 1, -18, 8, 30, -7, 41, -10,
   6, -41, -27, 8, -48, 47, -31, -52,
   29, -46, 24, 12, -17, -8, -8, 33,
   -58, -55, -6, 36, -6, -19, -31, -47,
   -25, -51, -34, 23, -48, 43, -27, -1,
   -26, -17, 21, 23, 11, 22, 16, -37,
   -5, -28, 18, -5, -5, 40, 19, -41,
   6, -23, 16, -36, -4, 15, 9, 38,
   -39, -41, 43, -28, 16, 19, -25, -4,
   39, -41, 20, -11, -63, 14, -22, -30,
   -6, 13, 3, 43, -21, 21, 30, 42,
   -20, 15, 15, -24, 13, 28, -4, 19,
   34, 3, -18, 61, 32, 37, -16, 27,
   2, 31, 4, -25, 18, -30, 21, -27,
   -11, 41, 35, 3, -4, 9, -3, -4,
   -21, -13, -9, 4, -31, -41, -9, -15,
   24, 16, -20, 16, 34, -24, 1, -27,
   -20, 33, 8, -6, -30, 24, 35, 28,
   -45, -39, -15, -13, 17, 7, -5, -31,
   2, 42, 45, -9, 60, -15, -11, -42,
   -24, 16, -19, 26, 36, 9, -22, 36,
   19, 29, 26, -5, -31, 34, 44, -10,
   31, -5, 54, -51, 60, 15, 2, -32,
   14, 1, 34, 29, -21, -10, 11, -40,
   -12, 29, 29, -6, -27, 7, 11, -6,
   37, -35, -3, -8, 19, 15, -42, -49,
   -19, 14, -26, 19, 71, -93, -3, 36,
   17, 10, 32, 10, -14, -36, 22, 43,
   29, 35, 1, 9, -56, 15, 5, -10,
   28, -44, -1, 127, 31, 7, 5, 48,
   4, -4, 52, -8, -33, 40, -7, -12,
   37, 31, 19, 12, 5, -6, 23, 24,
   -2, -11, 40, -52, -10, -59, 8, -21,
   9, 43, -20, 31, -7, -28, 23, 22,
   -1, -2, 12, -33, -21, -13, -27, -7,
   -31, -41, -19, -17, -8, 12, -5, -30,
   -38, -29, 21, -32, 40, -46, -23, 16,
   -25, -53, -2, -56, 11, -22, -20, -28,
   -4, -45, 13, -1, 20, 5, -13, -52,
   1, -48, -15, 14, -2, 31, -36, 19,
   -13, -3, -11, -5, -9, -16, -10, -35,
   11, -64, -17, -49, 54, 7, 4, 14,
   -37, -36, -28, -24, -73, -4, -12, -62,
   7, -25, 44, 42, 60, 15, 27, -26,
   -20, 5, 31, -1, 12, -48, -46, 4,
   3, 32, 23, 21, 28, -36, -44, -22,
   -22, 14, 30, 34, -35, -28, 0, 9,
   1, -4, -26, 26, -6, -31, 23, 6,
   -31, -28, -33, -6, 34, 40, 0, -44,
   -22, 46, -24, -9, -57, 17, -25, 9,
   46, -18, 4, 31, 29, -13, 16, -17,
   34, -24, 15, 18, 35, -23, -19, -3,
   -33, -10, -27, 37, 27, -2, -3, -26,
   -16, 9, -12, -27, 19, -2, -11, 8,
   -41, 18, 22, 12, 27, -22, 0, 42,
   -31, -1, -75, 31, 20, 0, -85, -22,
   77, 14, 24, -31, -46, 43, 40, 4,
   -42, 23, -15, -11, -41, -29, -25, -44,
   13, -17, -31, -46, 1, 25, -28, 7,
   -57, -26, 27, -20, 127, -32, 11, 6,
   16, 6, -22, 37, -30, -59, -21, -20,
   12, -58, 8, -2, 47, 0, -33, 53,
   -39, 8, 79, 23, -23, 19, 21, -46,
   -19, 20, -23, 16, -7, -58, -36, -68,
   -6, 2, -44, 6, 3, 35, 68, 18,
   36, 3, -6, 26, -31, 9, -2, 17,
   0, 27, 28, 69, -25, 36, 35, -32,
   48, 13, -6, -4, -1, -24, -11, 20,
   39, -15, 36, 51, 13, 77, -13, 57,
   22, 3, -2, 19, -47, -67, 10, -8,
   3, 7, 47, -19, 28, 41, -8, -2,
   -8, 24, -34, -67, -41, 39, 44, 29,
   -70, -13, 0, 30, -16, 40, -48, -35,
   -24, -41, -7, -62, -4, -40, -8, 0,
   6, 13, -24, 16, 18, 23, 23, -43,
   -32, -27, -35, -43, 82, -12, 31, -63,
   2, 13, -1, 15, 24, 13, -7, -48,
   11, 13, 39, 34, 11, -28, -6, -16,
   20, 23, -20, -24, -36, -17, -53, -5,
   -19, 60, 41, 54, 24, 13, 63, -38,
   -6, 29, -38, 32, -6, 38, -7, 43,
   -13, 17, -3, 16, 95, -45, 14, -20,
   -18, -24, 89, 58, 6, 22, 2, 17,
   65, 22, 19, 64, 26, 0, -11, 29,
   -29, 4, 10, 41, 35, 50, 29, 34,
   -7, 25, 18, -20, -74, -5, -5, -35,
   38, 39, -19, -27, -19, 31, 34, -30,
   37, 8, 69, -32, 61, -8, -31, -23,
   9, 20, 84, 62, 12, -39, 16, 31,
   2, -7, 5, 66, -14, 23, -21, 49,
   -50, 25, 20, 33, 59, 8, 70, 36,
   15, 20, -20, -90, 25, -62, 14, -50,
   -56, 0, 51, 11, -21, -34, 11, -29,
   -20, -3, 29, 45, 34, 25, -48, -2,
   -2, 8, 127, -52, -39, -43, 1, -27,
   -15, -39, -13, 24, 10, 20, -12, -9,
   29, 2, -35, 18, -22, -40, -29, -22,
   -13, 12, 39, 35, -69, -6, 59, 42,
   -62, 42, 25, 38, -58, 26, -34, -5,
   14, 0, -33, 83, 39, -68, -112, -20,
   14, 4, 104, 27, -4, 1, -10, 36,
   76, -2, -120, 123, 31, 28, 57, 57,
   -10, 70, 60, 60, 60, 82, -19, 88,
   38, -10, 30, -19, -88, -44, -16, 46,
   -39, -12, -48, 46, 33, 29, -37, 33,
   55, -1, 9, -18, 30, 26, -20, -42,
   -31, 45, 42, 25, -18, 7, -4, 13,
   1, 28, -52, 35, 10, -13, 16, -16,
   -17, 37, 25, 14, -14, -17, -32, 40,
   -42, 47, -73, -18, -52, -36, 10, 18,
   -18, -17, -128, -70, -1, -12, 5, -82,
   -50, -39, -12, -25, 19, 25, -36, -50,
   48, 4, 11, -13, -11, 16, 30, -4,
   -65, 0, -52, 40, -68, -45, -7, -30,
   14, -46, 11, -15, 21, 17, -12, 10,
   33, 11, -26, 33, 45, 48, 15, -26,
   -14, -1, -73, 24, 45, -23, 43, 99,
   23, -16, 12, 63, 3, 23, -14, -10,
   -30, 13, 79, 20, -55, -30, 41, -29,
   9, -2, 67, 70, -19, 7, 38, -23,
   -29, 33, 41, -23, 9, 4, -36, -5,
   18, 35, -12, 1, -53, 35, 42, 25,
   -42, 45, -24, 30, 28, 46, 61, -2,
   3, 24, 14, 20, 3, -35, 18, 53,
   16, 49, 71, 40, 19, 4, 9, -28,
   38, -26, 26, 81, 15, -11, -22, -5,
   -27, 51, 26, 66, 33, 17, 32, -25,
   -22, -31, -10, -6, -41, 84, -55, -31,
   -28, -22, -86, -68, -38, 107, -37, 98,
   1, -66, -34, 16, -38, -26, 65, -6,
   9, -45, -115, 75, 64, 17, -25, 48,
   -6, 1, -25, 7, -44, -35, -17, 19,
   -29, -29, 60, -23, 15, 52, -50, -9,
   36, 10, -34, -51, 28, 80, -8, 50,
   75, -60, 106, 33, -64, 34, 80, -26,
   -19, -1, 30, -1, 5, 99, 68, 24,
   -40, -18, -48, -30, 5, 13, 16, 28,
   -43, 21, -110, -52, -73, 30, 27, -40,
   14, -72, -32, -46, -32, 46, -38, -68,
   11, 13, 1, 0, 52, 23, 0, -48,
   -34, -27, 88, -35, -25, -19, -1, 17,
   13, -94, -14, 48, 26, 47, -71, 18,
   -25, -38, -45, -57, -81, 16, -13, -15,
   -60, 44, 59, 51, 6, 9, -11, 26,
   -39, -29, -51, -11, -41, 9, -4, -56,
   -54, 31, -49, 31, -16, -13, -52, 2,
   46, -9, -111, -31, -11, 109, 14, 33,
   0, -42, -6, -1, -63, -17, -48, 32,
   54, 7, -128, 4, 47, 56, 2, 56,
   -17, -3, 20, -96, 15, -3, -5, -35,
   9, -20, 112, 10, 66, 34, 78, 29,
   -29, 4, -14, -13, -3, -21, -59, 97,
   113, 10, -11, -28, 46, 103, -30, -26,
   0, 53, 12, -128, -13, 37, 32, -17,
   -2, 27, 6, 127, 65, 40, -81, -21,
   16, 12, 11, -103, -34, -98, -10, -22,
   -64, -87, -43, -128, 7, -18, 14, -98,
   35, 28, -30, -2, 37, 35, 43, -30,
   51, -59, 86, -51, -31, 64, -94, -38,
   -40, 11, -35, 18, 32, -6, -33, 56,
   19, -43, -58, -39, -14, 43, 4, 33,
   18, -3, 52, -12, -56, 40, -45, -40,
   38, -35, 32, -11, 6, -40, -11, -53,
   -29, 19, -71, -40, -54, -67, -76, 35,
   26, 29, -28, -10, 26, 35, 20, -82,
   55, 6, -17, -47, 32, 0, 69, 14,
   -34, 4, -53, -14, -40, -73, 15, -18,
   31, -4, -25, 40, 28, -37, -25, 69,
   58, -10, 104, -49, -35, 18, 26, 60,
   11, 20, 16, 31, 63, 33, 0, 52,
   10, -6, -128, 27, 79, -10, 38, 100,
   -36, -51, 60, -93, 10, 17, 36, 1,
   -36, 15, 33, 58, 14, -66, -22, -1,
   -48, -2, 38, 27, -48, -3, 30, 41,
   -8, -54, -44, -46, -31, -92, -11, -47,
   18, 25, -1, 35, 75, 78, 34, -1,
   31, -8, -33, -49, -19, 10, -3, -46,
   -6, -6, 23, 27, -4, 6, -39, 4,
   -8, -27, 10, -23, 8, -29, 36, 13,
   27, -29, -21, 50, -17, -8, 8, -46,
   46, 31, 10, 44, 24, -34, 39, -29,
   34, -12, -9, -66, -19, 12, -86, 15,
   -39, -24, 121, -71, -3, 11, -69, 31,
   -73, 28, 24, -32, -22, 2, 37, 1,
   18, -24, 52, 17, -31, 14, 19, 28,
   10, 10, 3, 41, 61, -64, -2, -2,
   65, -1, -67, -28, 21, 9, -32, -51,
   13, -71, -13, -42, -55, 121, 7, 64,
   9, -29, 63, -8, -115, 24, -77, -60,
   -4, -11, -105, -51, -128, 36, -31, 24,
   52, -29, -85, 8, 114, 36, 12, -128,
   -48, 0, -87, -66, 31, -113, -44, -15,
   6, -30, -33, 95, -74, 48, -56, 61,
   -58, -43, -1, 39, -26, 66, -46, 50,
   -20, -21, -29, 79, -8, -58, 2, 8,
   28, -111, -79, -21, -102, 66, -118, -55,
   20, 12, -62, -2, 52, -31, -34, -7,
   -66, 56, -35, 19, 57, -87, 24, 20,
   -8, -44, -8, -27, -74, 113, -24, 1,
   -54, 51, 44, 47, 7, -117, -29, -1,
   7, 25, -61, -28, 27, 74, -9, -112,
   8, -6, 33, 22, 37, -46, -56, 7,
   -7, 21, 12, -9, -3, 91, 30, 22,
   19, -13, 7, 35, -57, -76, -12, 26,
   -51, -34, -45, -48, 18, -42, 26, -26,
   -25, 71, -29, 46, 34, 107, 58, -93,
   1, -23, -128, -11, 1, -45, 49, 98,
   22, 20, 8, 22, 4, 3, 6, 38,
   22, 47, 64, 11, -17, -1, -11, -85,
   26, 24, 70, 90, 39, 18, -36, -68,
   -2, 51, -14, 56, -21, -27, -21, 33,
   -13, 0, 22, -22, 5, 18, 45, 50,
   -3, 29, -15, 13, -23, 35, 83, 3,
   -11, -9, 95, -21, -14, 0, -25, 53,
   -12, 32, 20, 22, 53, -45, 8, 37,
   20, -54, 27, 48, 17, -1, 0, 15,
   13, 71, -8, 3, -34, 32, 79, 11,
   30, -13, 27, 3, 12, 27, 62, 0,
   27, -10, -71, 60, 8, 4, -6, 2,
   12, 25, 46, 12, -67, -16, -10, -1,
   18, -19, -41, -1, -47, 5, -22, 18,
   33, 12, -31, -9, -50, 93, -9, -14,
   -28, 3, -15, 39, 1, -27, -43, 10,
   -28, -36, 31, -63, 25, -53, -82, -53,
   8, 2, 67, -27, 10, -39, -30, -58,
   -38, 13, 38, 2, -28, 5, 51, 17,
   33, 8, -81, -30, 15, 47, 28, -30,
   -30, -5, -22, 28, 29, -1, 12, -46,
   18, -38, -20, -9, -44, -4, 5, -76,
   6, -7, -1, -51, 38, -29, 12, -27,
   -11, 26, 67, 16, -46, 2, -27, 0,
   47, 26, -34, 44, -35, -25, 3, -1,
   0, 0, -45, -18, -58, 48, -20, -19,
   34, -27, 0, -17, -28, 15, -48, 3,
   -1, -29, 17, -18, -31, 1, -45, -19,
   21, 26, 59, 80, 29, 36, 29, 41,
   54, -4, -16, -5, 20, 23, -33, 10,
   37, 2, 13, 28, -128, 15, 9, 9,
   -59, -16, -128, 31, -35, 76, -2, 39,
   32, 0, -23, -15, 8, 32, -21, -23,
   2, 22, 13, 43, -42, -15, 6, -29,
   -39, -23, 29, -78, 110, -27, -84, -17,
   72, -69, 127, -1, -80, -127, 37, -24,
   -45, 45, -25, -39, -104, 54, 67, 66,
   2, 16, -128, -72, 50, 12, -69, -49,
   -124, -19, 95, -78, -58, -3, -93, -50,
   25, -103, -27, -22, -41, -56, -7, -84,
   -29, -26, 16, 14, 86, -38, -42, -17,
   11, -48, 71, -20, -40, -43, 22, -24,
   10, 15, -82, -7, -77, 15, 59, -10,
   17, 16, -77, -78, -10, 18, -70, -48,
   14, 16, -15, -89, -28, -35, 29, 17,
   -18, -124, -38, -87, -26, 16, -47, -51,
   -16, -36, 19, -15, 20, -94, -38, -21,
   -6, 4, 127, -59, 1, -109, 17, -17,
   117, 59, 6, 14, 127, -12, 12, -25,
   -44, -30, 124, 28, -43, -82, 26, -13,
   9, -7, -60, 90, 34, -117, -19, -9,
   28, 48, -81, -21, 36, -65, -12, -2,
   -46, 14, -6, 84, -12, 29, 29, 1,
   -67, 81, -45, 31, 72, -3, 19, 33,
   12, -66, 3, 79, 90, -79, -128, -3,
   0, -26, 74, -8, -55, -97, 9, -30,
   36, 7, -29, 127, -3, 12, 36, 22,
   35, 79, 55, 42, 26, -9, 5, 89,
   29, -15, -4, 41, -17, 72, -2, 11,
   -25, 6, -87, 20, 81, 33, -13, -71,
   66, 55, 46, 42, 63, -39, -2, -3,
   17, -9, 100, 26, -31, -27, 49, 27,
   44, -50, -69, 43, -89, 53, -1, 9,
   45, 70, 72, 29, 34, 45, 6, 73,
   -1, 2, -89, -54, -16, -116, -9, -29,
   -59, 30, -29, 13, 9, 77, 21, -74,
   -70, 30, -25, 26, 91, -42, -15, 35,
   13, 30, -33, -21, -90, -21, -19, -2,
   58, 17, -75, -118, -68, 3, 19, -36,
   -22, -15, -70, -37, 9, 10, -35, -22,
   -35, 41, 47, 85, -19, 26, 74, 29,
   -110, -3, -42, 9, -78, -37, -32, 23,
   15, -10, 50, 35, 61, -33, -81, -17,
   -14, -34, 29, 40, -20, -51, 52, 91,
   71, 10, 7, -29, 9, -34, 40, -35,
   -8, 51, 38, 66, 49, 110, 25, 13,
   21, 24, 37, 79, -51, -16, -29, 37,
   -41, 16, -6, -8, 50, 27, 39, 26,
   2, -24, -27, -10, -24, 59, -3, -11,
   -13, 32, 79, 63, 51, 2, -19, -63,
   8, 92, -7, -18, 33, -30, 53, -26,
   -40, 19, -7, -5, 11, -72, 10, -26,
   -3, 35, 6, 12, 12, -48, -35, 10,
   26, 11, -14, -16, -35, -128, 23, -21,
   -12, -24, 10, 21, -96, 26, 55, -21,
   25, 30, -108, 2, 1, -39, 38, 30,
   -51, 36, -58, -51, 29, -34, 35, 17,
   -33, -20, -32, -41, 30, 21, 35, 7,
   6, -33, 12, -72, 62, -35, -53, 58,
   28, -44, 105, -10, -64, -104, 31, -128,
   -20, 20, 16, -26, -128, 39, 20, -12,
   -32, -1, -61, -70, -2, 28, 4, 3,
   -58, -10, 25, -65, -12, -27, -84, -40,
   5, -24, -43, -20, -71, -28, -13, -38,
   -11, -26, 33, 13, -27, -23, -8, 6,
   2, 37, 53, 20, 17, -90, 10, 9,
   6, 21, -56, -26, -47, -5, 83, 63,
   38, 46, -31, -21, -35, 31, -5, -45,
   14, 16, -30, -128, 31, -30, 26, 29,
   -19, -52, 8, -82, -10, 36, -82, -54,
   14, 18, 35, -15, 63, -16, -59, 2,
   -34, -13, -69, -128, -17, -43, 37, -65,
   55, -26, -14, 10, 16, -13, -14, -22,
   18, -14, -3, 21, 28, -10, -34, -42,
   -5, -7, 66, 46, 17, 55, -22, 47,
   43, 0, 85, -36, 27, -9, -24, -44,
   34, 14, -40, 127, -88, 40, 69, 46,
   8, 57, -68, 16, 37, -2, -12, 48,
   35, -42, 46, 10, 27, -3, 30, -8,
   -24, -17, 38, -38, 7, -23, 25, 2,
   7, -21, 51, 37, 31, -49, 37, 11,
   -50, 10, 12, 19, 76, 46, -2, 9,
   4, 38, -5, 29, -47, 26, -32, -5,
   -2, -10, -87, 19, 32, 45, -7, -43,
   -53, 46, 33, -41, -17, -13, -3, 19,
   18, -11, 82, -9, 65, -6, -4, -49,
   -6, -19, 3, 19, 37, -11, 37, -1,
   -25, 68, -28, -5, -3, -13, 55, -11,
   -24, -35, -12, -44, 0, -29, 40, -12,
   -4, -10, -108, -42, -23, 30, -33, -25,
   31, 34, 30, -45, -29, 9, -16, 5,
   0, 11, -108, 24, 18, -116, 78, 25,
   -16, 3, -32, 36, 68, -47, -31, 34,
   51, 3, 8, -18, 9, 37, -4, -1,
   -17, 19, 38, 120, -127, -37, 80, 43,
   -53, 76, -52, 6, 18, 43, 38, 64,
   14, -1, 97, 75, 6, -107, -38, -86,
   -23, -46, 53, 34, -21, -6, 18, -4,
   66, 3, 69, 27, 58, -34, 9, 68,
   -36, 50, 97, 115, 60, 48, -26, 57,
   11, -21, 108, 114, -39, 26, -4, 45,
   20, 48, -38, 64, 38, -14, 16, 36,
   46, 51, 47, 10, 41, 57, 50, 2,
   -12, -4, 64, 72, 6, -24, 36, -67,
   -16, 31, -8, 22, 100, -58, 63, -26,
   49, 63, -26, 24, 109, -32, 8, 71,
   -37, -16, 5, 54, -3, -4, -24, 22,
   -32, 3, 21, -17, 8, 18, 20, -58,
   53, 31, 22, -32, 52, 34, 18, 11,
   -3, -31, 8, 6, 23, 3, -41, -30,
   11, 16, 15, -22, -54, 40, -18, 4,
   -59, 23, 29, -13, 37, -4, 18, 4,
   -48, -40, -36, -33, -7, 17, -24, -56,
   4, -117, -61, -5, 28, 53, 0, -8,
   24, 25, 53, -62, -28, 28, -38, 17,
   10, -48, -66, -49, -6, 1, -51, -28,
   -21, 24, 11, -28, 25, 23, 4, -72,
   2, -81, -26, -7, -65, -33, 20, -40,
   9, -4, 13, 36, 20, 47, 45, -19,
   -33, -84, 67, 32, 48, -23, -35, -28,
   58, -12, -11, -52, -96, 20, 61, 9,
   66, -5, -94, -50, 14, 20, 24, 14,
   -36, -25, 36, 55, -56, -12, -47, -3,
   30, 4, -44, 26, -1, 52, 10, -34,
   -24, -29, 8, 9, 16, -75, -10, -21,
   -29, 29, -19, -16, 39, 62, -28, -38,
   -57, -2, -33, -3, 6, 38, -23, 37,
   -10, 51, 9, -36, -51, 39, 7, 30,
   4, 0, 41, -19, -56, -128, 3, 47,
   2, 22, 8, 17, 44, 19, 36, 15,
   -128, -51, -39, -102, -13, -35, -36, 16,
   56, -71, -13, -3, -8, -44, 13, 14,
   -9, 22, 11, -24, -40, -2, 10, 41,
   16, 11, -58, 35, -7, -12, -7, 51,
   23, 1, 27, -33, 87, -39, 41, -59,
   -31, -73, -66, -66, -62, -96, -19, -44,
   -57, -16, 27, -13, 100, 80, -72, 32,
   -4, -60, -14, -48, -2, -100, -8, 45,
   25, -34, -20, 5, -81, 21, 43, -34,
   1, -29, -95, 1, 12, 62, -78, -22,
   21, -41, -40, 42, -44, 7, -9, -43,
   47, 27, -86, -30, 23, 18, -43, -72,
   0, 4, -14, -28, -40, -60, 33, -9,
   25, 17, 15, 19, -19, -69, 51, 14,
   -4, -10, -16, -4, -23, -27, 18, 28,
   29, 11, -36, -32, 4, 62, 31, 28,
   -8, -19, 50, -6, 0, 49, 31, 31,
   35, -26, -81, -5, 0, -6, -13, 37,
   22, 25, -13, 54, 23, 68, 17, 11,
   15, 50, 35, 70, -7, -52, 12, 23,
   31, -35, -4, 28, -40, -8, 22, -15,
   -20, -51, 20, 53, 16, 1, -32, -6,
   -35, 2, -35, 6, 35, -98, -15, 40,
   -22, -2, -10, 26, 48, -9, 71, 37,
   14, 27, -41, 3, 63, 38, -10, 53,
   53, 40, -66, -50, 22, 39, -9, 24,
   -5, 17, -66, 1, 65, 15, -47, -18,
   4, 28, 39, 39, 81, -45, -29, -25,
   -32, -13, 16, 1, 2, -119, 58, -5,
   -2, -50, 7, 10, -9, -60, 45, 28,
   -16, -17, 11, 43, 56, 11, 9, 36,
   -37, 33, 19, 22, -37, -85, 0, -121,
   54, -55, -7, 42, -128, 18, -7, 6,
   24, -8, -90, -50, -33, 39, -66, -102,
   -50, -9, -4, -29, 51, -44, 25, 43,
   -47, -13, 9, -9, 53, -92, 44, -24,
   46, -32, -34, 25, -29, 35, 13, 25,
   -17, 8, 9, 45, -94, 30, 16, -65,
   5, 73, -108, 62, -60, 23, -31, 33,
   36, 65, -118, -52, 25, 25, -61, -49,
   -87, 10, 94, -40, -77, 85, -3, -7,
   45, -43, -37, 127, -21, 67, 65, -43,
   7, 29, 10, 23, -4, -112, -25, 38,
   14, 5, 41, 127, -17, 25, 20, -3,
   43, -1, -85, 22, 30, -28, -36, 21,
   -2, 14, -81, -32, -37, 23, -52, 64,
   -45, 54, 2, -59, 88, 61, 15, 10,
   57, -100, -13, 8, -31, -50, 6, -43,
   -43, -9, 6, -12, 29, 20, 69, 6,
   49, 15, 31, 15, -23, -15, 45, 36,
   -45, -36, 72, 7, -11, 10, -11, -22,
   -32, 13, 123, -12, 30, 18, 27, -51,
   49, 15, -1, 59, 93, 48, -32, 22,
   27, 1, -29, 25, -46, -12, -9, -24,
   -81, 44, -37, 39, 7, -42, -11, -2,
   53, 29, 49, -9, 40, 12, -3, 79,
   10, 28, 17, -23, 24, 12, 106, 78,
   -1, 39, -4, 70, -45, 17, -22, 36,
   12, 24, -6, 42, 12, 38, -15, 9,
   13, -56, -29, -35, -3, -76, -11, 11,
   59, -9, -25, -50, -10, -109, -28, -9,
   15, 4, -38, -106, 5, 59, 4, 3,
   -71, 18, 13, 23, 46, 21, -5, 27,
   -81, 38, -81, -19, 59, 98, -52, 28,
   12, 12, 49, -7, -14, -82, -35, -19,
   8, -31, -72, -50, 42, -13, -21, -12,
   -31, 13, 20, -1, 45, 17, 91, 21,
   9, -8, 11, -52, 54, -23, -54, 4,
   127, 34, 32, 37, 17, -30, -59, -6,
   18, -45, -41, 4, -24, -5, 14, -14,
   20, 33, 12, 51, -12, 67, 27, 13,
   -72, -61, -15, -42, -40, 57, -12, -30,
   22, -3, 37, 39, -34, -27, 51, 25,
   18, 66, -30, -1, -4, -32, -5, 43,
   16, -7, 10, 35, 43, -76, 6, -36,
   -11, -60, -28, 40, -27, 16, 26, -84,
   62, 9, 43, -33, -87, 33, 49, 31,
   -95, 16, 72, -24, 7, 24, 5, -10,
   2, 21, -38, -36, -59, -25, 86, -49,
   -20, 76, -57, 73, -41, 61, -25, -2,
   16, 12, -40, 22, 34, 47, -27, 48,
   28, 7, 45, 66, 38, -5, 26, 12,
   -27, -51, 37, -44, 55, 18, -45, 38,
   -14, 39, 104, 29, -8, 13, 18, 14,
   7, 12, 64, -18, 3, 9, -27, -4,
   29, 23, 20, 9, 28, 12, 23, 81,
   -50, -5, 30, -34, -2, 17, -12, 32,
   -42, 11, 56, -43, 47, 54, 45, 21,
   -44, 25, -4, -35, -34, 20, 10, -29,
   24, 19, -21, -3, 8, 18, -27, 6,
   36, -76, 15, -47, -7, -29, 3, -9,
   -10, -68, 11, -26, -16, 25, -13, 17,
   -27, 25, -7, -24, 31, 42, 4, 53,
   23, -19, -43, -45, 23, -23, 2, -19,
   -13, 23, 24, -34, -15, 83, 17, -30,
   1, -7, -59, -44, -5, 30, -18, -5,
   -7, -20, 42, -17, 14, 38, 14, -21,
   -38, 5, 39, -38, -49, 47, 4, -1,
   31, -34, -43, -24, -36, 38, -41, 8,
   -42, -38, 8, -28, -6, 95, 5, -72,
   16, 27, -14, 82, -65, 50, -4, 10,
   -76, -27, 38, 1, 3, -8, 71, -61,
   6, -35, 66, -35, 21, -24, -31, -3,
   4, 24, 18, -13, -10, -2, -28, -33,
   45, -16, 14, 32, -54, -30, -15, -30,
   7, 29, 40, -26, 9, -1, -45, -8,
   49, -31, -11, -62, -53, 118, -24, 31,
   15, -34, -42, -35, -40, 107, 7, -23,
   -6, -45, 2, 6, 0, -93, -28, -63,
   15, 45, 29, 12, -16, -16, -74, 41,
   39, 5, -30, -35, 32, -16, -23, -35,
   -21, 36, -84, -26, 0, -6, 32, 60,
   -42, 16, 36, -75, 38, -59, -35, 46,
   3, -19, -22, 40, -6, 13, 5, 20,
   19, -22, -6, 8, 46, 43, -69, -6,
   -65, -45, 66, 16, 18, 12, 12, 14,
   -53, -53, -40, 9, -10, -10, -11, -19,
   11, -31, -28, -63, 45, -9, -11, -22,
   17, 25, 69, 74, 28, -1, -1, -18,
   16, 35, 30, 20, -29, 4, 5, 37,
   6, 20, -62, 4, -19, -47, 18, -34,
   -1, 17, 24, -7, -34, -3, 14, -45,
   -59, -10, 4, -15, -14, -10, -34, -27,
   50, 6, 12, 56, -16, -77, 33, -15,
   -19, 32, -61, 44, 40, -20, -23, 12,
   8, 49, 7, 31, -29, -22, -6, -14,
   2, 26, 23, 19, 55, 48, 0, 63,
   10, -26, 24, 53, -3, 6, 44, -14,
   -5, -58, -8, 54, -26, -30, -25, -23,
   -7, 45, 34, 11, -8, 25, -17, -5,
   61, -33, -16, 25, -16, -6, -34, 36,
   4, 42, -29, 13, -2, 3, 37, 23,
   38, -13, 17, 27, -30, 7, 12, 11,
   18, 23, 14, 17, -14, -27, 9, 26,
   25, 17, -35, -24, 20, 20, -20, -57,
   -15, 28, 43, 28, -31, 26, -59, 11,
   39, 7, -14, -75, 35, 33, 30, 29,
   -27, -40, -35, 16, -13, 22, 49, 39,
   21, 22, -22, 36, 44, 32, -11, -14,
   -1, 40, 64, 17, 7, 10, -7, 2,
   -39, -2, -46, 8, -85, 39, -48, 43,
   84, 26, -21, 9, 3, -51, -17, 0,
   -67, -11, 26, 35, 37, -31, -30, -20,
   68, 47, 63, 54, -38, -28, 23, 28,
   -12, 13, -36, -51, 69, -56, 11, 79,
   40, 27, -6, -62, 66, -7, 22, -122,
   -2, 62, 11, 36, -7, 20, 22, -30,
   41, -23, -7, 57, 15, -20, 43, -74,
   -1, 29, 61, -78, 31, 44, -51, 40,
   -38, 49, 51, -48, 34, 20, -29, -43,
   60, -2, 54, 51, -20, -4, 49, -64,
   25, -25, 7, 41, 44, -44, -8, 29,
   71, -39, -42, 21, 44, 23, 21, 8,
   -53, 33, 31, 12, -31, -1, 25, 1,
   61, -27, -17, 16, -128, -42, 56, 19,
   -5, 8, 13, 28, -35, 16, -36, 36,
   -46, 28, 79, -9, 47, -14, -63, 31,
   -20, 4, -41, -21, -16, 26, -45, 6,
   -1, -31, -7, 13, -28, 3, -3, 8,
   24, -5, 53, 37, -60, -73, -3, 16,
   -25, 43, -50, 50, 12, 4, 12, 40,
   -89, 39, 3, 27, 28, 11, 1, -21,
   -52, 65, 38, -35, 84, 37, 21, 52,
   -44, -15, -37, -16, 5, 7, -2, -2,
   25, -57, -5, 36, 7, -2, -13, 5,
   -44, 8, 11, -75, -5, 18, 44, 50,
   29, -47, -6, -23, -30, 64, 10, -21,
   -2, 42, -60, -50, 19, 12, 50, 31,
   37, 31, -6, 13, 17, 20, 25, -5,
   -23, 22, 34, 57, 48, -70, 82, -12,
   42, 62, 25, 22, 59, -24, -34, -33,
   50, -21, 7, -8, -9, -10, -37, 77,
   -38, -36, 22, -4, -26, 93, -7, -63,
   -12, 23, 2, -45, 39, 17, -16, 57,
   -19, 34, -44, 13, -10, 29, 21, 17,
   -28, -2, -33, 28, -5, -11, -11, -83,
   -10, 20, 42, -38, -24, -2, -38, 1,
   11, -11, -76, 15, 2, -3, -15, -72,
   -28, 15, -29, 56, -4, -14, 2, 3,
   -40, 94, 16, 33, 8, -79, 47, -2,
   19, 7, 35, -4, 50, -4, 33, 119,
   5, -27, 35, -55, 25, -34, 39, -25,
   9, 38, -25, 33, 21, -11, 6, -16,
   -2, 16, 68, 5, 4, -26, 51, 23,
   14, -7, -65, 11, -15, 72, -29, 7,
   25, 41, 20, 30, 11, 45, -29, 4,
   -1, 14, -10, 34, 19, 7, -8, 49,
   71, -18, 33, 19, -20, -58, 27, 44,
   20, 38, -54, 30, -17, 9, 30, 37,
   -5, 8, -4, 35, -14, 12, -54, 41,
   -4, -7, -56, 6, 55, 47, 19, -16,
   -52, -21, -21, -2, 3, 20, -10, 6,
   -20, 23, 33, -10, 2, 56, -26, 35,
   12, 36, 78, -6, 16, -4, -14, 14,
   20, 36, -5, -3, 23, 38, 24, 33,
   -13, -21, -17, 40, 20, -11, 10, 25,
   50, 24, -24, -4, -9, 21, -20, -14,
   12, -11, 45, -9, 25, 30, -20, 8,
   -14, 19, 2, 14, -4, 25, -73, 9,
   7, -34, 30, 9, 36, -8, 9, 7,
   -49, 10, -30, -32, 41, 65, 64, 30,
   32, -26, -39, 22, 35, 3, -54, -24,
   -43, -6, -10, 3, 25, 29, 40, -28,
   33, -18, -14, -27, 33, -12, 8, 51,
   -22, 5, -44, -17, 21, -2, -41, -4,
   -20, -12, 45, -28, -63, -9, 28, 3,
   -47, -26, -37, -38, -8, -16, -18, 8,
   10, 12, -15, -28, -23, -2, 16, -5,
   29, -18, 50, -14, -20, 10, 22, -25,
   7, 7, -7, 5, -27, -15, -40, -21,
   18, -36, 22, 20, 1, 28, 9, 11,
   28, 47, 1, -37, -2, -60, -51, 45,
   52, -29, -23, 43, 26, 37, -10, 27,
   19, 1, 81, 18, 63, 29, -12, -22,
   -3, 44, -28, 12, -19, 4, -26, 40,
   52, 12, 32, 22, 40, 14, -15, -20,
   -21, -24, -47, 3, -38, -4, -61, -9,
   34, -14, 32, 9, -17, -4, 40, -7,
   -3, 1, -17, 7, 58, 20, 51, 3,
   14, 5, -33, 17, 37, 34, 0, -28,
   -67, 18, 7, 4, -7, -22, 52, -9,
   -42, -20, 2, 16, 21, -18, 26, 26,
   -11, -12, 35, -4, 54, 32, 17, -45,
   10, -13, 33, -28, -41, -45, 22, -5,
   -24, 11, -17, 20, 16, 28, 29, -49,
   -17, 5, -71, 14, -49, 27, 25, -13,
   2, 6, 16, 40, -4, 6, -9, 22,
   -2, 4, -13, -18, -1, -42, -5, -44,
   -17, -45, -2, -8, 22, -7, 36, 25,
   10, 7, 36, 12, 44, -27, -14, 10,
   82, 0, 25, 39, 42, -25, 12, 18,
   -5, -28, 72, -31, 1, -40, 48, -61,
   16, 32, 33, 17, 11, 29, 30, 9,
   -27, -10, 19, -11, -65, -28, 73, 4,
   -11, -64, -23, -44, -20, -19, -23, 16,
   43, -24, 1, -33, -26, -57, 18, 56,
   -32, 82, 68, 20, -24, 9, -12, 23,
   -22, -28, -42, -4, 24, -31, 10, -5,
   -12, -5, -15, -9, -39, -10, -32, -38,
   -48, -54, -6, -61, 11, 43, -4, -10,
   40, 0, 28, -57, 20, -2, -25, -30,
   19, -22, 9, 1, 63, -2, 9, 15,
   -24, 22, 14, -29, -28, -13, 74, -31,
   -33, -28, -24, 11, 55, 47, 10, 49,
   30, 12, -13, -43, 29, -14, -20, -46,
   -23, -75, -41, 19, -8, 12, -7, -17,
   8, -30, 2, 23, -10, 60, 28, 24,
   -5, -10, 40, -69, -8, -78, 39, -61,
   1, 5, 26, -36, 63, -25, -27, -34,
   2, 16, 73, 13, 14, -95, 46, -38,
   -28, -17, 31, -24, 80, 55, 2, 19,
   -40, -7, -45, -5, -59, 25, -13, 37,
   9, 19, 34, -3, -21, -12, -2, 2,
   13, -3, 28, 20, 31, -1, -6, -15,
   -4, 32, 0, 60, -64, 1, -82, 3,
   35, -6, 29, 40, 15, 42, -2, 0,
   33, -11, -32, 63, 83, -33, -16, 37,
   -4, 44, 51, 22, 4, 79, 5, 18,
   13, -19, 18, -52, -6, -50, 32, -1,
   -25, 29, -28, 12, 47, -7, 20, 43,
   -23, -17, -7, -3, 20, -27, 24, 2,
   -43, 7, 38, -13, -29, -24, -26, 7,
   22, -20, -8, -17, -19, 19, -23, 13,
   -21, 41, 12, -26, 25, -27, -15, 7,
   -20, 9, 20, 15, -43, 13, -6, -38,
   54, 12, 16, 27, -33, -11, 23, -49,
   39, 5, 16, -18, 29, 17, -59, 2,
   15, 9, -20, -23, -4, 10, 41, -7,
   38, 15, -9, 23, 67, 36, -2, -2,
   28, 4, -2, 5, -57, 26, 27, 32,
   20, -2, 23, 48, 1, 45, 28, 30,
   6, 18, 13, 35, 30, -57, -24, -37,
   -26, 24, 42, 18, 19, -42, 27, 5,
   33, 5, 23, -5, -55, 6, 81, -8,
   24, -6, -7, 77, 37, 22, -48, 17,
   33, 31, -17, -3, 23, 31, 1, -13,
   -27, -5, 37, 22, -14, 18, -14, 21,
   12, -30, -17, 35, 11, 51, 3, -10,
   37, 19, 47, 12, -4, 19, -6, 21,
   -38, 28, -6, -19, 45, 27, 29, 5,
   29, 29, 11, -21, -12, -19, -5, -35,
   -8, -12, -5, -24, -2, -24, 6, -35,
   -12, -69, -30, 10, 67, -35, 36, -24,
   43, 8, -9, 64, -15, 32, -3, -55,
   76, 23, 28, 30, -77, -11, -23, 21,
   -68, -40, -42, -6, 73, -20, -3, -17,
   -1, 10, 40, -4, 52, 56, 15, 5,
   67, 0, -44, 53, -19, 7, -9, -30,
   3, 18, 30, -8, 39, -70, -7, 2,
   21, 22, 30, 7, -15, -2, 1, -87,
   22, -6, -42, 61, 24, -23, 44, 31,
   28, -8, -40, -24, -41, 38, -34, -18,
   6, 23, -77, 67, 21, -19, -45, 33,
   28, 26, 30, -46, -28, 8, -15, -60,
   27, -19, -32, -20, -44, -15, -3, 30,
   14, 19, 28, 8, 28, 25, 25, -9,
   41, -20, 35, 41, 35, -16, 1, 36,
   0, 11, 30, 21, 3, 0, 9, -25,
   47, 28, 11, -78, -41, -35, 40, 8,
   -87, 3, 30, 35, -21, 14, -32, 0,
   -1, -16, -29, -25, 20, -5, 52, 28,
   -40, -19, -32, -19, -7, 2, 5, 7,
   -55, -20, -14, 24, -28, 21, -43, -8,
   0, 39, 27, -9, -8, 11, -38, 33,
   -8, 24, 40, -25, 6, 14, -23, 3,
   -25, 9, -11, 15, 26, -25, 28, 14,
   -22, 3, -35, -52, -16, 0, -53, -63,
   -2, -8, -44, 15, -22, 6, 2, -11,
   14, 41, -27, 19, 7, -10, -30, 12,
   11, -17, 19, -20, 33, -12, -53, 14,
   13, -17, 27, -13, -22, 24, 18, 18,
   29, 14, 1, -31, -31, 25, 10, -38,
   -24, -40, 1, 4, -11, 2, 16, -28,
   19, 15, 35, -10, -34, -48, 0, -36,
   62, 2, -34, -3, -47, -1, -12, -8,
   4, -11, 34, -39, 11, -40, 25, -10,
   29, 39, -18, 33, 31, -41, -27, -25,
   -19, -11, 7, 11, 32, 11, -6, 37,
   -10, 27, -33, -14, 3, 88, 30, 15,
   -35, -23, -10, 80, -90, -5, -1, 30,
   -30, 31, 18, -20, 4, -9, -19, -3,
   40, -40, 94, -16, 13, 16, 38, -18,
   -3, -23, 32, -28, -40, -63, -34, 43,
   25, -19, -3, 5, -41, -32, 44, -42,
   7, 18, 22, -19, -83, -54, -16, -12,
   25, 34, -16, -11, 47, 30, -43, 55,
   -23, 34, 37, -47, 11, 12, -52, -52,
   -16, 38, 31, -46, 39, -31, 2, 44,
   -4, -4, -24, -57, -14, -17, 37, 7,
   20, -45, 10, 13, 25, 15, 29, -55,
   -13, -2, -35, -20, 39, 7, -13, -16,
   -26, -15, -5, -11, -52, 38, 3, -15,
   -43, -42, 6, 5, -19, -9, -17, 19,
   -33, 11, -27, 17, 1, 19, -5, -16,
   19, -36, -35, 14, -38, -18, 13, 15,
   12, -1, -11, 25, 60, -19, -8, -20
};

static const rnn_weight noise_gru_recurrent_weights[6912] = {
   25, -25, 23, -51, -10, -40, 14, -60,
   13, 0, -101, 4, -2, 9, -18, -47,
   -8, 17, 54, 5, -10, -35, 42, 7,
   -10, 8, 42, 5, -14, -4, 38, 11,
   12, -3, -22, -11, 19, -3, -18, 20,
   43, 69, -56, 26, 6, 12, -16, -22,
   -2, 20, 10, 0, -19, -7, 12, 19,
   -1, -24, -12, -22, -6, 25, 12, 17,
   3, 55, 17, 35, 17, -9, 29, 12,
   20, 1, 39, 28, -17, -23, -18, -16,
   1, 14, 5, -10, 1, 23, 25, -13,
   3, 15, 28, -1, -32, 21, -23, 14,
   -2, -11, -9, -5, 12, 12, 1, -4,
   23, 18, 29, -17, 14, -18, 20, 17,
   -7, 42, 36, -4, 26, 17, 12, -6,
   6, 4, 13, 7, 2, 47, 13, 28,
   15, 30, 12, -3, 15, -5, 21, -8,
   -2, -37, -10, 20, -32, 50, 8, 40,
   3, -60, 14, -22, 42, 0, 20, -13,
   -19, 11, 4, 18, 34, 46, 38, -18,
   39, 5, -40, 79, 6, 57, 4, -17,
   7, 2, -38, 2, 36, 4, -31, -8,
   -3, 11, 15, -103, -38, 1, -38, -56,
   1, -50, 2, 5, 37, -8, -6, -1,
   8, 9, -27, 19, 44, -28, -3, -18,
   19, -3, 45, -10, 15, 24, -20, 49,
   31, 22, -2, -20, 3, -1, -5, 38,
   63, -35, -27, 4, 1, 4, -1, -32,
   16, 32, -21, -7, 14, 8, 7, -19,
   -17, -10, 13, 18, 12, 18, 16, -8,
   13, 28, 17, -4, 39, -11, -12, -19,
   -26, 5, 25, -10, 21, -26, 19, -7,
   30, 12, 51, -18, 19, 9, -20, 27,
   53, 24, 15, 30, 3, 17, 13, 40,
   7, -20, -10, -22, 42, -1, 33, 6,
   -13, 29, 25, 5, 68, -10, -2, -7,
   -13, 31, -29, 47, -15, 25, 22, 11,
   -25, -28, -28, -37, 6, -4, -28, 13,
   2, -57, -25, 9, 18, -16, -3, 47,
   -9, 33, 9, -23, -17, 64, -16, 34,
   10, -14, -21, 33, 48, 11, -2, -13,
   -4, -5, 16, -10, -4, 23, 16, 3,
   -54, 44, -15, -4, -26, 12, -25, 23,
   -2, -16, 11, 12, 6, 34, 20, -7,
   -17, 7, -4, -9, -26, -30, 29, -15,
   -19, -8, -28, -3, 26, -6, 55, 9,
   -5, -8, 107, 20, -9, -17, -2, -6,
   -11, 22, 15, 12, 9, 29, 17, 18,
   24, 21, 2, 40, 5, 25, -1, -1,
   24, 9, -19, -5, 5, -15, 12, 9,
   -42, -3, 41, 35, 9, -17, -38, 5,
   2, 3, 19, 30, -21, 12, 8, 20,
   -12, 27, 14, 43, -13, 18, 2, 65,
   -14, 11, 12, -10, 17, 15, 10, -22,
   2, -21, 34, 29, -31, -7, 48, -22,
   -6, -16, 23, -27, 12, 43, -29, 20,
   72, -50, 18, 89, 10, 79, 15, -33,
   -22, -6, 35, -76, -30, 80, 0, 8,
   -9, -6, -50, -3, -29, 7, 3, 3,
   38, -39, 73, -26, -31, -4, 17, -13,
   54, 11, -12, 62, 76, 27, -16, -7,
   -45, -26, -25, 21, -43, 71, 16, -9,
   20, 11, 0, -3, -10, -4, -3, -20,
   6, 27, 13, -54, 11, 31, 5, 9,
   6, 3, -32, 17, 23, -52, -42, 9,
   -14, -36, 1, -6, -54, -2, 9, -31,
   18, 50, -25, 46, 42, 16, -6, -22,
   31, -42, -30, 7, -10, -74, 23, 67,
   -17, 52, 6, -39, 34, -2, 29, -3,
   26, 1, 28, 13, 38, 12, 13, 22,
   -47, 1, 56, -2, 47, -18, 60, 30,
   32, -15, -12, 10, 12, -11, 74, -14,
   -11, 13, -5, 18, 22, 36, 20, -8,
   12, -30, 9, 37, -50, 20, -8, -7,
   -10, -14, 13, 30, -46, -6, -67, -7,
   3, -8, 13, 20, 1, -5, 33, -43,
   0, -33, -14, -10, 18, 8, 17, -12,
   -18, 33, -11, 27, 29, 20, 1, -2,
   22, -42, -9, 4, -4, 22, -4, 4,
   18, 20, 40, -2, 26, 2, 23, -4,
   11, 21, 1, -33, 17, -27, -2, -4,
   19, -4, 41, -26, -31, -8, 48, 15,
   -37, 31, 61, 5, 36, 18, -23, 0,
   -49, -10, 23, -1, -10, 35, -21, -13,
   24, -5, -17, -40, 26, -27, 53, -18,
   -26, -4, 43, 15, -8, -5, -43, -8,
   -67, 20, 10, 41, 1, 39, -14, -14,
   -14, 10, 2, -21, -5, -15, 37, 13,
   30, 20, 11, -9, -5, 42, 24, 4,
   67, -19, 21, -12, -40, 66, -3, -64,
   -98, 17, 52, -9, -29, -12, -1, -30,
   -3, -21, 49, 75, -44, -32, 60, 51,
   -57, -10, -33, 0, -15, -4, 0, 26,
   13, 38, 10, 3, 3, 26, -35, -25,
   9, -53, 26, 37, -17, 5, -61, -5,
   -29, -1, -89, -23, -32, -34, -27, 7,
   23, -8, 51, 26, -32, 13, -22, -7,
   6, -8, -33, -33, 30, 96, 9, -4,
   -1, 15, -14, 0, 10, 35, 44, 89,
   -17, -21, -38, 2, 67, -18, -25, 48,
   -29, 15, 46, -6, -32, -39, 21, 44,
   -13, -48, -45, -26, -38, -19, -14, -29,
   -6, 9, -8, 2, -7, -21, -30, -15,
   -3, 56, 25, 8, 56, -31, -17, 8,
   117, 45, 10, 20, 20, -22, -12, -3,
   27, 2, 39, 25, 14, 27, -6, 65,
   -15, 27, -3, 21, -1, 20, 0, 32,
   12, 6, 7, 24, -35, -11, 28, -11,
   -10, -16, 36, 10, -29, 25, -3, -17,
   -31, -11, 21, -11, -9, 15, -7, 15,
   96, 0, -20, 10, 46, 28, -7, 1,
   -46, 9, 21, 10, -8, -1, -33, -7,
   14, -6, 16, 43, 55, 18, 2, -6,
   -6, -16, 43, -5, 17, 52, 2, 12,
   -15, -8, -3, -8, 23, 32, 24, -1,
   2, 20, 9, 65, 16, 39, 9, 17,
   -2, 4, 49, -12, -1, -31, -15, -4,
   34, -11, -8, 14, -6, -4, 0, 25,
   45, 13, 18, -8, -10, 13, -25, 52,
   3, -66, 27, 26, -35, -5, -22, 23,
   45, 6, -21, 12, -35, -28, -15, 32,
   -32, 24, -16, -11, 5, 2, 48, 56,
   -6, 11, 12, -14, 24, 22, 1, 31,
   -11, 18, -3, 48, 5, -52, -4, 68,
   2, 5, -24, -16, 9, 21, 9, -9,
   22, 26, -1, 24, 30, -9, -21, 7,
   -14, 40, 12, -21, 3, -60, 44, -26,
   -24, -35, -45, -5, -4, 48, 31, -16,
   2, -13, 4, -40, -61, 25, 3, 15,
   -31, 9, -11, 14, -1, 46, 14, 19,
   29, 11, 11, -5, 9, -75, -20, -4,
   38, -18, -44, 35, -32, 18, -29, 6,
   -9, -10, 1, 37, 59, -11, 4, 14,
   -2, -13, -17, 5, -56, 0, 1, -58,
   11, 15, 25, -21, -48, 3, 23, 20,
   31, -8, -19, 1, 23, 65, -17, -5,
   -23, 3, -56, 37, 18, -44, -27, -6,
   -5, -15, 44, -16, -12, -58, 5, -42,
   -9, -26, 13, -18, 3, -3, 35, 15,
   47, 3, 13, 17, 5, 38, 7, 17,
   -18, -35, 6, 13, -31, 7, -22, 32,
   -19, -2, -52, 0, -3, 21, 13, -11,
   9, 3, 17, -13, -17, 10, 9, -6,
   -2, -26, -7, 18, -8, 4, -47, -22,
   2, 27, 40, 39, 6, 63, 54, 4,
   54, -31, -7, 25, 7, 8, -1, 9,
   12, -20, 2, -2, -72, -28, -3, 0,
   -27, -28, -23, 1, 22, 20, 31, 23,
   -4, -30, -14, 29, -30, 47, -13, -13,
   59, -15, 4, 53, -13, 41, -28, -30,
   23, 50, -17, -11, 21, -22, 18, -11,
   -4, 20, 26, 41, -8, -27, 15, 9,
   -33, 31, 15, -8, 12, -7, 18, 30,
   -41, -20, -37, 11, 3, 12, -18, 2,
   20, 24, 17, 11, 25, -19, 30, -11,
   -2, 22, -5, -18, 25, 20, -28, -24,
   32, 23, -32, 1, 54, -39, -19, 12,
   35, -9, 46, 1, -20, 13, -6, 16,
   -19, -1, -33, 4, 29, 33, -6, 5,
   -14, 6, -1, -19, -26, -2, 11, 22,
   -24, 1, -3, 8, 30, -42, -33, 4,
   2, -14, 9, -3, -26, 9, -69, -17,
   7, 52, -18, 52, -24, -13, -4, 3,
   14, 40, -7, -38, 49, -24, 21, 0,
   8, -16, 68, 7, -9, 2, -28, -41,
   37, 13, -23, -44, -27, 16, 45, 24,
   9, 15, -4, 16, 17, 26, -4, 20,
   9, -24, -19, -5, 2, -22, -6, -8,
   14, -12, 3, 27, -17, 34, 22, 15,
   -16, -16, 7, 7, -24, -15, 20, 56,
   4, 21, 1, -9, 19, -21, -10, -2,
   16, 20, -22, -17, -18, 7, -26, -27,
   -52, 38, 42, 4, 28, 34, 16, -19,
   14, 14, 8, -16, 3, 21, -10, 21,
   24, -17, -16, 3, -8, -7, 38, -10,
   -17, -12, -10, -44, -14, -11, -14, 30,
   17, 14, -31, -10, -4, -13, -66, 43,
   4, -3, 41, 33, -2, 77, 5, -1,
   22, 28, 32, -57, 4, 8, -7, -11,
   -10, 63, 5, -7, 22, 13, -19, 5,
   53, -8, 4, -27, -14, -9, -15, 26,
   7, -23, 76, 39, -40, -52, 28, 4,
   -56, 2, -41, 55, -45, -12, -26, 23,
   35, -26, -8, 32, 11, 14, -32, -23,
   -12, -41, 36, -4, 29, 14, 11, -1,
   11, 0, -26, 2, -9, -42, 29, 10,
   -83, -24, 70, -18, -11, -34, -35, 33,
   12, -5, 22, -7, -13, 15, -13, -21,
   39, -45, 57, -16, 9, -8, 44, 5,
   -81, -9, -27, -14, -23, -21, 7, -4,
   -31, 5, 22, 34, 23, -23, -35, -33,
   3, -34, -30, -22, 41, 40, -7, -80,
   -2, -45, -7, 5, 19, -13, -27, -38,
   -11, 0, 17, 8, -9, 13, 22, 74,
   -44, -37, -46, -44, -27, -15, -5, 24,
   -2, 17, -12, -13, -41, 4, -36, 7,
   13, -7, 5, -23, 41, -55, -69, 41,
   -27, -25, -23, -6, -90, 13, -26, -71,
   8, -27, -50, 13, -47, -7, -26, 18,
   42, -21, 6, 15, -25, 16, -40, 60,
   27, -3, 22, -31, -76, 5, 23, 44,
   63, -21, -55, -11, 21, 29, 2, 31,
   -10, 8, 13, 13, 18, -40, -8, 29,
   27, -10, -19, 27, 20, -20, -2, -12,
   30, -50, -2, -15, 24, 82, -3, -23,
   28, 10, -3, 16, -30, 65, -3, -4,
   4, -5, -3, 5, 27, -23, -32, -23,
   56, -37, 11, -29, -16, 34, 105, -25,
   2, 20, -18, 28, -28, -13, -21, 31,
   28, 40, 0, 81, 5, 43, -31, -16,
   -13, 26, 1, 5, 2, 47, -15, -22,
   -49, 43, -27, 30, -33, 18, 7, -11,
   13, -8, 18, 21, -19, -6, -9, 26,
   -37, 40, 40, -9, 13, 55, -1, -22,
   8, 61, -24, 67, 29, 2, 37, 12,
   18, 23, -4, -45, -28, -45, -8, -34,
   -6, -26, -2, 18, -65, 6, -33, 10,
   23, -24, -9, 6, -35, 13, 15, 20,
   44, 5, 26, 2, -6, 17, 4, 6,
   22, -8, 13, -20, -27, 7, -5, -21,
   -22, -45, -29, 34, 42, 16, -44, 14,
   24, 14, -20, 5, -28, 32, 40, -7,
   -38, -22, -11, 56, 1, 75, 13, 10,
   -10, 10, -27, -4, -6, -20, 14, -46,
   10, -37, -3, 52, 16, -17, -26, 7,
   14, 23, 23, -5, 21, 2, 24, -9,
   38, 9, -45, 15, 5, 5, -30, -50,
   -27, 13, -11, 8, -25, -35, 48, -1,
   18, -27, 25, 27, 40, -28, -6, 13,
   0, -8, -61, 4, 36, 17, 13, -19,
   -6, -2, 56, -39, 30, 21, -15, -5,
   -3, 29, 48, 3, -47, 58, 15, 17,
   28, -32, 8, 8, -13, 39, 2, 38,
   22, 25, 30, 33, -11, 31, -27, 11,
   -12, -43, -15, -45, -28, -18, -77, 13,
   21, 1, 38, -24, 35, 21, 81, 14,
   -4, 3, -11, -31, -17, 12, -5, 30,
   23, 18, -20, 6, 30, -13, 96, 5,
   -22, -50, 46, -22, 19, 8, -3, -30,
   64, -35, 1, 35, 8, -38, -22, 34,
   -11, 16, -18, 61, 53, -18, 26, 39,
   -3, -7, -25, 44, -11, 48, 18, 8,
   42, -8, -10, -12, 0, 12, 15, -7,
   4, 7, 28, 3, -45, 36, -33, 12,
   13, 28, 8, -14, 12, 20, 28, 33,
   35, 14, 30, 19, 19, 24, -25, 17,
   42, -24, -25, -23, 23, -2, 21, -58,
   65, 88, -7, 6, 2, 52, -2, -16,
   -14, -5, 4, -6, -8, 31, 8, -76,
   9, -2, 49, 64, -25, -14, -26, -13,
   26, 47, 20, 30, 1, -28, 3, -54,
   31, 11, -18, 20, 8, 38, -39, -13,
   -13, -24, 25, 45, -14, 24, 1, -12,
   13, -28, 64, -35, -6, 53, -28, 23,
   -46, 24, 12, -1, -3, -6, 12, -14,
   51, 34, 6, -31, 25, -11, -52, 30,
   2, -18, 56, -21, -5, 40, -8, -21,
   14, 0, -15, -8, 15, -11, -49, 11,
   -38, 11, 15, -2, 19, -18, -30, -32,
   18, 8, 2, -1, 0, 26, 11, -8,
   3, -23, -25, 4, -29, 23, 17, -32,
   19, 9, -17, 5, -7, 30, -41, -1,
   -41, 44, 45, 20, -7, 43, -36, 43,
   17, -31, 64, -7, -12, -7, 30, -51,
   -6, 37, 40, -20, 67, 8, -42, -19,
   -13, -80, 19, 25, -34, -31, 20, 12,
   -64, -32, -11, -27, 21, 6, 10, 34,
   -33, 44, -4, -25, 60, 9, 34, 80,
   -28, -30, 11, 7, -3, 7, -20, 26,
   23, -53, 4, 29, -27, 35, 3, 30,
   36, 25, 29, 45, -13, 22, -2, -11,
   6, -31, 43, -7, -41, 22, 27, 42,
   13, -54, -44, 48, -16, 21, -17, -9,
   34, 1, -23, -3, -61, -29, -45, -14,
   30, -6, -19, 11, -71, 41, -48, -16,
   -32, -45, -35, -20, -8, 26, -50, 1,
   18, 11, -45, -8, 97, 8, -42, 36,
   19, -36, 2, 23, -24, 16, 40, 2,
   37, -10, 20, 11, -7, 54, 37, 50,
   44, -1, -20, -5, 1, 20, -23, 30,
   -29, 65, 11, 8, -67, 16, 4, -4,
   86, -75, -16, 16, -33, 14, -7, -33,
   9, -36, -1, 25, 5, 45, 20, -10,
   -32, -10, -5, 17, -32, 75, 14, -10,
   -37, 15, -4, -41, -6, 32, 4, 24,
   -14, 0, 22, -3, 10, 19, -41, 50,
   -44, -46, 17, 26, 22, -31, -23, 6,
   -16, 11, 11, -40, 54, -24, 12, 3,
   32, -23, 4, -18, 2, 18, 46, -20,
   -19, 21, -48, 7, 3, 17, 12, -12,
   -16, 66, 15, 7, 21, -20, 13, 9,
   18, -27, 35, -40, -6, 15, -7, -3,
   -21, -6, -25, 15, -38, -38, 9, -36,
   -11, 5, -14, 1, -26, 36, -8, 5,
   -43, -4, -12, -2, -46, -44, -25, -21,
   -64, -11, -18, 17, -13, -13, -27, -1,
   16, 42, -22, -14, 61, 7, 40, 3,
   -12, 24, 21, 28, 11, 24, 27, -7,
   -12, 11, -7, 9, -17, -31, 1, 2,
   52, -42, 10, -72, 19, -30, 37, 35,
   29, 51, 13, -52, -11, -71, 20, -1,
   15, -42, 5, -4, 0, 5, -34, 52,
   25, 24, 17, 0, 21, 15, 3, 6,
   -27, -5, -6, 13, -23, 21, 5, -34,
   -16, 52, 3, 6, 10, -1, 18, -4,
   -23, 47, 19, -31, 2, -18, 17, 15,
   -5, -20, 59, 65, -40, -10, 4, -24,
   -18, -55, -20, 87, 47, 35, 22, 20,
   55, 4, -28, -6, -20, -22, 31, -45,
   -9, 17, -15, -22, 10, 29, -35, -42,
   -15, 12, 4, -27, -30, 41, -42, 31,
   46, -55, 8, -71, 21, 1, 26, 15,
   -29, -16, -25, 7, 2, -17, -18, -13,
   4, 22, 1, 12, 47, -12, 30, 31,
   69, 6, 11, 1, 31, -10, 2, -13,
   30, 22, 31, -20, 4, 9, -28, -17,
   29, 36, 58, 18, -5, -24, 32, -13,
   28, 26, -6, -17, 62, 16, -18, 32,
   1, 4, 9, -1, -1, 15, 1, -4,
   18, -21, 20, -124, -34, -44, 13, 12,
   -13, 14, -29, 29, 13, 22, 37, 6,
   12, -52, -11, 19, 53, 17, 14, 30,
   -5, 30, 1, 39, -27, 0, 21, 0,
   5, -1, -29, -4, -30, -15, -5, -8,
   1, 13, 4, 23, -23, 22, 0, -15,
   -1, -25, 11, -1, 33, 62, 6, 10,
   -27, -18, -4, 28, 57, 12, -12, 28,
   -49, -38, 3, 20, 50, -27, 38, -22,
   -3, -8, -17, 46, 15, -21, -16, -4,
   16, -28, -57, 4, 21, -9, 20, 3,
   10, 11, 26, 39, -10, 31, -28, -3,
   35, 7, 13, -23, -14, 39, -51, -23,
   9, -7, 12, 3, 34, -9, -8, 27,
   7, 27, -18, -7, 13, 26, -7, 17,
   9, 45, -2, 14, 6, 1, 11, 7,
   7, 14, 27, 31, -18, 23, -8, 59,
   17, -8, 29, 19, 66, -44, 11, -11,
   35, 8, 23, -43, 4, 0, -4, 24,
   -7, -12, 6, -16, -2, -19, 46, 41,
   26, -18, 10, 8, 7, -5, 44, 50,
   4, -15, 20, 50, 41, 0, -1, -3,
   -50, 28, 2, -15, -22, -35, -15, 2,
   28, 52, 41, 2, -51, -26, -11, -34,
   -14, 50, -69, -9, 45, 9, 11, 31,
   9, 16, -1, -8, 24, 8, 18, -50,
   -14, -1, 19, -69, 52, -10, -37, 28,
   14, 3, 14, -17, -5, -5, -26, 2,
   -22, 42, 55, 14, -71, -27, 10, -42,
   -4, 23, -5, 32, 34, 20, -27, 6,
   5, -9, 29, -27, -20, 9, 2, 3,
   7, -17, 7, -32, 39, -31, 1, 33,
   -6, -7, 18, 22, 20, 6, -3, 12,
   10, -11, 23, 37, 26, -1, 0, 17,
   3, -12, -6, 5, -1, 4, 8, 7,
   17, 12, 5, -31, 5, -22, -25, 4,
   -12, 17, -20, -3, -22, -1, -23, 9,
   37, -7, 10, 52, 48, 19, -4, -6,
   -2, 35, 58, -7, 24, 23, 19, -29,
   -5, 26, -34, 16, 18, 14, 28, -2,
   10, -47, -18, -13, -13, 13, -9, -4,
   27, 44, 27, -6, 2, 5, 5, -5,
   11, -14, -15, -20, 33, 45, 6, 32,
   38, -7, -34, 30, -22, 27, -3, -10,
   2, -68, 32, 42, 29, 47, -28, -30,
   -24, -6, 0, -69, -33, 11, 18, 40,
   18, -47, 2, 0, -18, 11, -24, -68,
   -19, -28, -32, 7, -78, 34, -4, -4,
   1, -14, -13, -18, 9, 18, 10, 24,
   -19, 30, 0, 54, -1, -21, 47, -15,
   27, 19, 13, -43, -31, -1, 12, -16,
   30, -12, 16, -19, 8, 29, 31, 4,
   21, -13, 10, 16, -1, -5, 1, 34,
   -23, 34, -19, 0, -44, -12, -19, -51,
   3, 29, 34, -25, -33, -38, -20, -1,
   5, 14, 30, -4, -5, -43, 26, 18,
   -15, -7, 30, 14, -8, 5, 2, 1,
   -30, 43, 16, 32, 5, -2, -17, 38,
   -10, 13, 4, 26, 32, -13, -22, 50,
   37, 30, 48, -77, -73, -37, -28, 10,
   -24, -44, -78, -18, 8, 20, 52, -2,
   14, 12, -30, -19, 40, -45, -11, -44,
   37, -20, -41, -36, -30, -7, 0, 20,
   13, -7, -2, 5, 39, 13, 1, -10,
   -3, 20, 9, -25, -21, 13, 12, -45,
   38, 36, -6, -3, 11, -2, 63, -21,
   -28, -25, 14, -1, 5, 38, -6, -17,
   -9, 13, -12, -9, 8, 26, -13, 20,
   -9, -26, 4, -43, -15, 46, -24, 11,
   -32, -13, 31, -32, -32, 0, -29, 27,
   5, 34, -18, -32, -15, 54, 20, 4,
   14, -36, 12, -66, 42, -19, 5, -32,
   -2, -25, 35, -9, -55, -40, 2, -23,
   -6, 1, 10, -8, -19, -3, -5, -7,
   22, -20, -10, 8, -6, -31, -10, -11,
   1, 7, 1, 9, 13, -13, 14, -9,
   112, -15, 1, -8, -33, 50, 4, -4,
   11, 56, 31, 7, 8, 16, 19, -9,
   -14, 5, 11, -1, 12, 7, -14, -13,
   44, 20, -10, -7, 18, -23, 6, 9,
   21, -17, 22, 4, 30, 21, -17, -40,
   -8, 2, -15, 52, -35, 42, 0, -10,
   -4, 57, 44, -27, 2, 18, -16, 21,
   32, -17, 11, 10, 21, 13, -38, 37,
   18, 10, 59, 45, 25, 66, 20, 23,
   29, -12, -12, -2, -22, -18, 38, 24,
   -6, 27, -26, -61, 14, 13, 2, 21,
   17, -15, 11, 2, 36, 27, -1, 2,
   -37, 13, 28, -2, -11, 11, -24, -11,
   -12, 47, 5, -33, 33, -8, -19, -34,
   28, -27, 60, 2, -6, 17, -5, -1,
   -28, 12, -59, 59, 23, -19, -6, -25,
   -16, -11, -33, -59, -34, 70, -25, 30,
   28, -19, 38, -30, 22, 19, 23, 8,
   -40, -26, -34, -17, -18, -19, -32, -2,
   24, 21, 35, 5, -17, -26, 12, -12,
   4, 13, 77, 13, -31, 9, -38, 5,
   16, -3, -6, 8, 13, 28, 7, -36,
   44, -5, 2, -46, -29, -6, -14, 13,
   -24, -12, -32, 22, -31, -11, 34, 3,
   11, 5, -13, -36, -27, 15, 12, 56,
   33, -21, 3, 0, 7, -42, -46, 0,
   8, 48, -15, 20, 17, 17, 6, 25,
   -8, -9, 50, -2, -1, 20, 2, 0,
   0, 15, 3, 24, 16, 16, -24, 33,
   -8, -2, 13, 33, 17, 5, 16, -40,
   -49, -1, -21, -9, -17, 46, 0, -27,
   23, -16, -3, -2, 40, -1, 8, 12,
   -25, 36, 39, 20, -28, 1, 19, -8,
   -32, 23, 13, -1, -53, -15, 37, -10,
   36, 6, -8, -21, 0, -13, 19, 8,
   0, -3, -15, -12, -15, 41, -6, 62,
   -7, 5, 3, 29, -13, 41, -48, -24,
   32, 25, -5, -9, 29, 56, 68, 8,
   85, 13, 30, 29, 71, 49, -20, -28,
   24, 11, -28, -3, -66, -1, 22, 25,
   36, -12, -128, -35, -27, -4, -3, -7,
   -19, 17, -8, 6, 8, -42, 8, 12,
   -8, -25, -12, -5, -12, -19, -5, 3,
   17, 34, -16, 39, 2, 6, 28, -28,
   -2, 7, 38, -8, -30, -71, -13, 43,
   -34, 32, 8, -7, 6, 18, -56, 20,
   5, -16, 28, -15, 12, 16, 31, -11,
   11, -3, 36, 2, -25, 1, 7, -16,
   -23, -26, 6, 6, 33, 43, -5, 40,
   -9, 1, 0, -13, -67, -25, 10, -22,
   28, 4, 1, -7, 17, -31, 41, 127,
   7, 4, -33, 9, -11, 33, -53, -51,
   16, -1, -6, 5, 16, -25, 23, -39,
   -16, 9, 21, -27, 38, -3, -23, 36,
   12, 2, -40, -64, 5, -15, -6, 52,
   -21, 26, 1, 0, -56, 1, -5, -26,
   8, -8, -8, 15, 16, -10, -3, 14,
   -9, -33, -23, -13, -38, 6, 16, 48,
   37, 11, 24, -11, -15, 0, 1, -8,
   8, 3, -39, 6, 12, -33, -9, -17,
   -9, -23, -12, -17, 1, 1, -13, 10,
   6, -5, 14, -1, -27, -58, 26, 1,
   26, 11, -29, 7, -24, 2, 0, -4,
   61, 46, 39, -18, -8, -25, -17, -44,
   16, 20, -12, -10, 17, 45, 22, 6,
   2, -22, 11, -59, 14, 66, 3, -8,
   -37, -5, -27, -49, 4, 43, 12, -36,
   -4, 17, -11, -51, 17, -70, -14, 7,
   44, 8, 51, -28, 11, -3, -25, -13,
   -24, 35, 3, -3, 42, 14, 0, 34,
   30, 22, -2, -3, 10, 9, 40, -53,
   4, -1, 25, -27, 9, -1, 28, -4,
   62, -16, 25, -35, -13, 35, -1, -15,
   9, 11, 32, -6, 43, -7, 62, -39,
   49, -56, -66, -54, 12, 40, 43, -38,
   77, -17, -5, 21, 1, -18, 8, -16,
