/*This file is automatically generated from a Keras model*/

#ifdef HAVE_CONFIG_H
#include "config.h"
#endif

#include "rnn.h"
#include "rnn_data.h"

static const rnn_weight input_dense_weights[1008] = {
   3, 0, 0, -1, 2, -3, 2, 0,
   -1, -1, -8, 4, -1, 2, 8, 3,
   0, 1, 0, -1, 1, 3, -4, -2,
   -43, -13, -10, -12, 25, -53, 30, 6,
   8, 4, 25, 14, -11, 14, -62, -66,
   5, -18, 15, -3, -38, 11, 6, 9,
   -91, 42, 1, 15, 40, -47, 56, 50,
   17, -18, -37, -1, 22, 26, 108, -112,
   -5, -5, -30, 3, -47, 33, 5, -35,
   -11, 24, 16, 63, 32, 17, 45, 16,
   -2, -33, -21, -46, 25, 56, -125, 9,
   -20, -4, 29, -8, 36, -39, 17, -50,
   95, 70, -46, 83, 32, 8, -9, -65,
   -55, 2, -36, -10, -11, 45, -38, 24,
   21, 8, 44, 31, 101, -31, 12, -3,
   63, -19, -3, 44, -33, -7, 21, -94,
   -32, 78, 17, -18, 19, 11, -51, 10,
   51, -4, -87, 47, 45, -45, 2, 59,
   -55, 4, 114, 2, -100, 62, -16, 114,
   -77, 72, -100, -43, 78, -15, -90, 93,
   -58, 34, 127, 43, -36, -13, -72, 65,
   -115, 84, -126, 55, -127, -84, -38, 68,
   -126, 8, 64, 63, 29, -68, 49, 121,
   -115, -20, -99, 52, -55, 126, -22, 68,
   51, 120, 28, 124, -94, -10, -48, -38,
   -127, 109, 55, 55, 127, -93, -26, 127,
   -104, 127, -101, 112, 13, 54, 86, 65,
   99, 33, -100, -26, 47, 119, 70, -4,
   -80, 127, 126, 45, 24, 74, 16, 125,
   -104, -66, 48, -3, 34, 123, 20, 19,
   127, -96, -127, -126, -127, 116, -37, -128,
   -127, -117, 126, -95, -19, 45, -5, 127,
   -14, -122, -126, -110, 115, -98, 21, 74,
   -110, -128, -38, -128, -127, -19, 54, -127,
   -128, -119, 127, -36, -113, 114, 29, 105,
   57, -128, 116, -35, -25, 40, 63, 126,
   -50, -77, -127, -128, 124, 127, -117, 67,
   30, -112, 127, -36, -128, 18, 127, 99,
   -29, 6, -127, 8, -126, 126, -28, 114,
   -122, -17, -127, 6, -32, 127, -128, 82,
   127, -123, -78, -68, 55, 14, -67, -41,
   -24, 82, -62, 69, -36, -125, -79, 111,
   78, 24, -12, 48, -21, -111, -60, 61,
   127, -67, -89, 61, 127, -43, 53, -127,
   120, 105, 41, 127, -110, 66, 49, 41,
   -12, -39, 73, -127, 104, 79, 61, -71,
   103, -102, 127, -31, -46, 32, -128, -15,
   94, -84, 102, -15, -73, -127, 64, -11,
   86, -128, -17, -109, 94, 127, 52, -127,
   127, -119, 49, -127, -102, 126, -95, 113,
   127, 40, 117, -128, 57, -128, -126, -115,
   -77, 105, -29, 127, -38, -71, -102, 47,
   93, 93, -126, 127, 127, -128, 113, -128,
   -24, 73, -115, 116, 33, 127, -126, 56,
   -7, 127, -6, 127, 125, 127, 104, 127,
   73, 91, -128, 127, 127, 77, 91, -9,
   -32, 125, -69, 127, -117, 26, 23, -126,
   127, -93, -120, 99, 57, -121, 120, 95,
   127, -87, -126, -126, 125, 126, -99, 125,
   113, 31, 122, -46, 25, -126, -40, -125,
   126, -47, -123, -37, -127, -128, 126, 62,
   -112, -12, 55, 45, 89, -40, 126, 4,
   -16, -126, -111, 78, 122, 101, 87, 62,
   -125, 55, -29, -1, 127, -6, -58, 16,
   4, 112, -5, 127, 126, -123, -9, -127,
   18, 18, 37, 125, -21, 127, -92, 58,
   -21, -125, -127, -76, -105, -87, -128, 114,
   94, -98, -69, -127, 75, -7, 124, 114,
   127, 38, 114, 119, -10, -55, -124, -126,
   -65, -79, -112, -36, -54, -30, -56, 1,
   126, -127, 2, -36, -37, -22, -66, -111,
   119, -3, 110, 71, -101, -113, -127, -82,
   125, 117, 81, -1, 103, -89, 127, -1,
   109, -78, -126, 71, 104, 99, 65, -113,
   -49, 107, 52, 124, -118, 21, -100, 32,
   24, -77, -2, 127, 57, -126, 35, 126,
   127, 126, -75, -91, 0, -38, -102, -50,
   43, 110, 127, 127, 105, -121, -52, -127,
   -50, 67, -53, 65, -64, -25, 69, -65,
   -42, -112, 127, -52, 98, -76, 113, 5,
   81, 58, -19, -44, 127, 39, -82, 110,
   -80, 51, 117, -123, -16, 32, 58, -54,
   -57, 18, 88, 112, 125, 7, 91, 111,
   -21, 23, -69, 1, 34, 46, 100, 89,
   100, -31, 78, -38, 37, 15, 25, 101,
   16, -127, 34, 22, -29, 124, -32, 73,
   -100, -17, -70, -48, 127, 98, -16, -49,
   87, -1, 17, 10, 75, -19, 38, 51,
   -14, -88, 14, -41, -98, 127, -110, -49,
   -58, 46, 8, 3, 30, 9, -70, 8,
   25, -18, -75, -21, 111, 51, 78, -59,
   45, 38, -102, 32, -24, -49, 16, 6,
   77, -107, -59, -20, -34, 56, -13, 67,
   -26, -93, 96, 99, -34, -14, -18, -128,
   46, 11, 48, -79, -21, -59, -119, -29,
   69, 18, 35, 47, 45, -86, 48, -87,
   28, -33, 121, -9, 43, -127, -127, 65,
   -84, -87, -76, -15, 94, -93, 75, -39,
   -36, 47, -65, 80, 122, 9, 27, -33,
   -1, 66, -126, 81, 38, 53, 15, -69,
   -15, 19, 112, -3, 76, -14, 65, -13,
   45, -77, -22, -48, 57, 42, -101, 37,
   27, -1, -70, -36, 72, -74, 90, 41,
   50, -119, -14, 91, 39, 117, 95, -11,
   96, -15, -36, 41, -16, -21, 70, -96,
   11, 8, -12, -92, 3, -59, 47, -4,
   77, 8, -105, -12, -38, 103, 114, -11,
   84, -115, 76, 50, 64, 19, 39, -53,
   -116, -114, -2, -44, -40, 9, -60, -43,
   101, 19, -65, -50, -27, 17, 65, -40,
   76, -95, 21, 38, 97, 13, 41, -4,
   -83, -8, 33, 2, -29, -30, -31, 1,
   99, 25, 22, -18, -4, 2, 80, -55,
   -6, 57, -62, -43, -9, 20, 1, -47,
   -18, -41, 25, 41, -43, -32, -18, -110,
   -8, 74, 13, 37, 115, 12, 19, 48,
   36, 72, -77, -80, -52, 74, -6, -48,
   98, 40, -14, 75, -78, 114, -50, -124,
   -1, 55, -62, -58, -61, 36, 91, -1,
   -125, 121, 61, -70, 117, 80, -70, -3,
   12, 11, -16, 9, 3, 0, -21, 32,
   -3, 31, -7, 42, 13, 42, 6, -11,
   -2, -25, 20, 1, -15, -44, -17, -7,
   -3, 40, 31, 94, 9, 9, -37, 38,
   10, 6, -10, -32, -2, -66, 90, -18,
   41, 127, 11, 77, -87, 0, 34, 14
};

static const rnn_weight input_dense_bias[24] = {
   -53, -51, 0, -32, -53, -76, 13, 45,
   -17, -36, 48, -48, 5, 65, -76, 13,
   21, -51, 31, 9, -45, -45, -11, -9
};

static const DenseLayer input_dense = {
   input_dense_bias,
   input_dense_weights,
   42, 24, ACTIVATION_TANH
};

static const rnn_weight vad_gru_weights[1728] = {
   -72, 43, -53, 11, 34, -9, -29, 127,
   -67, -92, 74, 112, 80, -16, -79, 76,
   85, 92, 47, -115, -127, -67, -71, -128,
   22, -10, -42, -27, 96, -16, -11, -43,
   -38, -3, 83, 82, 44, 9, -23, -78,
   38, -32, 58, -33, -69, 3, -61, -8,
   75, 6, 6, 6, 19, -27, 24, 43,
   -71, -25, -42, 31, -67, -51, 45, -30,
   21, 42, -12, -5, 69, -66, 62, -12,
   72, -99, -29, 89, -10, 81, 67, 127,
   -2, -6, 96, -8, -3, 92, 126, -128,
   23, -128, 125, 37, -16, -13, -96, 95,
   6, 29, 58, 32, 110, 85, 10, -67,
   37, -10, 127, -113, 90, 55, 42, 84,
   -31, 72, 69, -91, -127, 127, 53, -68,
   62, 10, -32, 110, -79, 64, -11, -70,
   -17, -48, 77, 126, 65, 51, 55, -45,
   -82, 101, -34, 45, -32, 40, -124, -74,
   32, 6, 8, 0, -56, -18, -68, 61,
   6, -15, -10, 10, 127, 115, 78, -55,
   -113, -27, 12, -124, 44, 43, 72, 85,
   -58, -8, -42, -94, 49, 39, -60, -80,
   123, -12, 21, -52, -16, 27, 23, 8,
   -38, -73, 33, 81, -37, 30, -84, -77,
   -24, -58, -40, 102, 14, -8, 29, 51,
   -35, -79, -1, 60, 1, -48, 29, 46,
   13, -28, 6, -59, 48, 13, 111, -59,
   126, -20, 126, 127, -5, 13, 126, 127,
   92, 118, -43, 29, -65, -27, 6, -21,
   123, -127, -127, 1, 92, 56, -124, 127,
   61, 126, 104, 89, 72, 120, -46, -126,
   123, 52, 74, -16, 118, 31, 7, 127,
   125, 71, 57, 12, -55, 127, -24, 57,
   -42, 30, -91, -25, -124, 47, 23, 50,
   22, -25, 51, 127, 105, 33, -72, -5,
   -14, 98, -123, 0, 51, 62, -110, -51,
   -2, -117, 9, -10, -80, -84, -28, 17,
   5, 44, -19, 7, 43, 50, 39, -128,
   45, -128, -125, 21, 45, -41, -75, 28,
   -17, -10, -2, 11, -44, 12, 101, -22,
   -103, 91, -47, -125, 73, 125, 115, -85,
   29, -60, 4, -80, -124, 3, -33, -128,
   -65, -66, -33, 42, 25, 17, 35, 126,
   -62, -52, 2, -34, 37, -22, 81, 32,
   -67, -18, 61, -16, 9, -69, 104, 25,
   -26, 65, -50, 111, -109, -113, -115, 24,
   12, -7, 1, 31, 16, 19, 2, 3,
   42, 126, -16, -122, -94, 8, 59, 113,
   12, 28, 16, -64, 9, -73, -75, -93,
   -52, -50, 36, 3, -26, -1, -124, -43,
   -53, 18, -25, -15, -57, 36, 55, 13,
   36, 59, 37, 71, -79, -19, 18, 40,
   53, -35, 98, 82, 70, 21, 13, -77,
   -57, 65, -100, 51, -28, 19, -95, -45,
   -10, -98, -4, -4, -103, -127, 127, 39,
   -107, 33, -32, -55, -52, -20, 20, -126,
   -52, -128, -79, 81, -64, -53, 16, -63,
   -14, -28, -100, 114, 120, 25, 127, 19,
   -72, -9, -14, -15, 2, 37, -9, -118,
   77, -127, -31, 11, -44, -62, 106, -100,
   9, -72, -44, 42, 39, -65, 27, 51,
   -87, -114, -83, -1, -105, -127, 86, 2,
   67, -52, 55, 64, -43, -38, 50, 41,
   48, 65, 20, 80, -60, 32, -111, 79,
   -22, -70, 5, 49, -5, -46, -109, 42,
   -72, 61, -95, -72, 29, 2, 84, 38,
   56, -127, -16, 90, 87, -127, -81, -126,
   60, -38, 89, -117, -90, -67, -86, 37,
   -6, -7, 109, 3, 108, 8, 89, -11,
   12, -86, -43, -39, 56, 35, -91, 6,
   -10, 3, -19, -15, -28, 8, -31, 64,
   -55, -32, 4, 29, 27, -15, 34, -18,
   -93, 89, -104, -28, 56, -26, -85, -94,
   -96, -116, 30, 20, -42, -57, -123, 90,
   50, 53, -101, -110, -73, 49, 22, -24,
   -45, -117, -38, 127, 14, -97, -124, -33,
   -52, 43, -90, -104, -21, 109, -13, -109,
   -64, -127, -69, 47, 52, -104, 59, -32,
   22, -119, 25, -86, 127, -114, 56, 108,
   -11, -17, -125, 21, -126, -72, 127, 127,
   -22, -40, 118, 57, -48, -42, 127, 48,
   95, 81, 46, 34, 98, 127, 28, 127,
   77, 80, 126, -15, 104, 6, 91, 125,
   116, -8, -81, 127, 127, 48, 88, 98,
   19, 126, 113, -35, 127, 127, 91, -14,
   65, -29, -83, -66, 127, -11, 127, 125,
   117, 115, 64, 97, 25, 66, -108, 50,
   -56, -3, -3, -53, -36, 5, 21, -43,
   -60, -24, 80, 23, 39, 123, -75, -113,
   -45, 2, -126, -60, 56, 33, -19, -11,
   75, -103, -28, 117, -61, 15, 23, 26,
   74, -2, -21, 27, -115, -54, -39, 10,
   -21, -69, 21, -79, 33, 16, -43, 93,
   -28, 45, 105, 1, -13, 24, 87, 127,
   31, 10, 57, 88, 64, -128, -63, -42,
   -25, 52, 21, -43, 127, -9, 38, 127,
   -24, 45, -4, 21, -31, -2, -9, -44,
   91, 47, 53, -4, 17, 51, -115, 5,
   -66, 23, -12, 64, -18, 74, -55, -4,
   87, 108, 39, 72, 64, 100, -31, 55,
   80, 58, 124, -55, 127, 122, 115, 4,
   25, 127, 90, -96, -72, 124, 94, 15,
   14, 119, 77, 42, 127, 100, 7, -63,
   23, -24, -30, -70, 127, -4, 127, 36,
   -82, 54, 46, -34, -22, 21, 104, 62,
   -16, 37, 67, 57, -64, 8, 11, -70,
   20, 53, 60, 9, 30, 116, -8, 22,
   -98, 81, -5, 15, 44, 42, -94, 40,
   127, -17, 123, 90, 31, 2, 83, -46,
   102, 105, -40, -106, 2, -67, 102, 122,
   81, 96, -76, 113, -73, 37, -16, 61,
   32, 62, 47, 21, 59, 41, 23, -127,
   50, 25, 4, -68, -34, 51, 72, -8,
   -15, 58, 115, -6, -2, 77, 4, 2,
   61, 109, -77, -19, -30, 1, -102, 36,
   71, 46, 89, 44, 65, -21, -114, 0,
   90, 73, -61, 70, 16, 79, -51, -118,
   -109, -124, -111, -6, -42, -127, 125, -45,
   -126, -95, -87, 18, -17, -35, -105, -114,
   -91, 27, -98, 47, -78, -126, -21, -112,
   -110, -31, -84, 73, 8, -126, 27, 52,
   -113, -127, 44, 65, -80, 34, 12, -121,
   22, -3, 38, -36, 53, -126, 127, -107,
   49, -51, 65, -64, 69, -49, 40, 26,
   -36, -34, -25, -12, -110, -83, 64, 41,
   -32, -116, 25, -64, 53, -38, 105, 21,
   -125, 127, -23, -105, 127, 122, -106, 25,
   65, -111, 118, 86, 104, 83, 108, 127,
   67, 127, 117, -127, -32, 125, 89, -27,
   -84, -26, -27, -71, -13, -8, -41, 5,
   7, 47, 74, -7, 66, 7, 74, 49,
   -18, 78, 26, -68, -38, -14, -26, 21,
   49, 22, -13, 4, -50, 8, -35, -18,
   10, -2, 40, 22, 37, 52, -96, -44,
   26, 28, -6, 0, 37, 71, -39, -49,
   -80, 117, 63, -101, -6, -127, -32, -110,
   -34, 7, -65, 28, -58, -127, -113, 127,
   -111, 127, -128, 45, 32, 10, -4, -118,
   -30, 108, -32, 26, -3, 12, -128, -29,
   -21, 10, -27, 127, -67, 79, -98, -55,
   23, 127, 127, 79, -50, -79, 39, 19,
   54, 16, -52, -20, 110, -9, -15, 35,
   -75, 55, -102, -3, 38, -43, 19, 82,
   -41, -65, -38, -51, 19, -46, 2, -51,
   -58, 5, -78, -122, -48, -107, -94, -114,
   -23, -90, -56, -58, -41, -52, -102, 73,
   -49, 61, 10, -36, 34, -29, 9, -114,
   24, -70, -66, 24, -127, -127, -126, 24,
   -109, 68, -112, 114, -18, 4, -38, -63,
   -37, 22, -71, 83, 86, -126, 53, -26,
   99, -6, 26, -115, 7, -91, 12, 127,
   -9, 40, -51, -97, -68, -22, -37, 91,
   67, -85, -10, -37, -66, -61, 126, 16,
   5, 33, -98, 29, -97, -32, -5, 56,
   12, -11, 11, -61, -38, 31, 3, -29,
   34, 109, -25, -55, -5, 20, -47, 63,
   -76, -18, -127, 16, 22, -98, -15, -115,
   -31, -41, 13, -18, -5, 99, 6, 16,
   24, -53, -35, -55, -127, -54, -8, -7,
   -33, -64, -66, -30, -33, -43, 52, -17,
   -49, -35, 14, -66, -27, 18, 55, 37,
   69, 22, 25, 11, 20, -62, -28, 39,
   -104, -88, 35, -110, -94, -50, 104, -67,
   6, 79, -86, -85, -123, -72, -127, -99,
   6, -127, -22, 50, 5, -84, -41, -68,
   23, -36, -2, -32, -125, -17, 104, -4,
   24, 107, -102, -65, -7, 73, 13, -58,
   -58, -78, -3, 17, 69, -42, 112, 31,
   65, -22, -44, -66, 84, -58, 40, 78,
   29, 48, -5, -61, -30, -26, 30, 49,
   22, -14, 46, -70, -64, 1, 11, 26,
   125, 48, 30, 123, 58, 124, 46, 111,
   -7, 47, 127, 23, -107, 36, -86, 3,
   127, -42, -127, 101, 127, 0, -84, 106,
   62, 24, 67, 119, -35, 125, -43, -127,
   -14, -27, 7, 18, -96, 3, 25, 104,
   -40, -40, 77, 24, -28, -1, -109, -26,
   -66, 127, -14, -88, 14, 55, -70, -37,
   2, 99, 74, 3, 92, 127, -119, -71,
   18, 59, -62, 98, 38, 9, -76, -99,
   -68, 49, 65, -23, 18, -82, 13, 67,
   0, 18, 16, 66, 37, -42, 76, 127,
   -30, 121, -68, -11, 99, 34, 26, 127,
   5, 21, 125, -31, -70, -37, -27, 34,
   40, 114, -4, -3, 14, -33, -50, -3,
   30, 107, 8, 122, 12, 52, 55, 72,
   -15, -25, 10, -2, 9, -8, -33, -18,
   66, 7, 24, 7, -62, -56, 20, 28,
   8, 52, -11, -42, 60, 57, 17, 13,
   66, 127, 56, 90, 118, 85, 8, 64,
   127, 56, 119, 38, 127, 112, 127, 122,
   79, 126, 127, 49, 18, 127, 96, -87,
   -77, 16, 56, -38, -19, -36, -71, -11,
   -51, -33, 14, -96, 89, -28, 121, 126,
   -57, 45, 36, -97, -95, 39, -25, 91,
   -68, 58, 72, 66, -22, 127, -36, -54,
   61, 33, 63, -8, 82, 81, -24, -117,
   33, 50, -30, 86, 29, 62, -83, -95,
   -51, -126, 12, 25, -127, 1, 110, 127,
   -128, -113, -59, -4, -26, -13, -95, 20,
   68, -44, -6, 111, -20, -128, 127, -116,
   31, 127, 52, -5, 127, 108, 107, -71,
   -34, 49, 66, 100, 100, -128, -4, 5,
   65, 127, 122, -23, 65, 22, 19, 2,
   -2, 4, -10, 101, -60, 3, -88, -3,
   25, 0, 75, 26, 17, -34, -28, -35,
   -65, 48, -25, 38, 64, -44, -14, 20,
   126, -55, -47, 28, 75, 34, 57, 29,
   4, 31, 26, 60, -18, 65, 120, -67,
   114, -123, 125, 92, -74, 30, -104, -40,
   26, -43, 83, -89, 79, 40, 83, 92,
   -74, -25, 7, 82, 125, -24, 63, -26,
   -6, -67, -65, -120, -11, -57, -30, -36,
   -53, 15, 18, 69, -20, 45, 7, -97,
   62, 1, 43, 127, 75, 78, -29, -91,
   -80, 99, -17, 123, -51, 60, -73, 49
};

static const rnn_weight vad_gru_recurrent_weights[1728] = {
   126, -96, 58, 29, -115, 79, -19, -88,
   73, 96, 7, 70, -61, -102, -91, -122,
   -119, -13, -117, -78, 111, -48, 1, 127,
   24, -86, -6, 67, -115, -11, -51, 59,
   127, 48, -17, 37, -85, -21, 8, -117,
   -2, -90, -81, 18, 70, -25, 54, 127,
   14, -79, 57, -69, 73, -108, -46, -40,
   -1, -68, -75, -91, -32, -117, -18, 0,
   72, -62, 69, 77, -36, -39, 14, 31,
   -18, -117, 47, -15, -89, -68, -10, -96,
   110, 44, -87, -52, -128, -126, -89, 18,
   -2, 15, -66, 53, -21, -11, -125, 3,
   7, -17, 27, 19, -127, -34, -32, 36,
   -47, -37, -71, 34, -12, 32, -58, -34,
   -54, 22, -49, 41, -53, -69, -16, 36,
   2, 126, -24, -88, -5, 20, -55, -126,
   124, 100, 72, -43, 106, 35, -73, -109,
   -76, 126, 24, -7, -59, 43, -126, -44,
   89, 101, 94, -43, 82, 68, 115, 59,
   -79, 44, 126, 74, 127, 125, 56, 88,
   26, 23, 127, -51, -27, 67, 103, -6,
   20, -116, 29, -80, -30, 114, 18, 95,
   28, 14, 57, -34, -11, 79, 75, -11,
   13, -125, -76, -26, -77, -52, -60, -44,
   -23, -50, 80, -12, 70, -98, -73, -35,
   -72, -128, -128, -32, 16, 15, -6, 45,
   79, -127, 10, -11, -103, -127, 121, 66,
   46, 127, 124, -73, 127, 110, -47, 65,
   -76, -41, 125, -6, 127, 107, 127, 127,
   20, 127, 108, -97, -122, 123, 106, -121,
   26, -35, 77, -34, 59, 97, 75, -110,
   -88, -59, -32, -37, 41, -86, 11, -58,
   127, 15, -29, -62, -39, 10, -26, -75,
   -127, 10, -9, 127, -56, 89, -96, 23,
   100, 122, 42, 75, 77, 60, -26, -73,
   -95, 24, -128, 79, 126, 65, 16, -33,
   -127, 7, -110, -64, -9, 31, -51, 102,
   -69, -9, 107, -17, -38, 125, 118, 72,
   -47, -66, 127, -36, 113, -47, 127, 47,
   -80, 31, -50, -53, 21, 22, 7, 76,
   48, 58, 18, -26, 20, -23, 51, 95,
   -103, 17, 59, 50, -31, -10, -71, 49,
   -16, -19, 40, -69, 124, -92, 61, 24,
   -126, -111, -127, -47, -127, -81, 101, 127,
   -25, -127, 127, -31, -72, -128, 65, 94,
   127, 14, 60, 39, 127, 57, 22, -37,
   73, 112, -73, -124, -6, -68, -37, 89,
   45, 30, -33, 77, -126, 51, -17, 11,
   -15, -32, -37, 61, 7, 12, 37, 17,
   -122, -128, -36, 18, -28, -5, -11, 40,
   -64, -61, -24, 79, 31, 40, 15, -99,
   -17, 94, -113, -47, -127, 70, -82, -122,
   127, 62, 126, -11, 127, 85, -127, -127,
   -6, 81, -83, 11, 12, 127, -77, -67,
   -14, -71, -127, 59, -127, -80, 55, 126,
   49, 51, 5, 52, -125, 125, -79, -97,
   -55, -46, 84, 127, -76, -63, -43, 97,
   14, 93, -3, 37, 6, 31, -56, 45,
   -45, -120, -78, -18, -74, 63, 49, -14,
   -17, -111, 77, -66, -127, -25, -127, -127,
   -126, 127, -118, 0, -23, 66, -27, 24,
   18, 0, 100, 86, 127, 61, -106, 27,
   -15, 126, -94, -119, 126, 63, -23, -78,
   -127, 31, -104, -49, -128, -128, 23, 20,
   -86, -92, -104, 18, -72, 19, -83, -1,
   -37, -53, -61, 22, -51, 0, 60, 19,
   -18, -71, -124, -127, -8, 19, 38, 6,
   -81, 35, -34, -2, -82, -82, 7, 63,
   -103, -91, 51, -33, -17, 48, -26, -61,
   -116, 127, -22, 73, -50, 106, -99, -11,
   -3, -70, 49, 21, 127, 24, -95, -60,
   -128, 127, -127, 15, 12, 43, -2, 0,
   -126, 5, 61, -119, -74, -60, -64, -27,
   -105, -13, -126, -94, -79, -84, -47, 53,
   -47, 26, -127, 3, -107, -128, -126, -50,
   22, 13, 15, -64, 73, -2, -41, -39,
   -75, -21, 9, 4, -15, 10, 29, 34,
   24, 0, 36, 60, 3, 32, 1, 46,
   -1, 126, -53, -14, -81, -45, -87, -31,
   121, 127, 94, 9, 127, -8, -46, -48,
   -24, 126, -58, -78, 31, 56, -99, -76,
   -127, -18, -127, -76, -39, -48, -128, -30,
   7, -127, -109, -29, -32, -15, -40, 30,
   -2, 83, -68, -116, -61, -37, 24, -127,
   -81, 108, 33, -54, -70, -31, 32, 100,
   -83, -9, -34, -65, 72, -126, -80, 36,
   -51, 56, 7, 60, -7, -50, -13, 43,
   10, 70, -34, 10, -31, 19, 17, -70,
   110, 127, 80, 34, 72, 51, -47, -89,
   29, 127, -49, -11, -31, 127, -118, -33,
   44, -46, 93, 37, 1, -92, -50, -54,
   115, 79, -85, -107, 90, -50, 91, 55,
   -28, 35, -64, 19, -79, 59, -85, 37,
   8, -50, -13, 68, -51, -98, -19, -48,
   -57, -17, 1, -4, 30, -12, -20, -91,
   -27, -68, -57, -4, -73, -31, -14, -21,
   22, 87, -9, 51, -42, 60, 0, 44,
   36, 103, 70, 65, 69, 71, -104, -76,
   31, 59, -109, 7, 77, 104, -67, -98,
   127, 127, 86, 84, 98, -18, -1, -56,
   -23, 47, 97, -102, 127, 126, 76, -6,
   61, 121, 25, 23, -21, 127, 102, 66,
   -54, -1, 7, -51, -1, -88, 72, -7,
   -53, -7, -69, 95, 49, -45, -52, -72,
   85, 27, 12, 27, -40, 32, 16, -85,
   -127, 85, -29, 87, -126, 126, -98, 89,
   126, -5, 126, 126, 125, 91, -125, -94,
   -89, 54, -76, -3, 127, 103, -23, -127,
   23, -36, 54, -68, -90, -126, 82, -102,
   -41, 9, -127, 53, -87, -126, -15, -96,
   -53, -41, -127, 39, -62, -79, -127, -19,
   -29, -19, -65, 54, -30, 14, -18, -79,
   -12, 47, -39, 13, 16, 36, -18, -35,
   -46, 15, 6, 101, -56, -64, 2, 5,
   -66, 20, -126, -21, -59, 28, -72, -40,
   127, 97, -75, -67, 30, 4, -32, -54,
   0, 81, -67, 15, 11, 60, -11, -120,
   13, -8, 77, -81, -55, 65, -61, -84,
   127, 63, -48, -37, 41, 16, 43, 89,
   -43, 33, -95, -35, -85, 63, -114, 47,
   -53, 5, -16, 0, -30, 63, 28, -83,
   22, -8, -115, -67, 59, 8, 24, 115,
   -35, -13, -42, 35, -25, -58, -74, -78,
   -70, 13, -61, -16, 55, 3, -127, -20,
   97, 127, -47, 14, 21, 54, -25, 33,
   -39, -49, -59, -80, -127, 90, -35, -120,
   63, 79, -50, 125, 123, 17, 27, 126,
   -127, -120, 127, 36, 100, 125, 16, -11,
   127, 2, 127, -43, -16, 115, 127, -101,
   38, 0, 9, -5, 127, 20, -39, -24,
   8, -27, 91, 24, 83, -3, -34, 49,
   110, 76, 96, -41, 39, 75, -32, -15,
   -7, -98, 88, 44, 12, -3, 120, 0,
   -127, 26, -72, -27, -98, -99, 113, 34,
   57, -126, -6, -17, -14, -128, 125, 126,
   -124, 36, -69, -29, -74, -105, -10, 46,
   -29, -84, 50, -44, -6, 19, 99, -78,
   -2, 106, 127, -29, -123, -67, 52, -94,
   -58, -44, -69, -21, 44, -111, 0, -37,
   -1, 24, 103, -35, 89, -40, 28, -8,
   -9, 1, 116, -58, 17, 37, -21, 0,
   25, -74, 54, -24, 111, 14, -14, 100,
   -108, -127, -81, 62, -127, -124, 126, 127,
   -33, -125, 127, -36, -1, -127, 127, 127,
   -119, -84, 92, -117, 30, 115, -83, -101,
   23, 34, 32, 76, -23, -4, 122, 6,
   -4, 22, 127, -62, 87, 41, -48, 39,
   -11, 65, -51, -21, -71, 122, -16, 66,
   116, 61, 20, -49, 62, 127, 61, 35,
   47, -18, -67, 52, -96, 86, 11, 64,
   7, -3, 15, -66, 101, -72, 101, 124,
   7, -51, -8, -113, -21, 26, 95, 83,
   100, -30, 127, -58, -98, -63, 37, 32,
   -26, -108, 2, -123, -126, -119, -66, -22,
   -83, 57, -126, -25, -127, -126, -127, -100,
   -121, -59, -127, 6, 10, -127, -124, -23,
   35, -37, 2, 110, -45, -72, 39, -7,
   -33, 48, -118, 31, 40, 42, -38, -53,
   -41, 34, 43, 79, -60, -44, 8, 36,
   -21, 35, -72, -18, 0, 19, 35, -127,
   44, 109, 45, 19, 72, -28, 0, -15,
   -47, 86, -77, 33, 2, 39, -127, -25,
   -127, 17, -126, -95, -54, -76, -127, -3,
   -109, -33, 22, -10, 24, 126, -52, 105,
   -64, -29, -126, 51, 48, 47, 127, 13,
   -92, 15, -127, -127, 6, 38, 3, 98,
   -38, -76, -32, -49, -42, 14, 23, 61,
   -109, -23, 6, 42, -15, -85, -71, -8,
   53, -64, 33, 18, -35, 90, -4, 127,
   -56, -32, 14, -29, -108, -68, -52, 54,
   -69, -40, 127, -32, -28, 1, 0, 77,
   -27, -116, 95, -101, 65, 52, -86, -126,
   -50, -68, -10, -8, -18, -111, -127, -54,
   66, -93, -127, -44, -106, -127, -44, -31,
   -6, -13, -104, 126, 52, -20, 76, 75,
   -79, -72, -40, 95, 48, 36, -77, -103,
   -41, -57, -127, -76, 10, -127, 73, 32,
   56, -127, 90, -85, 109, -121, -47, -7,
   -16, -21, -127, -127, -127, 26, 127, 126,
   127, -92, 126, 27, -106, -36, 113, 81,
   51, 43, 125, 1, 127, 17, -56, -100,
   23, 120, -12, -127, 35, 24, 5, 6,
   -1, 70, 37, 54, 85, -59, 19, 124,
   20, 116, 63, -59, -19, 51, 62, -44,
   127, 59, -37, -20, 12, -22, -13, 121,
   -93, 75, 71, 74, -98, 127, -48, -72,
   -106, 106, -116, 14, -109, 78, 30, -102,
   -20, -11, 126, 3, 127, 91, -107, -120,
   -35, 47, -80, -69, 25, 91, -96, 41,
   -58, -96, 48, -105, -78, -11, -37, -84,
   -39, 96, -126, -95, -67, -126, -23, 9,
   -55, 22, -126, 47, -9, -92, -125, -43,
   -61, 53, 90, -4, 26, -2, -20, -52,
   -39, -39, -41, 26, 52, 39, 40, -46,
   24, 47, 2, -13, 24, 14, 92, -35,
   -21, 87, -103, 47, -56, 21, -46, -56,
   71, 127, -12, 52, 109, 44, -69, -95,
   19, 126, -120, 64, 16, 125, -72, 3,
   39, 127, -74, 45, 127, 113, 28, 111,
   -72, -87, 104, 29, 44, 120, 21, 39,
   50, 44, 126, -20, 52, -6, 125, 48,
   35, -64, 10, 35, -23, 39, 34, 48,
   22, -90, 23, 11, -24, -52, 64, 87,
   -19, -39, 64, -30, 56, 29, 24, 27,
   108, 127, 78, -31, -59, 89, -36, -32,
   3, -123, -23, 25, 1, 60, -69, -127,
   2, 67, -87, 26, -42, 48, 22, 31,
   126, -40, 72, 127, 89, 33, 78, 14,
   94, 17, 82, 108, -20, 17, -69, -127,
   67, 18, 110, 78, 44, 125, 103, 6,
   96, -72, 56, 75, 86, 24, 13, 70,
   8, 31, -19, 118, -11, -14, -77, -94,
   80, -41, -50, 3, 70, 3, 5, 67,
   44, -82, 79, 8, 20, -65, -89, 3,
   -126, -127, -118, 4, -83, -128, 65, -23,
   -12, -127, -41, 29, -56, -127, 127, -13
};

static const rnn_weight vad_gru_bias[72] = {
   127, -127, 84, 22, -127, -87, 127, -85,
   -39, 99, -122, -111, -126, -114, -126, -113,
   -16, -127, -126, 70, 68, -124, -95, 81,
   50, 38, 16, 92, 50, 88, 47, -10,
   23, 12, 26, 51, 12, 24, -14, 23,
   53, 38, 46, 61, 62, 41, -2, 24,
   2, -19, -14, -11, 12, -12, -3, -24,
   -10, 3, -24, -2, 18, -29, 29, 3,
   -6, -13, -31, -5, 11, -12, 5, 14
};

static const GRULayer vad_gru = {
   vad_gru_bias,
   vad_gru_weights,
   vad_gru_recurrent_weights,
   24, 24.0, ACTIVATION_TANH
};

static const rnn_weight noise_gru_weights[12960] = {
   -9, -50, -29, -17, -6, -58, -18, -18,
   51, -37, 13, -17, 27, -2, -2, -20,
   -41, 63, 77, -10, 2, -31, -62, 34,
   -15, 2, -14, 9, 58, 30, -3, 31,
   -48, -1, 1, 11, 0, -46, -14, 36,
   -20, -23, 12, 5, -36, 43, 52, 5,
   -63, 20, -25, 38, 31, -24, 34, 41,
   74, -41, -21, 37, 38, -5, 13, -67,
   -31, -74, -33, 63, -27, -19, -10, -22,
   -23, -74, 5, 18, -1, 9, 44, 5,
   -28, 103, -32, 23, -60, -5, 1, -15,
   -11, -10, -35, -22, -20, 23, 32, -7,
   18, -34, -18, 16, -26, 22, -76, -44,
   -19, -23, -100, -15, 15, -44, 28, -51,
   -32, -40, -5, 14, -14, 10, 6, -39,
   65, 34, -4, 32, -7, -21, -17, 8,
   9, 29, 18, -18, 48, -20, -10, -25,
   14, -19, -3, -58, -22, -27, -31, -27,
   29, 91, -41, 54, -119, -7, 21, -35,
   -21, 5, 113, 7, -44, 23, 33, 37,
   100, -10, 55, 121, 114, 6, 11, 54,
   22, 17, -29, 0, -25, 5, 38, 24,
   -77, 70, 67, 31, -31, 20, -76, 6,
   1, -21, 102, -7, -1, 10, -9, 26,
   -8, -2, -23, 30, 14, -28, 56, -22,
   -42, -53, -27, 14, -15, 57, 56, -7,
   12, 23, 0, -24, 12, 32, -28, 126,
   -49, -6, 27, 44, -29, 25, -72, 63,
   -92, 119, -1, 14, -51, 52, -35, -28,
   -20, 10, 35, -59, 45, -27, -19, 68,
   4, -14, -35, -33, 28, -2, -16, 31,
   1, -55, -73, -43, -21, -13, -37, -32,
   55, 60, 45, -55, -1, 35, 9, 23,
   -52, -22, -33, 24, 4, -52, 44, 2,
   34, -33, -31, 8, -48, 14, -15, -15,
   -17, 73, -31, 10, 24, 34, -9, -7,
   -37, 2, -102, 31, -49, -8, 42, -20,
   -23, -66, 45, 126, 22, 12, -60, -48,
   0, 52, 75, -50, 62, 48, -34, 4,
   5, -40, -33, -32, 39, -96, 127, 27,
   -101, 58, -51, -32, -11, -35, -23, 57,
   -70, 25, -1, -29, 6, 96, 18, 77,
   -96, 3, 73, 32, 11, -34, -17, 40,
   34, -49, -49, -58, -80, 25, 19, 25,
   -20, -42, -26, -29, -28, 16, 72, 13,
   28, -2, 76, 22, -8, -29, 73, 2,
   41, 40, 33, 46, 28, -16, 55, 42,
   36, -52, 16, -16, 37, 13, 49, -5,
   7, -14, 5, -7, -20, 2, -38, -31,
   -7, -26, 14, 2, -14, -10, -18, 1,
   30, 30, 51, -22, -24, 38, 59, -8,
   9, 32, 29, -24, 38, -12, 23, -5,
   -4, -14, 32, -10, 71, -3, -3, -7,
   96, 52, 51, 19, 14, -24, 38, 13,
   -50, 35, 17, 44, -61, -15, -27, -37,
   13, -7, 81, 22, -66, -5, 5, -55,
   -53, -50, 40, 110, 7, -67, -19, -53,
   7, -46, -17, -15, -47, -68, 44, 70,
   -39, -18, -54, 5, 19, -79, -89, 4,
   32, 27, 76, 3, 4, 31, 6, 49,
   4, -36, 30, 29, 48, 17, -20, 4,
   37, -25, -53, 45, -36, 12, 16, -36,
   -56, -10, -15, -56, 40, 56, -8, 81,
   -49, 4, 42, 54, -57, -8, 5, -55,
   -22, 60, -22, 53, -44, 9, -39, -36,
   29, 24, -80, -5, 13, 37, -3, 0,
   13, -28, -35, 34, 95, 58, 28, -6,
   -6, -40, -51, -14, -21, 22, 42, 44,
   51, 31, -32, 23, -76, 36, 7, -9,
   15, -37, 10, -7, -21, 45, 39, -40,
   17, 52, 64, -16, 8, 35, -20, 11,
   -6, 35, -20, 10, 13, 24, 17, 29,
   -70, 27, 22, -25, -31, -9, 2, 17,
   -55, 36, -35, -24, 14, 5, 11, -3,
   53, -12, 74, 4, -25, -2, 53, 25,
   -51, -21, -73, 3, 55, 20, -5, -17,
   -11, 0, 37, -48, 22, 14, -71, 9,
   -1, 14, 1, 32, 126, 16, 51, -5,
   16, 13, -11, 53, 41, 49, -26, -20,
   -85, -56, -9, 17, 32, -35, 35, 51,
   -1, 42, 51, 70, -15, 24, -2, 48,
   20, 4, 17, -54, 43, 70, -9, -1,
   -4, -42, 58, -27, -11, 7, -30, -27,
   -60, -25, -9, -41, 13, -11, -34, -24,
   5, -1, 9, 18, -24, 10, -4, -6,
   3, 19, 33, -29, -17, 25, -16, 22,
   14, 14, -13, -7, -78, 12, 71, 21,
   11, -31, -18, -62, 54, 0, 43, -62,
   7, 18, 24, -5, 26, 18, -30, -53,
   11, 14, -57, -25, 1, 8, 35, -1,
   16, 56, 9, 12, 19, 12, 4, 5,
   46, 18, -9, -35, 6, -26, 5, 10,
   11, 15, 66, 13, 10, 25, -64, -18,
   -34, -41, -59, -1, -25, 26, 14, -21,
   -69, 52, 56, 8, 3, -30, 33, -37,
   -6, 16, 1, -54, -55, 4, -11, 12,
   36, -4, -97, 7, -10, -44, -2, 76,
   -44, -26, -11, 22, 12, 20, 29, -50,
   36, -1, -4, -16, 1, -2, 7, 6,
   18, 2, -45, 20, 13, 33, 40, 5,
   51, -30, 25, 30, 10, 21, 51, 9,
   -1, -18, -37, 25, 23, -74, 32, -7,
   17, 6, -4, 20, 16, -2, -57, -27,
   17, -42, -2, 45, 4, -32, 1, 5,
   -14, -24, 27, -36, -6, 38, -10, 7,
   25, -16, -6, 30, 4, 11, -7, 44,
   32, -57, 31, -19, -3, -11, -10, -24,
   12, -26, -13, -31, -8, -31, -12, 21,
   -45, 56, -10, 56, -106, 20, 19, 32,
   -66, 28, -26, 78, 77, -32, 11, -6,
   17, -109, 16, 6, 4, -8, 76, 34,
   95, -7, -62, -1, 3, 25, 62, -15,
   -10, 19, -18, -35, -34, -3, -37, -8,
   -35, 33, -44, 9, 126, 37, 0, 51,
   -47, -11, 27, 74, -34, 36, -16, -22,
   51, -25, 3, 75, -2, -42, 8, 28,
   -51, -31, 27, 85, 16, -12, -8, 21,
   45, 0, -1, -42, 8, 14, 13, 9,
   -36, -84, 19, -3, 32, 48, 42, 9,
   -62, -17, 45, 67, 87, 42, 2, 27,
   21, 23, 14, -4, 43, 42, 51, 25,
   -31, 1, -9, 30, -38, -12, 42, -50,
   30, 1, -59, 63, 13, -7, -3, 23,
   8, 35, 28, 16, -35, -20, 14, -7,
   -4, -59, -14, 5, 12, 35, -21, 27,
   -39, 11, 59, 9, -12, -28, -7, -2,
   8, 52, -8, 6, 82, -48, -39, -55,
   -74, 70, -10, -49, 25, 31, -79, 23,
   -58, 4, -64, -32, 17, 32, -118, -11,
   19, -11, -14, 39, -52, 10, -17, 3,
   -41, 28, 38, -37, -12, -23, 41, -38,
   41, -9, 7, -75, 5, 40, -35, 1,
   44, -12, -2, 41, 71, 4, 31, 1,
   -9, -18, 15, -8, 50, 25, -19, -114,
   17, 40, -13, -1, -15, -30, 73, 16,
   -70, -29, -49, -2, 59, -20, -10, -12,
   39, 47, 38, 21, 6, -12, 31, 46,
   17, -53, -33, 45, -3, 33, 48, -22,
   -12, 7, -5, 19, -2, -11, -17, -39,
   -58, -51, 5, 0, -18, 29, 10, -3,
   5, -13, -14, 35, -18, 27, -39, -39,
   -52, -4, -33, -28, -35, 28, -24, -17,
   -29, 18, 4, 42, -18, -28, -14, -9,
   4, -2, 14, 17, 0, 5, -27, -24,
   40, 5, -30, -46, 115, -86, -40, 18,
   -27, -1, -37, -32, -99, 24, -62, -21,
   -50, 94, -9, -16, 5, -16, -49, 16,
   -31, 28, 4, -11, -39, -87, 73, -17,
   -54, -28, 0, -36, -30, 41, -68, 16,
   78, -4, 54, -30, 5, -8, -12, -27,
   -2, 40, -20, -2, 6, 1, 9, 51,
   52, -4, -12, -74, 8, 10, -24, 34,
   -15, -5, 0, -1, -23, -29, 3, -16,
   0, 0, -16, 20, 42, 8, 65, -17,
   -1, 1, -10, -82, 38, 1, 107, 66,
   -54, 19, 4, -17, 29, 41, -16, -57,
   -12, -15, 25, 41, -63, 12, 15, 18,
   19, -38, 41, 16, -56, 36, 10, 32,
   48, -16, -23, 5, -70, -8, 8, -45,
   57, 16, -10, -20, 39, 15, -39, -22,
   -21, 21, 18, 27, 2, -1, 30, -19,
   14, -29, -40, 2, 7, -59, 17, 30,
   -17, 18, 5, 58, -105, 41, 10, -1,
   70, 28, 84, -33, 62, 68, -47, -57,
   -83, 21, 68, -10, 28, -56, 62, -15,
   40, -50, -8, 17, 5, 58, 27, 2,
   1, 27, 78, -8, -71, 69, 60, 16,
   -41, 5, 62, -18, 4, -44, 10, -26,
   -41, -39, 21, 51, 16, 109, 46, 31,
   72, -28, -48, 20, -25, -11, 16, -96,
   -71, -7, 9, 57, -27, 70, 35, 80,
   -49, 86, -26, -52, 71, 2, -51, -20,
   -1, -23, 63, 127, -7, 123, -91, -23,
   20, -4, -72, -54, -20, -17, 67, 12,
   59, -4, 7, -53, 27, -28, 11, 14,
   50, 106, -72, 37, 37, 39, 18, -16,
   13, 21, 45, -12, -22, -5, -25, 21,
   -12, 24, -39, -42, -23, -7, -54, -13,
   8, 14, 23, 18, -19, 55, 2, -37,
   -18, -6, -8, 31, 10, -51, 43, -22,
   82, 13, -7, -9, 30, 26, 36, 1,
   -11, -15, -23, 6, 10, -12, 57, 69,
   -90, 24, 42, -8, 2, -10, 7, 19,
   28, 41, 14, -3, 31, -31, -23, 5,
   63, 71, -49, -8, -2, -23, -13, 29,
   -50, -25, 19, -7, 5, -26, -41, 26,
   110, 50, 66, 27, 32, 34, -11, -17,
   -30, 7, -10, 16, -38, 6, -13, -9,
   20, 78, -41, 50, -3, 1, -2, 44,
   -2, 19, -1, 30, -4, 1, -8, 38,
   -31, -36, 8, -28, 28, -12, 36, -30,
   -12, 2, 36, 27, 13, 18, -1, 16,
   -8, -22, -7, 25, 22, -6, 35, 7,
   -25, -16, 16, 34, 5, 3, 15, -37,
   -10, 10, 5, 22, 20, 28, -34, 33,
   -4, 6, 4, 7, -22, 24, 25, -7,
   13, -15, -7, 7, -1, 0, -30, 10,
   -31, 3, 33, 30, -3, 5, -31, 23,
   -28, 24, -11, 36, -22, -10, 13, 13,
   65, 33, 26, 3, 28, -18, 83, -23,
   119, -36, 14, 68, -20, -7, 17, -68,
   61, -16, -11, 4, 55, -56, 52, -42,
   54, 26, -21, 50, -20, -87, -42, 90,
   -16, -3, 96, 48, -31, 69, 30, 17,
   -35, -45, -63, -15, 11, 6, 3, 4,
   12, -34, 42, 74, 32, -67, 61, -12,
   -39, 62, 21, 63, 26, 9, -15, -12,
   -69, 5, -4, -2, 30, -41, 38, 32,
   -63, 15, -35, 18, -15, 85, 8, 80,
   28, -19, 33, 15, -4, -3, 26, -81,
   28, 1, -58, -6, -27, -13, -36, 47,
   17, 91, -24, -18, 8, -59, -8, -44,
   40, 9, -11, -32, -19, -75, 71, 18,
   34, -36, -2, 35, 42, 17, 33, 7,
   -33, 4, 24, -57, -30, -15, 40, -63,
   9, -9, -25, -20, 49, 54, -17, 21,
   96, 58, 2, -63, -63, -1, -8, 19,
   2, 41, 6, -18, 29, -39, -6, -9,
   22, 72, -2, 112, 20, 34, 47, -12,
   -9, -15, -73, -10, 2, -29, 17, 33,
   -48, -74, 18, 27, -8, 53, -24, 12,
   13, 11, 43, -13, -32, -15, 21, 18,
   -32, 2, 29, -15, -64, 29, 5, 23,
   35, -43, 47, -11, -38, -78, 35, -12,
   -49, -48, 44, -11, 19, -8, 12, 8,
   -25, -43, 9, 51, -52, 2, -69, 25,
   -28, 28, 10, -1, -8, 19, 2, 13,
   -47, -6, -10, -36, 2, -4, -48, -6,
   -7, 13, -49, 43, 11, 16, 8, 12,
   -6, 62, -9, -29, 33, -30, 59, -2,
   34, 53, 22, -45, -24, 26, 37, -3,
   -14, -25, -16, 24, -23, 47, 34, 21,
   13, -18, 62, -5, 14, -18, -26, 40,
   -31, -9, -14, 26, 0, 13, 1, 17,
   10, 12, 16, 66, 16, 19, 5, -8,
   -15, -10, -125, -24, -29, 11, -57, 10,
   60, -50, 9, -11, -33, 21, 74, 3,
   0, 29, 43, -20, 67, -40, -18, -73,
   -25, -68, 14, -20, -48, -16, 27, 27,
   91, 19, -40, 10, 61, 50, -30, -7,
   7, 9, 43, 1, -48, -9, -20, -43,
   -29, -34, 22, 22, 51, -67, -20, -16,
   -78, -11, 31, 5, 55, -2, -21, -1,
   25, -45, 36, 39, -32, -55, 26, 2,
   26, -45, 6, -29, 22, -17, 56, 1,
   -27, -33, 46, -45, 69, -16, -11, 14,
   -8, -7, 41, 44, 7, 57, 30, -25,
   18, -24, 49, -1, -9, 22, -33, 9,
   25, -17, -45, -1, -5, 55, 7, 4,
   -41, -27, 0, 34, 33, -43, -30, 26,
   -8, -51, 15, 54, -54, 31, 15, -38,
   -10, -32, -6, 17, -22, 6, 57, 26,
   73, 21, -14, -30, -53, -4, -10, -5,
   -32, 34, -5, -1, 19, -65, -35, -18,
   33, -42, 13, -7, 13, 13, -61, -5,
   -54, -21, -49, 36, -25, -20, -32, 24,
   -51, -6, 83, 51, 8, -28, 62, -108,
   36, -57, 33, 13, -19, -11, -50, -37,
   -3, -17, -66, -40, -13, -24, -1, 37,
   53, -6, 29, -28, 56, -6, 50, -9,
   14, 19, 12, 9, -37, -18, 11, -38,
   -36, -36, -9, -2, -7, 6, 9, -4,
   22, 40, -8, 16, 0, -7, -69, 6,
   42, 12, 0, -50, -33, -47, -45, -67,
   29, -27, -7, -37, -52, -35, -2, -1,
   61, -20, -20, 6, 36, 22, 3, -11,
   -22, 21, 17, -27, -35, -17, 3, -22,
   25, -14, 10, -12, -17, -7, 40, -27,
   -17, -44, 10, -23, 5, -32, -36, -21,
   14, -4, -62, -27, -46, 16, 2, 8,
   -20, 21, 94, 63, 18, 16, 46, -1,
   19, -38, -30, 56, 20, -34, -67, -12,
   -46, 11, -29, -70, -41, 22, -14, 17,
   25, -18, -88, -22, -24, -49, -51, 82,
   3, 28, -7, 15, 4, -37, 31, 7,
   -33, -7, -22, -37, -74, -4, 58, 13,
   -53, 45, 4, 44, 27, 70, 2, 12,
   72, 44, 70, 19, 23, 57, -32, 24,
   23, 51, 55, -14, -49, -11, -9, 44,
   -17, -37, 29, 62, 2, 5, 24, 13,
   32, -51, 15, 12, -41, -26, 63, 28,
   -15, -3, 9, -54, -9, 48, -17, -13,
   -5, -6, 15, 7, -38, 50, 10, -22,
   32, -9, -66, -14, -24, -22, 20, -13,
   -18, -30, 37, -6, 9, -1, 25, -33,
   10, 2, -12, -27, 45, 42, 61, 14,
   -2, -13, -9, -1, 3, -14, 25, 17,
   7, -7, 32, -30, 8, -4, 28, 29,
   -82, -65, 28, -1, 48, -24, -36, 7,
   -110, -26, -66, -3, -62, 13, 9, -17,
   -53, 42, -14, -50, 23, 26, 7, 48,
   -28, -35, 26, -25, -30, 86, 61, -65,
   22, -41, 64, -15, 93, -38, -10, -72,
   60, -85, -31, -12, 4, -53, -23, -67,
   -23, -8, -37, 50, 5, -43, 6, -8,
   -7, 68, 106, 18, -14, -24, -56, 31,
   5, -27, -34, -62, -54, 15, 19, -121,
   18, 12, -25, 56, 34, 23, 44, -16,
   57, -12, -18, -61, 84, 51, 23, 15,
   -38, 4, 95, 24, 20, -18, -5, -36,
   9, 4, 10, 10, 2, 0, 35, -7,
   -37, -14, 42, -45, 4, -9, 41, -3,
   -71, -36, 2, 14, -14, -52, -8, -37,
   -14, 13, -10, 21, -32, -75, -16, -23,
   -3, 21, -29, -9, 32, -63, 25, 108,
   27, -16, 38, -37, -47, -25, -60, -26,
   19, 35, 35, 23, 19, -25, -42, -20,
   49, 63, 15, -31, 44, 49, -18, -42,
   69, -18, -33, -66, -31, 24, -26, 8,
   -34, 24, 9, -19, -29, 66, -114, -28,
   -5, 31, 63, 22, 124, 45, -27, -28,
   10, 10, 10, 30, 13, 15, 40, 28,
   -68, 70, 19, 36, -33, 7, 28, -4,
   -22, 56, -42, 17, 32, -26, 17, 15,
   67, 20, 5, -106, -20, 37, 73, -24,
   -5, -5, 59, -25, 34, 33, 65, -21,
   8, -8, -12, -14, -5, -30, -18, -30,
   -4, -12, 9, 68, -39, -25, 79, -32,
   -28, -5, 8, -5, -21, -74, 7, -1,
   64, 34, -12, -13, 14, -61, 14, -45,
   -7, -23, -15, 20, -5, 4, -12, -14,
   -5, -13, -25, -8, 44, -3, -30, 9,
   38, 4, -49, -30, -7, -31, 52, -12,
   -34, -15, -36, 10, -10, -13, 4, -21,
   19, 14, 72, 35, 7, 53, 25, 12,
   -102, -31, -42, 40, 25, 4, -57, 23,
   54, -63, 54, -44, -18, 5, 5, 29,
   11, -35, 52, 23, 78, 29, 115, -33,
   -36, -39, 20, -31, 94, -32, 42, 13,
   -32, -8, 24, 56, 43, 94, 63, -7,
   102, 67, 42, 5, -85, 6, 15, -49,
   -42, 51, -18, 78, -15, -3, 52, -42,
   -33, 10, -38, 0, 22, 3, 54, 19,
   -15, 29, 40, 76, 9, -93, 2, 37,
   102, -83, 102, -22, -35, -15, -23, 76,
   22, -68, 1, 45, 80, 8, 30, 20,
   46, -30, 18, 6, 21, 29, 11, -30,
   -55, -48, 49, -18, -34, 19, -9, -23,
   10, -51, -39, 8, 52, -29, 26, 19,
   -38, -16, -21, -45, -25, -12, 21, -25,
   31, -71, 26, -49, 46, -8, 4, 77,
   -20, -18, 15, 4, 32, 51, 12, -46,
   34, -1, 52, -33, 79, 59, -28, -17,
   23, 104, 71, -22, 23, -36, 12, 7,
   -12, 8, -11, -97, 44, -65, -58, 28,
   22, -1, 41, -5, -28, -7, 32, 69,
   -19, 2, 26, -69, 21, 5, 8, -19,
   -33, -3, 28, 9, 27, -19, 30, 15,
   -37, -11, -6, -24, -16, 46, 84, -19,
   -1, -24, 39, -36, -36, -18, -36, -14,
   52, -51, 36, -12, 29, -11, -33, 22,
   -48, -20, -13, -32, -27, 52, 5, 12,
   43, 68, 38, -36, 22, -16, 19, 71,
   5, 13, -46, -27, -8, -39, -41, -6,
   26, 5, -6, 20, 20, -23, 26, 26,
   -32, -45, -18, -9, -36, 53, -14, 37,
   -30, 52, 64, 3, -36, 20, -37, 42,
   -51, -13, 18, -26, -103, -3, -4, 1,
   -5, 15, 38, 25, -49, -34, -17, 60,
   11, 30, 23, 33, 31, -33, -36, -1,
   35, 9, 36, 41, -66, 4, -27, -23,
   -65, 25, -6, -13, 20, 23, 3, 18,
   18, -71, -54, 6, -32, -19, -37, 17,
   8, 20, 3, 11, 1, 19, -28, -14,
   -6, -7, -36, -38, 38, -74, 34, -16,
   53, 15, 26, 16, 46, 3, -32, -7,
   11, -16, 16, -23, -52, 17, 2, -43,
   -39, -15, 24, 3, 36, -13, -16, 79,
   -21, 3, 29, -16, 16, 22, -2, -33,
   21, 18, 33, -26, -67, 10, -6, -10,
   62, -20, 5, -30, 8, -47, -64, -5,
   -21, -8, -19, -1, -26, 43, -5, 53,
   -4, -15, -10, -15, 3, -23, 24, -7,
   -13, -27, -18, 31, -1, -20, 26, -4,
   -5, 7, 7, 11, -10, 0, -20, 20,
   -19, 2, -9, 7, -2, 7, -2, 11,
   11, -16, -8, 14, 9, -10, 0, 12,
   6, -7, -9, 33, -9, -32, 9, -37,
   -108, -29, 16, 6, -35, 11, -1, -4,
   -32, 43, -8, -36, -50, 28, -5, 48,
   -49, 14, -4, -23, 14, 82, 30, 17,
   36, -8, 59, -13, 52, -24, -49, 86,
   -11, -45, 14, 67, 11, -16, -40, -36,
   -26, -49, 36, 10, -69, -8, 42, 2,
   -67, -58, -71, -14, -76, 59, 2, 77,
   3, 62, 6, -36, 35, 27, -28, -40,
   46, 6, 72, 11, 54, -10, -46, 43,
   48, 23, -82, 33, 30, 15, -48, 34,
   22, 58, -40, 19, 3, 65, 60, -46,
   3, -76, -3, -20, -11, 31, -42, -62,
   12, 30, -12, -37, 0, -20, -65, 25,
   -31, 2, -31, -33, -35, -1, 12, -45,
   8, -37, 31, -63, 21, -54, 58, -16,
   22, -30, -25, 41, -13, -19, 28, 46,
   -17, -5, 4, 57, -16, 10, 46, -7,
   -59, -6, -5, -50, -31, 26, -91, -39,
   -109, -80, -57, 5, -124, 82, 89, 48,
   48, -77, -37, -6, 69, -30, 27, -18,
   40, 17, 32, -2, 102, 22, 18, 18,
   41, 29, -15, 9, -43, 55, 11, 98,
   -11, -5, 6, 26, 6, 14, 3, -1,
   -10, -25, 49, 28, 11, 35, -48, 42,
   -18, 33, 61, 8, 51, -49, 76, -29,
   16, -44, -3, -12, -49, 50, -35, -5,
   42, 5, -23, 16, 23, 65, 25, -31,
   -101, 88, 9, -10, -17, 10, -1, -12,
   -42, 4, 15, 10, -15, 53, 11, 23,
   18, -20, -2, -28, 68, 1, 12, -42,
   17, -29, 52, -28, -16, -14, -1, -27,
   9, 19, -29, 12, 75, -1, 13, 34,
   27, -27, 6, 43, 62, 55, -8, 2,
   32, -23, -16, 14, 54, 12, -5, 23,
   25, -9, 26, -14, -12, 24, 39, -5,
   -26, -4, 21, -7, -15, -14, -27, -21,
   -81, 56, 59, -26, -30, 18, -59, 102,
   -53, 26, -113, -68, -9, 48, -7, 44,
   30, -5, 100, 45, 93, -26, 51, 9,
   21, 4, 26, -44, 20, 14, 42, 108,
   -22, 79, 10, 67, -43, 16, -23, 13,
   -6, 4, -11, 23, -106, 25, 87, -17,
   20, -60, -6, -21, 7, -33, 43, 29,
   21, 41, -33, 33, -22, -41, 65, 36,
   37, -10, 49, 40, 63, 41, -45, 58,
   -41, -38, 20, -14, 22, -7, -65, -1,
   -63, -4, -121, 108, 69, 37, 20, -89,
   22, 7, 4, -61, -21, 31, -74, -3,
   23, -16, -11, 32, 31, -18, 19, 24,
   6, -52, 28, 22, -1, -17, 34, -42,
   10, 5, -3, -40, -29, 12, 41, 23,
   35, -3, -39, -18, -21, -18, 6, 40,
   -30, 2, -25, -7, -15, 45, -22, -46,
   -27, 25, -7, -4, 7, 32, -54, 0,
   26, 3, 27, 22, 10, -24, -34, 58,
   38, 31, 16, -2, 27, -72, -14, 104,
   3, -1, 28, 9, -3, -37, -42, -21,
   -31, -33, 16, -64, 38, 82, -26, -35,
   47, -5, -35, -34, -19, -62, 37, -36,
   0, -44, -43, 16, -6, 12, -1, 12,
   -16, 50, -10, -5, -58, -22, 8, -37,
   2, 9, 9, 3, 2, -32, 2, 69,
   48, -2, -8, 7, 34, -8, -49, -14,
   -19, -4, -42, -18, 34, -121, -21, 40,
   -11, 35, -2, -70, -8, 21, 17, -53,
   -15, 8, 15, -1, 14, 34, 4, -18,
   13, -37, -31, -26, -20, -15, -29, 26,
   27, -4, -13, 2, -27, 3, -11, -14,
   -16, -17, 19, -5, 39, -4, -7, 9,
   -5, 66, -4, -34, -29, 11, -41, -12,
   -25, -25, -22, -10, -28, 6, 47, 78,
   5, 35, 36, 19, 3, 6, -29, 33,
   13, -8, -22, 24, 8, -3, -10, -20,
   -18, 30, 30, -9, -1, -8, 7, -26,
   10, -10, -12, -35, -38, 27, 23, -7,
   22, -21, 11, 29, -30, 59, -54, 3,
   44, -9, 3, 11, -20, -5, -8, -1,
   1, -9, 1, 13, -20, -5, 1, 13,
   -19, -14, -30, -7, 33, 12, -2, -16,
   24, -26, 12, -11, 15, 4, -25, -29,
   18, -13, 35, 7, 24, 14, -13, -8,
   4, 30, 3, 9, 59, 23, 12, -3,
   49, 1, -19, 8, -13, -10, -7, -12,
   24, -17, 29, -11, -24, 13, -24, -6,
   -32, -11, 24, -7, 4, 1, 34, 30,
   6, 23, 11, 3, 7, -32, -5, 15,
   -8, -24, -17, 35, 6, 47, -2, -13,
   28, 31, 18, -27, -1, 18, 20, -22,
   -6, -18, -7, -48, 27, -11, -26, 36,
   4, 13, -21, 12, -8, -27, -7, -22,
   20, 1, -40, 32, 6, 80, -20, 11,
   10, 56, 7, 52, -14, -74, -22, 43,
   3, -45, 8, -32, 33, -11, -15, 8,
   28, 8, -17, 25, 29, -18, 32, 21,
   -29, 23, 14, -38, 7, 10, 9, 1,
   -21, -20, -24, -50, 0, 42, -11, -51,
   51, 33, -42, -29, 8, -2, -2, -2,
   62, 20, 4, -79, -38, 11, 40, 0,
   -6, -44, -2, 15, 44, -53, -82, 37,
   34, 38, -22, -48, 11, 8, 21, 4,
   -11, -12, -19, 7, -27, 50, 9, -86,
   -3, 59, -26, -2, -12, 17, 31, 23,
   7, 7, 28, 11, 14, -2, -7, 2,
   -51, -1, -14, 38, -3, -26, 4, 15,
   -12, 17, 13, -6, 5, -29, 33, 4,
   42, -6, -1, -6, -31, 4, -18, -9,
   16, 29, -22, 3, -11, -17, -9, -43,
   -20, 46, -23, 11, -3, 0, -61, 8,
   -32, 28, -25, 84, -43, 1, 97, 23,
   -53, 36, 53, -8, 10, 62, -4, -44,
   -20, 17, 39, 64, -25, 62, 70, -44,
   -41, 22, -28, -23, 1, -19, -87, 61,
   -43, 13, 46, 27, -45, 19, -80, -26,
   -8, -6, 16, -23, -61, 50, 8, 94,
   34, 15, -11, 81, 13, -72, 75, -2,
   4, -28, -38, -1, 2, 20, 14, 0,
   33, -44, 57, 6, 24, 21, -60, -29,
   -18, 69, -7, -45, -64, 5, -8, 37,
   10, 4, 14, 65, 21, -20, -26, 16,
   17, 46, 31, -13, 16, 25, -30, -5,
   22, -2, -65, -9, -8, -9, -33, 0,
   3, -11, -5, 7, -64, -42, 31, 27,
   6, 14, 14, -12, 11, -5, -14, 55,
   -11, 11, 25, -18, 16, -3, -37, 20,
   -29, -45, 43, 40, -19, -25, 11, -85,
   6, -44, 11, 21, -13, -12, 42, 24,
   52, -13, -17, 15, 58, -34, -7, -40,
   -38, 19, -41, 18, -29, -6, -54, 32,
   18, 18, 25, -84, -35, -17, -15, -13,
   -35, -8, 58, -8, -15, -16, -32, 105,
   33, -5, 21, 15, 23, 61, 91, 38,
   -36, 26, -1, -10, 22, 17, -3, -36,
   33, -44, 5, 16, -58, 17, -41, 33,
   -29, 18, -6, -19, 45, 3, 28, 83,
   35, 14, -2, 5, -9, -17, 28, -14,
   -26, -58, -8, 5, 14, -13, 11, -2,
   9, -9, 10, -3, 18, -23, 4, -3,
   16, -40, 1, 2, 22, 27, 6, -25,
   -8, 2, -17, 8, -33, -11, 13, 2,
   36, -11, 26, 9, -19, 10, -6, -38,
   38, 20, 2, -2, -6, -35, 5, -40,
   -20, 29, 4, -5, 11, -8, 26, 8,
   26, 2, -6, 0, -14, 14, -13, -7,
   -2, -17, -12, 6, 3, -2, -15, -19,
   20, 17, -19, 53, -55, 10, 5, 50,
   13, -33, 6, 2, -6, 51, 33, -31,
   -47, 38, -31, -27, 21, 3, 35, -30,
   17, 47, -11, 3, -25, -14, 16, -28,
   -14, -11, -5, 32, -38, 18, -25, -3,
   15, 30, -2, -23, 0, 30, 13, -5,
   3, -10, 8, 65, 18, -12, 67, 40,
   21, -41, -20, 37, -51, 26, -45, -50,
   7, -11, 9, 54, 26, 23, -12, 68,
   -7, -5, -6, -16, -27, 55, -58, -40,
   -32, 4, 37, 50, -55, 27, -4, 3,
   17, 42, -18, 25, 13, -2, -28, 27,
   26, 26, 19, -14, 19, -10, -16, 33,
   15, 13, 25, -13, 13, -19, -33, 27,
   7, 9, 11, 10, 13, -25, -27, 18,
   38, 8, -24, -9, 30, -4, 5, 4,
   -15, -11, -14, 10, 0, 4, -36, -77,
   -25, 0, 15, -21, 10, -12, 24, 30,
   -5, -7, -20, -21, -6, -57, 14, -38,
   -12, -17, 56, -25, 117, -12, 120, 2,
   27, -16, -3, -46, 47, -29, 49, -3,
   30, -68, 28, -88, -7, -14, 121, -84,
   83, -50, 3, 7, -16, -9, 77, 67,
   -18, 75, 19, 29, 3, -22, -11, -19,
   22, 72, 13, -1, -13, 14, -43, -16,
   23, -57, -21, 29, -12, 27, -24, -40,
   5, 44, 4, -22, -44, -29, 10, -24,
   22, -30, 14, 48, 57, 10, 52, -11,
   -51, -10, -47, -42, -22, 47, -2, 27,
   -14, 32, -7, 20, 24, -34, -23, 5,
   15, -31, 9, 28, -10, 4, -15, -28,
   52, -5, -33, 14, -11, 28, -26, 32,
   35, 11, 15, 1, -66, -4, 11, -40,
   -16, -65, 5, 41, 32, -29, -18, 4,
   -43, 16, -14, -18, -16, -12, 28, 18,
   -12, -65, -2, -17, 24, 6, -13, 10,
   -47, -30, -7, -21, -47, -23, -57, 15,
   37, 61, 11, 7, 32, -12, 122, -43,
   -36, 21, 42, 21, -99, 13, -13, 2,
   -30, 10, 26, 22, 27, -2, 58, -6,
   1, -13, -27, -1, 24, -11, -42, 34,
   -34, -12, 80, -6, 6, 12, 32, -1,
   14, 30, 8, -26, -11, 23, 13, -11,
   11, -16, 33, 3, -1, -12, 1, -40,
   19, 22, 2, -34, 56, -24, -49, -20,
   -11, -8, 7, -1, -10, 27, 23, -34,
   2, 30, -7, -51, -21, -7, -2, 27,
   -31, 20, -3, 0, -27, 38, 0, 22,
   -18, -36, -39, 17, 23, 25, 4, 26,
   7, 4, -32, -3, 18, 13, 13, -10,
   12, 36, 27, -59, -1, -18, -39, -35,
   -3, 23, -4, -8, 11, -10, 16, -30,
   -7, 25, 13, -3, -15, -37, 12, 23,
   17, 4, -29, 5, -12, 15, 37, 21,
   -12, -46, 23, -18, 102, 8, 15, 32,
   -23, -26, -25, -6, -50, 3, -45, 16,
   1, -13, -8, 19, -58, -9, 38, 0,
   33, -23, -2, 36, -4, -44, -36, -42,
   4, 23, -33, -14, 15, 24, 10, -2,
   33, 2, -13, 17, 5, 2, 15, 11,
   -27, -31, 20, 41, 62, 4, -9, 31,
   45, 23, 17, -26, 24, 28, -32, 24,
   -21, 5, 25, -27, 17, -13, 0, 6,
   6, -15, -50, -14, -14, 7, 24, -6,
   -12, -28, -25, -19, -17, -1, 71, 39,
   -28, -25, 20, 19, -21, -15, -1, 7,
   18, -7, -17, -1, 15, 18, -53, 5,
   1, -10, 5, 7, -11, 10, 20, 7,
   -13, -2, -17, 9, -31, -3, -7, -11,
   -6, -29, 30, 2, 33, 16, 14, -7,
   -21, 2, -5, -26, 25, 8, 8, -11,
   -10, -15, -12, -29, -5, -3, -17, 0,
   -9, -15, 1, -7, -52, -27, -23, 8,
   -37, -13, 3, -105, 58, 26, -26, -73,
   -20, 37, -7, -16, 27, 5, -80, 4,
   -74, 9, 18, -16, -27, 20, -34, 53,
   -49, -26, -5, 5, -28, -1, 7, -49,
   6, -89, -18, -25, -9, -19, 0, -4,
   -35, -49, -6, -25, 7, 49, -21, 46,
   11, -46, 2, 33, 65, -20, 23, -80,
   -1, 8, 25, -25, -19, 4, 110, -7,
   -22, 3, 15, 35, 33, -19, 13, 30,
   -7, 39, 44, 38, -49, -7, -25, 0,
   -38, -3, 36, 41, -14, -41, -70, -4,
   0, 12, 5, -9, 12, 14, -6, -6,
   3, 28, 41, 29, -28, 45, 4, -28,
   43, 35, -10, -21, -1, 11, -8, -10,
   -5, 0, 19, -2, 19, 1, -18, -4,
   -18, -19, -24, 2, 36, 45, -11, -69,
   29, -31, -16, -23, -25, 41, 3, -5,
   18, 61, -29, 22, -57, 23, 3, 14,
   -23, 8, -30, 0, -27, 14, -29, 43,
   -14, -22, 38, -30, -2, -7, 34, -4,
   32, -48, -26, 25, -56, -9, 10, -18,
   8, 11, -22, -24, -13, 14, 14, 13,
   -12, 37, -29, -24, 23, -7, 26, -26,
   -34, -1, -10, 31, -3, -2, 27, 42,
   1, -33, 19, -17, 30, -9, 4, 6,
   -28, -12, -24, 10, -25, 7, -5, 6,
   1, -27, -24, 20, 0, 2, -15, -5,
   14, -8, 18, 0, 16, 41, -42, 15,
   31, 14, -13, -13, 37, -5, -4, 5,
   -35, -5, 24, 20, -2, 2, 1, 30,
   -21, 9, -19, -13, 23, -16, 34, 14,
   5, 0, 24, 31, -29, -6, -30, -20,
   -19, -1, -5, 15, -34, 0, 46, -24,
   16, 17, -15, 4, -12, -12, -13, 10,
   8, -23, -14, -23, -11, -13, 24, 9,
   -1, 56, 7, -12, -81, 31, 11, -12,
   -65, 51, 43, 25, -45, -3, 0, -25,
   69, -3, 69, 78, 57, -6, 11, -25,
   -38, -29, 11, -51, -40, -33, -52, 11,
   -19, 26, -57, -12, -86, -53, -49, 12,
   -54, 14, 17, 15, -2, -17, -23, 33,
   -4, -16, 13, 27, 5, -34, 18, 36,
   44, -4, 9, -7, -20, -15, 18, -55,
   11, -15, 9, 49, 73, -41, -28, 51,
   -17, 20, 20, -16, -82, -10, -10, 1,
   5, 32, 26, 47, -13, -53, -23, 12,
   -7, 50, 11, -10, -18, 16, -46, 38,
   2, -19, -46, -32, 20, 7, 6, 43,
   -46, 59, -16, -30, -9, 2, 34, 17,
   34, -14, 5, 1, -28, 37, 20, -26,
   -14, -43, -31, -1, 22, 23, 8, -19,
   -21, -37, -2, 9, 42, 33, 5, -59,
   -11, 48, 5, -19, 12, 8, 33, 31,
   32, 20, 6, 5, -32, -18, 16, 20,
   -51, -1, -27, -4, -34, 26, -1, 28,
   19, -16, 13, -6, -17, -2, -10, 8,
   0, -14, -1, -26, -7, 4, -18, 7,
   21, -15, -35, 0, -19, 28, 26, 34,
   24, 17, -18, -4, 8, 0, 42, 22,
   8, 22, 25, 38, 17, -7, 23, -14,
   -30, -33, -19, -39, -19, 14, 11, 2,
   -23, 24, 2, 11, -8, 19, 22, 21,
   16, -6, 1, -16, -50, 15, -6, -35,
   38, -14, 11, 17, 17, 13, -33, -15,
   17, 15, 22, 22, 13, -30, -24, 9,
   7, -39, 8, -6, -4, 8, 26, 8,
   -30, -22, -33, -28, 26, -13, -18, -27,
   -21, -5, 12, -16, 29, -19, -40, 37,
   -6, 14, -34, -10, 18, -16, -34, -10,
   22, 42, 36, -9, -26, -5, 41, 34,
   -21, -41, -16, -18, -17, -29, -6, -5,
   26, 37, 12, -21, 35, 23, -28, -4,
   -14, 21, 84, 17, -65, 15, 25, -48,
   -69, 32, 10, -15, -12, 72, 3, -17,
   -15, 29, 29, -7, -27, -26, -39, 9,
   -27, -8, -45, 25, -8, -36, -77, -52,
   59, 24, 56, -6, 5, 2, -12, 35,
   14, -10, -37, -24, -6, -33, 40, -6,
   42, -27, -42, 43, -6, 22, -10, -32,
   -6, 29, 1, -22, 10, -13, -36, 52,
   -18, 44, -28, -34, 17, 8, -46, -43,
   -5, -4, -2, 34, -13, 57, 11, 38,
   -1, -44, -30, -25, -37, -38, -4, 54,
   8, 31, -26, -40, -12, -17, 13, -38,
   47, -16, -26, 34, -39, -12, 39, -37,
   -8, -5, -17, -48, 36, -9, 8, 23,
   22, -9, 17, 14, 25, -8, -53, -27,
   22, 6, 42, 14, 14, -57, -17, -12,
   2, -41, -24, -12, -27, -8, -27, 11,
   -30, -7, -24, 35, -3, 16, 54, -37,
   40, 3, -35, 12, 52, -38, 33, -16,
   23, -46, 11, 27, 44, -11, 27, -34,
   -31, -36, -8, 18, -20, -11, 55, 42,
   -74, -2, 44, -15, -8, -26, 17, -3,
   -1, -33, -47, 3, 39, -4, -26, 13,
   43, -17, -10, -7, 7, 23, -1, -31,
   -39, -22, -16, -6, -17, -42, 13, 5,
   4, 26, 25, 33, 22, -15, 21, -14,
   40, -12, 10, 51, -28, -4, 11, 23,
   -60, 17, -21, 23, 26, -42, 18, 16,
   -2, 22, -6, -18, 67, 43, -32, -7,
   -30, 5, 12, -4, 33, 14, 1, 7,
   7, -23, 16, 10, 14, -3, 18, 24,
   -1, -11, 15, -10, -25, -9, -10, 6,
   -6, 25, -10, 25, 16, -3, -18, -30,
   9, 22, -12, -24, 7, 18, 1, 2,
   -18, 2, -27, 25, -16, -4, -15, 31,
   -43, -4, -16, -95, 33, -6, 7, 1,
   -5, 5, 39, -45, 16, 41, -18, 24,
   19, 34, 12, 37, 3, -30, -33, -31,
   -9, -13, 2, 13, -24, -17, -58, -35,
   -18, -2, -17, -2, 88, -20, -63, -24,
   -13, -1, 2, -32, 31, -17, -25, 43,
   37, -1, 33, -35, 9, 11, 41, 27,
   -5, -7, -36, -51, -8, 8, -15, 14,
   -17, -10, -21, -79, 4, -36, 36, -11,
   -13, -1, 42, 14, 20, 2, 2, -27,
   19, 10, -33, -22, -6, 15, 28, -9,
   -12, -72, -32, 43, -20, 21, 8, -15,
   11, -9, 35, 33, 1, -20, -17, -46,
   55, -49, -32, 13, -15, -3, 11, -15,
   -20, -1, -32, -33, 46, 9, -25, 5,
   40, 12, 2, 21, -19, -58, -20, -13,
   -21, -18, 18, -29, 19, -19, 0, -11,
   -18, -54, -24, -16, -17, -37, -32, -13,
   43, -34, 9, 24, 45, -14, -41, -15,
   15, 26, 15, 45, 59, -9, -3, -45,
   -18, -1, 13, -15, -47, -18, -12, -19,
   -7, -29, 30, 0, -41, 5, 42, 21,
   -7, -22, -41, -43, 99, 10, 25, -22,
   -19, -19, -46, -1, 43, -29, -14, -58,
   -26, 58, -6, -18, -64, 27, -42, -1,
   -44, 33, -16, 30, -7, -60, -5, 26,
   7, 10, 5, 21, -43, 6, 14, -31,
   48, -39, -9, -15, -4, -76, 12, 23,
   5, 28, 0, -15, -18, -19, -35, 19,
   13, 23, -12, -22, 3, 34, 36, -8,
   -9, -19, 18, 26, 10, -5, 19, 1,
   18, -8, 3, -4, -19, -26, 1, -12,
   11, -5, -2, -19, 15, 13, 9, 16,
   -37, -17, 19, 15, -16, 3, -19, -8,
   -10, 22, 10, 37, -6, 20, 3, 56,
   15, -26, 43, -2, -52, -28, -8, 45,
   -10, -1, -13, -11, -27, 33, -2, -34,
   -33, 9, -28, 12, -17, -40, 25, -13,
   -12, -2, 43, -4, -8, -40, 0, 20,
   -26, -23, 13, -23, 0, 21, -14, 23,
   11, -9, -7, -5, 23, 16, 70, -4,
   -1, 21, -26, 0, -30, -34, 11, 4,
   16, 24, -22, 22, 25, -11, 0, 23,
   -12, -36, -2, 1, 20, -9, -16, -11,
   -21, 10, 43, 0, 16, -17, -8, 40,
   -16, 8, -22, -8, -35, -23, 34, -25,
   5, -7, 9, 31, -8, 26, 5, 27,
   -25, -12, 9, -16, -19, -30, 37, 11,
   17, -6, -9, 21, -31, -19, 12, 2,
   2, 8, 2, -30, 33, -8, -34, -14,
   39, 1, -19, -5, 7, -6, 8, 35,
   -5, -8, -6, -10, -2, -3, -25, -26,
   -11, 31, 7, 32, -2, 14, 12, 16,
   19, -16, 4, -28, -24, 1, 19, -31,
   -29, -4, 37, -37, 46, -38, -22, 25,
   53, 3, -21, 31, -26, 14, 26, -43,
   5, 34, -2, 10, -20, 10, -46, -18,
   -1, -9, -13, -31, 12, -16, 47, -13,
   -32, 54, 15, 30, -22, -26, -9, -19,
   -17, 12, 56, -41, -15, -35, 15, 14,
   -1, 44, 13, 14, -13, -37, -23, 15,
   14, -7, -45, -31, 45, 5, -47, 22,
   21, 5, -18, -28, -19, -38, 34, -2,
   -26, -27, 41, 25, 26, -6, 9, 42,
   16, 29, 33, -27, -18, 45, -5, -48,
   -16, 10, -25, -7, -28, 6, -44, -16,
   -29, 19, -18, -17, -17, 14, 3, 19,
   4, 20, 12, 21, 16, -40, 2, 20,
   -9, 14, -16, -32, -16, -19, -32, 27,
   16, 11, 13, -21, -6, 32, -8, 7,
   10, 52, 20, -2, -12, 13, -20, 1,
   14, 20, 10, -45, -21, -12, -40, -7,
   -42, 2, 32, 62, -13, 39, 14, -39,
   68, 16, 77, 17, -67, 28, -109, 13,
   23, -46, 10, 4, 55, -23, -5, 35,
   -7, 91, -22, 122, -8, 25, -78, -44,
   -91, -37, -19, -3, 35, 32, 37, -11,
   57, -2, 62, 40, 54, 90, 85, 107,
   -36, 2, 23, -23, -29, -60, 19, -35,
   -24, 79, 3, 88, 2, 22, -15, 64,
   -16, -28, -11, -77, 53, -33, -115, 43,
   2, 25, 0, -70, -7, 43, -121, -62,
   9, -6, -5, -10, 10, -6, -3, 13,
   11, 36, -10, -8, -28, -10, -20, -26,
   12, 1, -20, 40, -20, -10, 53, 15,
   11, -19, 27, -6, -23, 19, 6, 35,
   13, -19, 31, 107, 44, 11, -33, 30,
   42, -11, -13, 4, -12, 10, -24, 10,
   7, 21, 18, -4, 34, 11, -5, -43,
   -58, -18, 0, 85, -24, -1, -58, -23,
   -4, -16, -27, 23, 11, -48, 22, 18,
   58, -48, 3, 2, -39, 27, 96, -60,
   -40, -39, -10, 19, 44, 68, 19, -4,
   -35, 6, 53, -21, -23, -31, 17, -7,
   -68, -85, 79, 20, 26, 18, -38, 13,
   -19, -19, -7, -24, -21, 13, -24, 103,
   -44, -10, 6, -75, 25, -23, 10, 8,
   43, -47, 67, 3, 16, -2, -21, -48,
   -15, -37, -6, 46, -30, 2, 51, 27,
   -23, -54, 39, 22, -34, -11, 20, 22,
   21, 16, 4, 10, -13, 24, 18, 18,
   10, -7, 81, -45, 2, 9, -2, -26,
   3, 18, 10, -12, 33, 25, 24, -2,
   -10, 17, 9, -38, -10, -33, 21, 5,
   -25, -13, -18, -33, 8, -23, 51, 36,
   -8, 23, 29, 7, -10, 4, 26, 26,
   36, -23, -25, -5, 22, -44, 8, -23,
   7, -47, -13, -2, -22, 14, 4, -2,
   6, 21, 30, -2, -2, 24, 15, -24,
   -26, -23, 39, 42, -41, 2, -30, -2,
   -8, -7, 2, -20, -16, 2, 17, 29,
   6, -28, -27, 11, 11, 9, -8, -17,
   14, -13, -30, -33, 25, 30, 11, 6,
   2, -15, -15, 33, 6, 19, -11, -35,
   -14, -40, -23, 15, 12, 37, -24, -22,
   -9, 35, 12, 9, -23, 4, 20, -7,
   34, 8, -2, -2, 12, 29, 0, 41,
   -19, 25, -11, 24, 11, -16, -29, 11,
   -25, -19, 0, 1, 22, 17, 2, 28,
   14, -34, 22, 16, 20, 38, -23, 13,
   3, 26, -4, 8, 16, -14, -35, -8,
   -18, -26, 26, 37, -14, -27, -4, -3,
   3, 15, 18, -22, -30, -9, 21, 37,
   39, 26, -13, -8, -16, -36, 30, 21,
   24, -6, 10, -5, 16, 22, -37, -27,
   -10, 30, -8, -21, 9, 26, -27, 3,
   -41, -16, -6, 4, 9, -12, 8, 25,
   30, 11, 42, -21, 54, 33, 22, 7,
   -29, 16, -20, -27, 17, 26, 22, -19,
   -35, -13, 13, 19, 11, -4, 21, -32,
   9, -3, 18, -38, 1, 41, 27, -57,
   11, -9, 27, 21, 24, -5, 18, 8,
   21, 12, 28, 7, -21, 18, 28, -3,
   -32, 11, 33, -7, -12, -9, -13, -22,
   3, -14, 19, -2, -3, -5, -19, -33,
   34, 31, 17, 26, -6, 19, -8, -12,
   -6, 27, 59, 11, 47, -27, -17, -8,
   -15, 16, -33, -34, 0, -7, -3, 44,
   -10, 8, -35, 9, -28, 7, 6, -31,
   -8, 13, 26, -37, -17, -39, 22, -25,
   30, -13, -7, -19, -13, 14, -16, -1,
   -26, 5, -24, 9, 6, -41, 3, -1,
   12, -6, -6, 27, -30, -21, -13, 2,
   -13, -17, 20, -29, -42, 4, -1, -21,
   -41, -18, 5, 32, -81, -20, 36, -16,
   31, 20, 29, -22, 44, 4, 0, 41,
   -8, 1, 20, 8, -3, -43, -17, 17,
   -5, -33, -10, -48, -31, -34, 61, -21,
   -11, 12, 4, -1, -30, -19, 43, 12,
   3, 29, 31, 0, -20, -28, -27, 0,
   37, -4, -6, 6, -55, 45, -4, 37,
   13, -8, -17, 30, -22, -17, -28, 18,
   -4, 41, -25, 23, -39, -4, 14, -15,
   21, 6, 44, -62, -10, 0, 27, -41,
   -31, 18, 18, -10, -38, 15, -36, -25,
   11, 65, -19, 9, 4, 23, 27, 24,
   17, 32, 23, -29, -13, 33, 14, 20,
   -14, 15, 3, 0, -8, 21, 29, 42,
   -20, -26, 48, -8, 25, -25, 21, 0,
   16, -16, 22, 5, -10, -25, -30, -15,
   -9, 18, 22, 4, 10, 6, 26, 66,
   -22, 38, 34, -9, -41, 7, 24, -4,
   -13, 15, -6, 0, -5, 19, 2, 9,
   -6, 37, 8, 13, -8, -13, -6, 4,
   -7, 14, -6, 6, -2, -24, -21, -9,
   -16, 8, -8, 18, -14, 0, -6, 4,
   -11, 24, 3, -26, -10, -4, 0, -10,
   -10, -2, -4, -6, -11, 5, -21, 10,
   -34, 9, 8, -4, 29, -21, 7, -10,
   -3, -11, -13, -2, -10, -25, -29, -24,
   15, -10, -14, 18, 5, -20, -9, 20,
   -24, -5, -8, 24, 8, 1, -20, 27,
   -2, -3, -1, 22, 19, -14, 16, 4,
   7, 11, 1, -11, -13, 25, -2, 2,
   -9, 4, -12, -5, 2, -7, 8, 1,
   7, 18, 8, 12, -12, -10, -5, -17,
   9, -8, -3, 20, 13, 24, -20, 31,
   13, 9, -18, -34, -11, 9, -7, -1,
   0, 9, 9, -3, 1, -4, -14, -7,
   -6, 0, 10, 12, 4, -13, -20, -30,
   19, -6, 15, 22, -17, 15, 9, 21,
   -73, -44, 10, -1, -12, -11, -11, -17,
   23, 16, -17, 28, -18, 3, 19, 25,
   -20, -4, -11, -11, 9, -28, -21, -9,
   -39, 1, 14, 15, -44, -17, -47, -2,
   -32, 3, 16, 32, -50, 18, 8, -18,
   41, 5, 14, 12, -30, 16, 14, 12,
   5, 1, -22, -8, -36, 5, -2, -5,
   31, -7, -6, 24, -25, 15, -19, 49,
   45, -2, 64, 55, 60, 12, 37, 19,
   5, -13, -13, -6, -6, 8, 14, 13,
   21, 27, 10, -32, 0, -7, 2, 65,
   -19, 8, -8, 33, 4, 30, 8, -18,
   0, 9, 28, -5, -18, 16, 12, -32,
   -18, 23, 18, -6, -50, 35, 32, 20,
   31, 9, -9, -8, 4, -9, 21, 29,
   28, -36, -38, 5, 10, -8, 35, -10,
   12, -15, -4, 5, 29, 13, -5, -6,
   23, 6, 23, -58, -39, -3, 80, -11,
   -54, 24, 45, -26, 15, 50, 23, -56,
   6, -8, 38, -26, -2, -17, 81, -4,
   -13, -22, -47, -19, -11, -60, 3, 23,
   -32, -83, 27, -13, 20, -25, -14, -11,
   40, 33, 61, 21, 32, 62, -11, -19,
   -79, -19, -65, -9, -21, 13, -5, 56,
   54, -11, -56, 64, 20, 27, 55, -36,
   49, 15, 61, 39, -2, -3, -61, -1,
   37, 61, -41, 0, 61, 32, 19, -26,
   37, -46, -13, 22, -54, -40, 5, -30,
   -13, -1, -29, -7, 34, 52, -34, -103,
   27, -4, 37, 28, -25, 3, -15, 6,
   8, -24, 43, -2, -3, 38, 0, 5,
   30, -1, 1, -19, -112, 20, 24, -29,
   26, -24, -28, 9, 71, -16, 48, -23,
   53, 26, -38, 6, -6, 14, 27, -12,
   15, -31, -53, 1, 44, -10, 45, -8,
   -40, -19, -33, -25, -18, 10, 6, -39,
   -29, 13, 27, -80, 6, 18, -32, -12,
   15, 59, -54, 15, 30, 8, -9, 1,
   18, 36, -26, 17, -26, 15, 33, 27,
   4, -77, -17, -50, -90, 34, 16, -22,
   22, 7, 16, 8, 44, 15, 7, 17,
   -19, 24, 127, -22, 32, -24, -22, -52,
   -35, -56, 13, 7, -37, 42, 6, -17,
   29, 67, 15, -2, 27, 28, -2, -20,
   43, 12, 78, -39, -97, 9, 22, 0,
   20, 25, -7, -19, -49, -20, -74, 20,
   22, -8, 3, 30, 11, -8, 1, 41,
   -24, -8, 20, 12, -36, -7, -25, 21,
   30, -18, 13, -14, -31, -3, 2, -14,
   64, -41, 12, 23, -18, -5, -32, 0,
   4, 21, -28, -16, -9, -16, -18, -27,
   46, -15, 50, -30, 18, 7, -27, 10,
   29, 26, 3, 41, -22, 19, 8, -19,
   22, -105, 25, 66, 1, 54, 9, -81,
   27, 7, 71, 29, 58, -12, -29, 10,
   67, -29, 48, 38, 10, -58, -4, -41,
   20, 32, -63, 4, -43, 48, -18, 42,
   44, 4, -25, 60, 17, -42, 28, -37,
   -36, -3, 8, -19, -26, 41, -5, -15,
   -3, 59, -70, 44, -3, 36, 45, 6,
   6, -23, 13, 54, 78, -54, 29, -60,
   38, 40, 2, -4, 18, -46, -49, -37,
   28, -40, 61, 17, 36, 51, 59, -2,
   6, 82, -104, -33, -44, 23, -36, 28,
   -30, 2, 34, 63, -30, 18, 5, 23,
   -5, 37, 29, -39, -13, 12, -26, 5,
   62, 32, -30, 49, -8, 37, 22, -24,
   18, -5, 1, -20, 42, -12, 9, 6,
   -8, 27, -11, -33, 3, -6, 37, -31,
   1, 41, -27, 41, 4, -1, -21, 28,
   50, 6, 43, -1, -33, -39, -21, 22,
   -82, -79, 31, -66, 10, 13, 24, 36,
   -48, -17, 32, -33, -30, 43, 5, 16,
   -49, 0, 36, -33, -49, -29, 14, -3,
   43, -12, -7, -19, 9, 28, -20, 29,
   29, -24, 8, -57, 3, -21, -27, -30,
   42, 3, 34, -1, 7, 52, 67, 13,
   -2, -60, 64, -14, -10, 45, -36, 22,
   27, -75, 40, 102, 5, 44, 29, -32,
   -43, -75, 52, 17, -30, 25, 5, -38,
   -49, -24, 50, -25, -64, 44, 29, -26,
   0, 19, -26, 85, 1, 2, -84, -5,
   -20, -46, 44, -1, -18, -32, -7, -3,
   15, 56, -10, -29, 20, 19, 16, 42,
   34, -27, -20, 47, -27, 52, -3, 34,
   -61, 44, 1, -10, 16, -12, -11, 17,
   -17, 17, 4, -18, -4, -12, -7, -1,
   -35, 39, 20, 34, -4, -9, 0, -14,
   -26, -41, 13, -3, 5, -6, 31, 11,
   -10, 15, -2, 112, 46, 32, -101, -53,
   -11, 36, 73, 28, -12, 47, -41, -34,
   4, -62, -118, -116, -108, -73, -92, -46,
   71, 11, -19, 112, -37, 88, 32, 66,
   61, 109, -12, 84, 42, -39, 121, -30,
   -51, 18, -29, -66, 117, 19, 52, 32,
   107, 95, 125, 26, -25, 88, -22, -114,
   55, 13, -2, 32, -50, 104, -71, -69,
   15, 20, 2, -1, 97, -26, 30, 44,
   32, 46, 9, -65, 85, -62, 21, -63,
   119, -75, 126, 127, 82, -127, -128, -83,
   -100, 59, -109, 17, -58, 11, 118, 5,
   47, 39, -31, -36, 42, 31, 41, -7,
   -21, -38, 21, 62, -52, 13, -110, -90,
   127, -126, 34, 13, -24, -8, 62, 47,
   -117, -7, 37, 55, 5, -25, -115, -17,
   -50, -67, 127, -3, 33, 22, -72, -61,
   98, 127, -36, -81, -98, 77, 103, 47,
   127, 68, 6, 127, -57, 16, -56, -104,
   108, 66, 127, 19, -18, -50, 72, -81,
   -81, -17, -54, -44, -4, -48, 38, -21,
   47, 46, 16, -26, -126, 3, -49, -4,
   125, 36, -77, -23, -89, 70, 107, 108,
   15, -1, -86, -15, 104, -78, -66, -28,
   -15, -117, -126, -30, 28, 25, 11, 127,
   -17, -42, 45, -90, 76, -11, 127, -30,
   16, 100, -39, 11, 127, 57, -30, -36,
   31, 51, 3, -11, -73, 29, 61, -78,
   -98, 126, -57, -42, -54, 6, -97, -87,
   21, -71, -40, 124, -40, -22, -68, 32,
   71, -102, 71, -46, 127, 12, 2, -52,
   6, -54, -59, 50, 127, 30, 43, -30,
   116, 27, 51, -93, 127, -32, -17, -44,
   -101, -35, 99, 35, -121, 114, 122, 10,
   -41, 127, -126, 39, 30, -6, -14, -10,
   -86, 123, 14, 20, -54, 34, -21, 7,
   -50, 127, 6, -97, -7, -82, 127, -62,
   17, 33, 127, 11, -127, 9, 19, 89,
   -5, -80, -17, 38, 127, -40, -84, -56,
   21, -26, -99, 45, -53, -100, -127, 127,
   95, 18, -119, -4, 6, 47, -127, 121,
   -22, 24, 125, 11, 14, -30, -47, -56,
   52, 113, 108, 18, -16, 48, 124, -60,
   37, -121, -127, -38, -117, -8, 73, 23,
   -71, -52, 74, -115, -59, 127, 26, 122,
   -112, -53, 28, 110, -52, 77, -60, -12,
   -100, 120, 29, 17, -126, 28, -55, 39,
   56, -66, -80, 65, 22, 35, -17, 21,
   14, -115, -57, -39, 52, -92, -34, 59,
   127, 11, -128, 17, -16, 17, -126, -32,
   -119, 30, 126, -58, 73, 31, 117, 47,
   -3, -20, 41, 1, 36, 55, -105, -27,
   -82, -50, 119, -85, -127, 33, 18, -3,
   17, -65, -128, 17, -5, 21, -9, 29,
   95, -36, 20, 19, -98, 29, 121, 51,
   -1, 22, -80, -126, 89, 24, -51, -26,
   -116, 94, 23, -49, -60, -2, 81, 21,
   -20, -42, 43, 113, -89, -45, -124, 118,
   21, -21, 19, 91, 118, 42, 125, -33,
   105, 54, 2, 42, 4, -127, 30, -72,
   -49, -124, 57, -95, 13, 126, -12, -30,
   57, 75, -18, -21, -13, -80, 59, -119,
   -89, 67, -41, 66, -127, 25, 16, 115,
   -32, -1, 30, 80, -79, 43, -115, 66,
   -10, -19, 61, 18, 86, -4, -127, 27,
   43, 124, -117, 66, 98, -25, 70, -23,
   74, -113, 20, -54, 100, -28, -125, -66,
   80, 63, -36, 45, 14, 33, 74, -126,
   -1, -107, -16, 28, 29, -10, -14, 36,
   -112, 65, 26, 20, -124, 65, 75, -20,
   32, -59, 127, 48, 126, 30, 79, 119,
   -2, -33, -33, -27, -12, 36, 40, 33,
   125, -19, 88, 107, 125, -105, 127, 119,
   -90, 11, -22, 39, 62, -100, -22, -67,
   -13, -25, -115, 87, -104, 21, 40, 19,
   -14, 45, 71, 63, 68, 98, 4, -127,
   -88, -38, 75, 73, 16, 32, 123, -103,
   -56, 12, -100, -115, 76, 23, 20, -20,
   90, -96, -122, 104, -2, -119, -88, 127,
   -126, 106, -20, 127, 92, -33, 35, 11,
   117, -127, -65, 127, 44, -117, -97, 24,
   -18, -45, 24, -43, -36, 23, -109, 37,
   -33, -43, -45, -16, 125, -119, -97, -92,
   -70, 108, 15, 113, -77, -49, -10, 32,
   -40, 74, -73, 33, -111, -1, 92, -74,
   -22, 0, 92, -39, 126, 46, -61, -81,
   59, -102, -73, 104, 116, 9, -111, -104,
   -79, 15, 111, 52, 6, -13, -65, 73,
   -50, -16, -113, 38, -6, -71, 21, -13,
   67, 52, -77, 81, -3, 27, 107, -61,
   -58, -43, 94, 63, 55, 94, 34, 115,
   -67, -43, 59, 102, -36, 83, -98, 61,
   27, -65, -20, -46, 125, -28, -77, 76,
   -58, 101, 77, -125, -16, 102, 68, -125,
   111, -43, -13, 32, -115, 123, 101, -29,
   -115, -26, -126, 27, 22, -27, 3, -21,
   -88, 126, 127, 88, -83, 68, 21, -127,
   51, 81, 34, 26, -109, -10, 34, 57,
   0, 12, 17, 85, 46, -113, 127, -126,
   63, -66, -19, 26, 63, -127, 18, 127,
   -102, -20, 123, 107, 125, 80, 127, -78,
   24, -56, 108, 103, 90, -38, 44, 54,
   -35, 63, -54, -8, 58, -48, 44, -126,
   125, 116, -29, -77, 39, -45, -47, -90,
   -117, 71, -9, -39, 127, -33, -81, -10,
   31, 40, 119, 25, 75, -122, -40, 127,
   -81, -114, -33, -22, -21, -35, 127, -121,
   29, 49, 115, -66, 64, 99, -48, 78,
   34, -2, -15, -126, 121, 11, 112, 126,
   7, 58, -124, -35, -10, 73, -93, 51,
   -119, -18, 72, -8, -81, -57, -126, -29,
   -68, -60, -85, -125, 47, 9, -97, -9,
   104, 88, -52, -20, -35, 119, -68, 62,
   -89, 24, -127, -10, 124, -32, -114, -61,
   67, -126, -65, -82, 39, 113, 43, 126,
   -113, 98, 62, -90, 88, -107, 43, 77,
   -54, 127, 125, 88, -23, -80, -72, 5,
   40, 20, -2, 1, 125, -45, -59, 48,
   -6, -11, 109, 86, 126, 126, 122, 2,
   -45, 11, 41, 23, 89, -14, 86, -127,
   12, -90, 98, 33, 126, -14, -49, -111,
   -80, -50, 106, -68, -19, 80, 126, -121,
   126, 15, -121, 10, 74, 47, -72, 29,
   -75, 57, 53, -62, -29, 118, 83, 125,
   -32, 127, 124, 120, 86, 56, 36, -49,
   -125, 116, 103, -53, 88, -40, -20, 71,
   84, 36, 51, -127, 68, -61, 16, -126,
   24, 27, -9, -97, 92, -4, -54, 49,
   19, 127, -124, 55, -3, -45, -124, -9,
   -8, 37, 121, -56, 0, -127, 126, 127,
   -30, -80, -91, -59, 42, -77, -18, -11,
   -87, -65, 97, -10, -121, 2, -126, 54,
   -90, 125, -37, -123, -32, -113, 120, 47,
   -5, 15, 60, -125, -9, -49, -57, -49,
   39, -73, 107, -118, 56, -117, -57, 29,
   -22, -82, 39, -29, 41, -30, 78, -103,
   75, -62, -55, -113, -70, -127, 65, 78,
   126, -118, -77, -127, -116, 14, -106, 127,
   -128, -12, 127, 127, -128, -127, -37, 91,
   -127, -6, 115, -126, 47, -115, -104, 9,
   -43, -89, -77, 9, -127, 14, 127, -10,
   -50, -75, 70, 16, -97, 23, -128, 50,
   1, 53, -40, -128, -127, 65, -22, -126,
   123, 57, -118, 93, 120, 68, 110, 5,
   31, 31, -126, 93, -127, -37, -123, 69,
   2, -75, -42, 27, 45, -16, -9, -127,
   71, 126, 73, -45, 84, -28, -1, -15,
   47, 74, 126, 37, 30, 104, 26, 96,
   26, -27, 24, 14, 2, 101, 88, -21,
   -124, -47, 123, 2, -124, 127, 40, -122,
   -84, -120, 127, -111, 38, -125, 124, 55,
   127, -4, 26, -120, -16, 6, -61, 3,
   -87, -83, -50, -43, 102, 71, 82, 64,
   -34, 39, 70, -16, -110, 109, -123, 12,
   -124, -40, -77, -73, -126, 27, 38, 77,
   127, 24, 47, -74, -44, -90, -89, 12,
   106, -127, 106, -30, 81, -71, -54, -55,
   -122, 12, 48, -60, 127, 61, -41, -127,
   -19, 63, -52, -118, -93, -106, 34, -47,
   34, -42, -62, 16, -127, -128, 55, -100,
   67, -8, -52, 67, -95, -3, 119, -64,
   -70, -38, -124, -100, 39, 18, -48, 35,
   -78, 52, -121, 121, -19, 125, -66, 87,
   -49, -17, 41, 101, -110, 22, 109, -14,
   -127, 127, -20, -25, 28, 4, 33, 42,
   -31, -19, -58, 1, -1, 120, 55, -127,
   116, 125, 103, -1, 39, -63, -106, -32,
   57, -94, -24, 111, 113, 127, -35, -27,
   -18, -12, -126, 38, -43, 24, -15, 121,
   -40, 15, -60, 1, 110, 14, -78, 84,
   17, -17, -26, 100, -16, 48, -14, -38,
   31, -60, 19, -67, 101, 126, 38, 104,
   119, 6, 52, -24, -2, 95, 120, 61,
   -127, 17, -81, 87, 41, -26, -29, -126,
   56, 32, -45, -127, 16, 83, -32, -46,
   0, -23, 22, -35, -69, -12, 87, -36,
   60, -46, -118, 127, 115, -3, 32, -32,
   56, 65, -53, -80, 7, -127, -34, -24,
   56, 14, -52, 58, 125, 70, 83, 32,
   72, -7, 46, -12, -85, -78, -13, 33,
   -19, 44, 8, -7, 22, 60, -34, -23,
   2, 5, -122, -39, -38, 81, -4, 19,
   115, 123, 111, -104, -71, -16, 124, 46,
   37, 49, 127, -8, 127, -46, 116, -111,
   104, -20, -59, 15, 122, -9, -71, -15,
   125, -104, 126, -91, 80, 88, -25, 127,
   -27, 127, 127, -16, -46, -116, -62, -127,
   53, 6, -21, 32, -127, 74, -98, -83,
   28, -96, 32, -20, 30, -92, -94, -42,
   102, -54, 77, -37, 93, -124, 125, -104,
   48, -127, -123, 45, 127, -126, -125, -125,
   -127, -66, 32, -47, -126, 127, 107, 126,
   -127, 127, 85, 12, -128, -82, 81, 121,
   -82, 25, 127, -63, -126, -45, -94, -115,
   -20, -128, 4, 127, -125, -37, -13, -1,
   -82, -34, -38, 13, -34, -53, -127, -125,
   126, -125, -56, -99, 42, -76, -127, -119,
   -46, 5, 21, -70, 109, 33, -6, 13,
   126, 8, 91, 52, -33, -127, 63, -73,
   103, -40, 25, -61, -61, -44, 38, -22,
   127, -127, -102, 125, -8, 69, -120, 5,
   -70, -65, 127, 120, -40, -109, 34, 62,
   12, 45, 40, 127, 125, 95, -125, 10,
   -114, -40, 117, 63, -90, -57, 29, -75,
   109, -71, 110, -112, -3, 51, 45, 113,
   -126, 74, -48, -12, 108, 90, -5, -19,
   87, 29, 3, -13, 127, 111, -19, 15,
   17, 21, 92, -4, -104, 80, -33, -53,
   -14, 38, -127, -6, 96, 117, -60, -62,
   -60, -3, -10, -92, 90, -121, -42, -36,
   125, -71, -127, -126, 124, 127, 62, -37,
   -79, -127, 31, 127, 122, 34, 124, -34,
   76, 125, -104, -126, -126, 18, 19, -14,
   -122, -97, -126, -124, 28, 127, 63, -99,
   93, 127, -56, 122, -64, -80, 62, -125,
   31, -32, 32, 121, -5, 97, 5, 17,
   -52, -26, 123, 75, -66, 20, -72, 29,
   0, 92, 32, -36, -69, -52, 89, 106,
   97, -125, -77, 107, -50, -37, -18, -3,
   -59, -24, -126, -21, 52, -126, 17, 126,
   -127, -35, 113, -126, 44, -125, 13, 46,
   -100, 9, 55, 24, -53, -45, 127, -19,
   -46, -40, -103, -33, 119, 107, -83, 127,
   28, -116, -6, 119, 2, 28, 30, -44,
   102, -37, 86, -79, 127, -54, 97, 120,
   -81, 27, -47, -54, -4, -121, -55, -123,
   7, 115, 121, -41, -112, 126, -95, 126,
   112, 21, -126, -29, -50, -60, -77, -12,
   71, -15, -127, 29, 97, 126, -103, 28,
   125, -125, -51, -1, 127, -127, -72, -57,
   -31, 127, 126, -20, 75, 23, 21, 78,
   32, 1, 90, 9, 64, 33, -29, -84,
   -28, -25, 105, 30, -124, -120, -85, 125,
   -26, -50, -127, 32, 123, 32, -120, -112,
   -66, -25, 126, 63, -42, 48, -37, 75,
   -57, -6, 126, -7, -124, -113, -16, -123,
   50, -125, 83, 78, -5, -69, -24, -52,
   81, -30, -127, -7, 105, -35, 14, 125,
   -70, -71, 18, 7, -57, -5, -65, -61,
   88, 39, 74, 30, 126, -114, -8, 79,
   36, 72, 103, 94, 99, -34, -62, -127,
   110, -31, 40, 44, -36, -34, 12, -3,
   54, 67, -123, -30, -33, -52, -6, -21,
   20, -25, -55, -9, 58, -127, 125, -121,
   12, -31, -72, 42, -126, -49, -126, 61,
   -2, 30, -116, -42, -68, 120, 116, 126,
   -9, 112, 121, 28, -17, 26, -52, 123,
   -3, -54, -112, -85, -68, -54, -125, -125,
   -111, -95, 127, 73, 102, 101, 117, -24,
   -37, 112, -51, 62, -15, -127, -43, -123,
   -98, -126, 27, -67, -114, -83, -127, 39,
   -35, -102, -127, -52, -53, 30, -8, -110,
   127, -124, -57, 117, 19, 34, 108, 126,
   -57, -11, -9, -33, -70, -127, -78, -4,
   40, 29, 44, -102, -97, -22, -67, 67,
   28, 78, -99, 127, 47, 126, 20, 122,
   4, -110, -21, 60, -45, 119, -8, -45,
   126, -1, 13, -20, 60, -52, -52, -127,
   -26, -127, -21, -50, -108, 61, 60, 126,
   -74, -53, 49, 111, 28, -11, 88, -44,
   -6, 118, -58, -18, 20, 36, 51, 27,
   9, 0, -70, -39, -50, -29, 33, 97,
   72, 96, -87, 44, -8, 121, -36, -48,
   -46, -105, -104, 83, -74, -61, -8, 95,
   126, 14, -27, -43, 82, 80, 20, -123,
   -127, -78, -127, 18, 126, -7, 126, 11,
   20, 51, -60, -19, 122, -20, 83, -67,
   -103, 17, -127, 80, 10, 70, 126, -37,
   -52, 52, -127, 109, 127, -2, -52, 45,
   -128, 7, 54, -21, -126, -45, -16, -122,
   -120, -55, 124, -99, 102, 37, -56, 124,
   -8, -65, -10, -31, -52, -64, 21, 127,
   -126, -81, 73, -86, -105, -66, -109, 70,
   -10, -62, -127, -4, -72, 125, -8, -38,
   -127, 14, -6, -108, 127, -62, -89, -81,
   -111, 80, -12, -82, 1, -117, 71, -125,
   -83, -2, -27, 32, 61, 82, 33, -23,
   76, -18, 13, 77, 24, 33, 73, 53,
   36, -38, 127, 1, -43, -106, 73, 118,
   -22, 14, -41, -124, -67, -2, 122, -4,
   16, 37, 127, -43, -119, 49, -52, 16,
   127, 125, -127, -20, -103, 85, 127, -78,
   -108, 12, 78, -56, -32, 9, 107, 126,
   46, -7, -122, -107, 25, -127, -55, 127,
   8, 126, 127, 13, -32, 56, 64, -26,
   36, -126, 89, -28, 127, -69, 113, -109,
   -105, 89, 127, -70, -46, -92, -21, -127,
   93, -44, -127, 127, 127, 96, -72, -81,
   -20, -12, 67, 32, -36, -87, -17, -5,
   -2, -25, 61, -16, -69, 75, -19, -54,
   -120, 50, -100, -80, 8, 21, -26, 15,
   6, 61, -29, 42, 38, -56, 73, -39,
   -1, -39, 4, -24, 84, -96, -64, -18,
   0, 2, 17, 118, 31, -42, -51, -53,
   103, 4, 7, -45, -6, 59, -108, 116,
   -26, -4, 42, -92, -14, -19, -126, -39,
   79, 33, 125, -70, 50, -77, -53, 62,
   -25, -127, -57, 25, 8, -3, -122, 0,
   127, -23, 127, -44, 125, -112, -24, -58,
   38, 106, -33, -85, -127, 93, -39, -1,
   -36, 7, 75, -6, -36, -50, -94, 76,
   -12, -90, 48, 127, 24, 61, -124, 71,
   38, 14, 34, 58, 26, 62, 23, 53,
   0, -72, -86, -25, -73, 72, -86, 111,
   13, 20, -48, 113, 16, -126, -16, 52,
   -32, -112, 19, -10, -16, 29, 6, -16,
   -33, -25, 60, -78, 70, -101, 5, 35,
   -5, 35, 3, -8, -55, -99, 22, -33,
   116, -2, -99, -40, 99, -50, 24, -41,
   -60, -12, 50, 73, -15, 17, -102, 64,
   15, -2, 38, 0, 19, 45, -125, -35,
   33, 58, -25, 48, -127, -104, -71, -106,
   -3, 18, 64, -11, -64, -91, -11, 24,
   -13, 84, -44, 28, -53, -122, -18, -18,
   59, 91, -63, 56, -117, -11, 3, 11,
   127, -40, -51, -34, 91, 83, -12, -15,
   -81, -93, -126, -87, -31, -125, 92, 7,
   -13, 37, -27, -53, -28, -37, -116, 35,
   58, -12, 24, -20, 45, -43, -124, 90,
   -15, -40, 78, 33, -57, 9, -124, -46,
   9, 66, 50, 49, -56, -43, -67, -72,
   -59, 32, 37, -21, -7, 28, -107, 127,
   74, -25, -126, -84, 71, -19, 77, -44,
   -22, 11, 43, -13, 61, 126, -75, -14,
   -6, 42, -99, -76, 71, -18, 29, -5,
   -90, -25, -92, 56, -58, 83, 5, 1,
   116, 19, 118, 69, 17, -63, 57, 64,
   58, -10, -98, -42, 86, -25, 69, -83,
   -45, -3, -6, 30, -59, 115, -15, 16,
   -5, 71, -57, 10, 63, -23, 80, -9,
   -33, 2, -92, 80, 10, 23, 14, 19,
   10, -23, 25, 14, -51, -118, 126, 15,
   -92, -104, -70, 46, -32, -47, -51, 28,
   -46, -93, 69, -23, 41, 71, -14, -5,
   -123, 125, -71, 31, 42, 121, 10, -6,
   -46, -53, -7, -38, 125, 108, 9, -114,
   56, 24, 70, 66, -6, 70, 24, 117,
   2, 86, -7, -124, -52, -50, -28, -58,
   4, 12, -54, -59, -125, 41, 5, 8,
   -51, 10, 51, -35, 7, -92, 87, -31,
   115, -54, 20, 97, -9, 27, -65, -34,
   -95, 61, -67, 18, 91, 8, 23, 21,
   38, 61, -47, 58, 71, -55, 16, -81,
   -126, 112, 127, 67, -3, 50, -29, -70,
   39, -61, 18, 17, 57, 47, 26, -74,
   1, 78, 6, 5, -38, -127, -10, -111,
   -98, -25, -60, -127, 109, -49, 40, -39,
   -127, -36, 99, -71, 125, -41, 116, -57,
   11, 15, 126, 65, -77, 20, 124, -78,
   -51, -116, -52, 121, -41, -24, 4, 91,
   -29, -17, -14, 5, -20, -17, 12, -39,
   -91, 31, 22, -20, -122, 26, 53, -34,
   78, -71, 4, -79, 118, 109, -55, 92,
   -23, 38, 74, 51, 36, 3, 69, 110,
   -35, -32, 97, 95, -61, -38, 127, 54,
   -36, 41, 13, -86, -6, 43, 26, 35,
   19, -51, -8, 123, 17, -31, -91, -25,
   40, -77, -128, -66, -72, -125, -60, -127,
   11, -41, 122, -20, -12, -127, -59, 18,
   -76, -22, -7, 22, 25, -52, -1, -14,
   -11, 29, 125, -92, -23, 49, -73, 70,
   -126, -63, 127, -11, -127, -30, 8, -7,
   -11, -111, 124, 72, -121, -105, 127, -4,
   71, 82, 67, -40, -74, 30, 40, 62,
   -59, 65, -3, 117, 124, -36, -5, 18,
   122, 62, -70, 124, 54, -27, -83, 38,
   85, -91, 9, 127, -127, -78, -105, -126,
   -124, -35, 92, 125, 77, 42, 63, -56,
   60, 110, 55, -27, -60, 19, -38, -121,
   50, -107, 35, -3, -108, -4, -52, 36,
   -72, 127, -56, -127, 99, 112, -95, -45,
   22, -7, 55, 111, -2, -53, 1, 117,
   -36, 29, -50, -104, -52, 20, 40, -11,
   -47, -28, -3, -12, 98, -42, -16, -77,
   -59, -37, -127, -64, 127, -81, 4, 19,
   109, -81, -62, -19, -125, 10, 18, -120,
   58, 51, -80, 22, 29, -9, 34, 45,
   -124, 49, -58, 7, 15, 55, -90, -30,
   127, -41, -28, 122, -66, 24, 79, 74,
   -9, 72, 8, -61, 10, 121, -51, 53,
   127, 113, 119, 15, 40, 46, 75, 9,
   6, 26, 101, 21, 77, -116, 36, 121,
   -103, 11, 50, 31, -2, -87, 34, 122,
   0, -47, 28, -66, -127, 112, 32, -39,
   -89, -102, 53, -28, -103, -8, -24, 61,
   113, -2, 43, 123, -51, 13, -1, 101,
   115, -118, 127, 18, -13, 49, -10, 10,
   -14, 25, -36, 0, 51, -92, -98, -43,
   55, -105, -51, 104, -83, 125, -102, -32,
   -41, -26, -33, 2, 86, -97, -23, -58,
   9, 10, 127, -41, -3, 27, 109, -15,
   18, 91, -65, 14, -67, 2, -32, -66,
   -88, -16, 26, -31, -29, 19, -93, -25,
   -45, 79, 41, -124, -5, 34, -47, 1,
   66, 112, 124, 65, -43, 63, -41, 14,
   -43, -5, -33, 27, 77, 66, 36, -83,
   -77, -8, 41, 97, 43, 58, -49, 50,
   -7, 25, 13, -77, -25, -6, 39, -53,
   64, -16, -41, -116, -41, 79, 77, -39,
   -11, -39, 64, -70, -87, -80, -42, 84,
   -48, 13, -39, 69, -23, -40, 26, -7,
   -9, -5, -81, -8, -14, 43, 13, 64,
   5, -80, 23, -30, -3, -45, 73, 127,
   11, 40, -61, -35, -56, -16, -128, 24,
   0, -22, 124, 66, 54, -127, -76, 29,
   -21, -43, 62, -59, -117, 4, 112, -15,
   77, -17, -14, 25, 111, -123, 29, -26,
   -40, 24, -64, 22, -85, 85, -8, 69,
   -76, -1, 23, 31, 13, 15, 71, 96,
   15, 16, -83, 104, 85, -38, 64, 55,
   9, 45, 27, 65, 3, 16, -3, -10,
   19, -6, -1, 42, 60, 79, -64, 123,
   -43, -6, -115, -4, 6, -74, 3, -46,
   65, -37, -12, -24, -23, 59, 1, 25,
   51, 74, 17, 2, 62, -28, -29, -3,
   38, 19, 49, -84, -83, 9, 36, 26,
   44, -13, -40, -81, -9, -25, 27, 76,
   40, 2, -25, 43, -32, -58, 29, 68,
   -124, -67, -34, 14, -26, 70, -72, 34,
   28, 8, 48, 9, -35, -27, 117, 1,
   96, 7, -9, -71, -3, -65, -5, -5,
   -11, 0, 31, 3, 39, 80, 25, 45,
   45, -76, -8, 36, 28, 122, 96, -58,
   5, -29, 11, 37, -33, 53, -93, 74,
   -11, -45, 74, 10, -54, -127, 37, 64,
   37, -8, 37, 95, -4, -3, -24, 70,
   60, 24, -109, -39, -18, 40, 0, 36,
   -24, -87, 17, 6, 20, 115, 3, 44,
   9, 105, -14, 54, -89, 68, 127, -66,
   47, 37, 35, -9, -17, -19, -6, 36,
   -73, -31, 37, 33, 126, 67, -29, -49,
   -47, 28, 0, 20, 81, 33, -24, 9,
   -75, -11, -12, 58, -32, -32, -52, -8,
   -52, 126, -24, 23, 13, -46, -68, 26,
   -27, -35, -57, -1, 36, 20, 36, -20,
   -65, -39, -79, -11, 71, -35, 28, 16,
   59, -15, 99, -84, -98, -7, 67, 18,
   -43, -14, 46, 14, 40, -17, 22, 9,
   -27, 39, 58, -3, 44, 8, -82, -25,
   42, -58, 43, 53, -36, -1, 108, 79,
   -115, 64, 8, 41, -69, 52, -17, -53,
   93, -27, -6, -60, 40, 44, -112, 41,
   -126, 31, -48, 125, -66, 122, 40, -52,
   -10, 44, 13, -74, 32, 25, 78, -26,
   46, 7, 14, -65, -11, -16, 12, -1,
   27, -8, -27, -110, -26, -22, -50, 25,
   14, -19, 14, -81, -96, 24, -24, -5,
   -1, 77, 11, -85, 11, -8, 89, 12,
   30, 40, 65, -12, 36, 100, -19, -54,
   -47, 69, -125, -28, 53, -82, -14, 33,
   89, -34, -26, 63, -31, 2, 115, -110,
   52, -76, 119, -45, 42, 91, 14, 33,
   -124, 18, -113, -52, -44, -47, 11, 38,
   85, -117, -3, 38, 81, -48, -56, 76,
   -84, 0, -89, -101, 31, -109, 16, 91,
   44, -8, 61, 64, -67, -88, 29, 50,
   83, 110, 18, 20, 51, -39, 34, -21,
   121, 45, -85, -81, -126, -1, -26, 116,
   -69, 24, -69, 69, -63, 86, -12, 17,
   -32, 67, 49, 3, -98, -4, -1, -107,
   -55, -69, -21, 57, -89, 98, -72, -28,
   -78, -54, 37, -10, -31, 10, -19, 34,
   70, -30, -21, -40, 31, 55, 61, 12,
   2, 103, -100, -49, 52, 32, -2, -25,
   -12, -127, 63, 44, 21, -33, 23, 62,
   -42, -48, -93, 31, 17, -13, -28, -41,
   -12, 23, 46, 22, -123, -10, 73, 19,
   15, 12, 31, -71, -22, -56, -60, 31,
   -87, 21, -12, -81, -38, 35, -38, 9,
   -102, 56, 108, 75, 100, -13, 49, 7,
   -20, 8, -10, -1, -39, -92, -46, -67,
   -12, -26, 122, -7, -27, 96, -40, 45,
   49, 14, -19, -16, -51, 5, 26, -78,
   102, 26, -78, 44, -6, 64, 68, -81,
   -7, 126, 29, -126, 7, 40, -64, -119,
   -13, -20, -1, 45, -19, -29, 124, 67,
   24, 53, -36, 98, -42, 65, -18, -8,
   -8, -60, 64, 42, -63, -38, -34, 38,
   -37, 39, -68, 48, 7, -54, 1, 56,
   46, -61, 90, 8, 96, -10, -20, 61,
   15, -18, 115, -126, -22, 21, -75, 44,
   69, 35, 19, -105, -37, 21, 23, -16,
   -107, -8, -47, -45, 91, -9, 39, 29,
   -108, -11, 47, -1, 37, -55, 34, -22,
   -13, 28, 18, 42, -32, -16, -73, 19,
   -49, 49, 39, -6, 2, -22, -67, 5,
   108, 49, -36, 7, -19, -125, 111, -74,
   43, 50, 98, 78, -98, -55, -13, 0,
   35, -13, 126, 109, 72, -47, 74, 79,
   46, 84, 26, -4, 33, 24, -13, -35,
   97, 0, -35, -123, -112, -20, -104, -32,
   -38, -9, 39, -27, 49, 38, -22, -116,
   127, 82, -17, -101, 3, 28, -48, 61,
   -25, -45, 64, 43, -113, 3, 22, 43,
   33, 83, -9, 24, 109, 24, -84, 26,
   9, 18, -37, -110, 113, 62, -111, -73,
   4, 1, -38, -2, 5, 54, 20, -67,
   12, -30, -12, -2, -24, -64, -54, 83,
   -33, 15, 120, -60, -23, -3, -110, -90,
   83, 41, -9, -21, 28, -33, -18, 92,
   -117, 53, 4, 65, 61, 2, 80, 38,
   -16, 51, 11, -109, -49, 2, -38, -57,
   -6, -1, -55, -55, -91, 126, 31, 33,
   -80, 98, -52, 44, -15, -102, -102, -7,
   120, 62, -40, -105, 52, -93, 95, -49,
   -36, -35, -40, 118, 109, -39, 57, 44,
   -91, -35, -25, 49, -114, 71, 38, 26,
   -51, 8, -35, -3, -38, 42, 49, 99,
   -41, 39, 38, 80, -6, 72, -64, -52,
   -14, 26, 25, 9, -24, -66, 16, -4,
   -28, -32, -58, 21, -8, 35, 11, -127,
   27, 0, 47, -73, 25, -13, 58, 62,
   -7, -5, -9, 104, -16, 65, 19, -42,
   14, 4, 30, 1, 7, 71, -25, -7,
   -50, -7, -2, -68, -118, 14, 8, 70,
   -15, 32, 109, 90, 73, 16, -70, -55,
   -58, 28, 25, 3, -4, 2, 29, -31,
   78, 56, 1, 11, -26, -11, 22, 70,
   -32, -5, 14, -14, -76, 0, 8, 9,
   32, 43, 42, 24, 22, -31, 9, 10,
   43, -45, 56, -28, -7, -43, 52, 75,
   29, 13, 38, 5, 40, 34, 21, -23,
   -11, -48, 65, -23, 31, -121, 116, -32,
   -23, -65, -4, 14, 41, -126, -47, -17,
   28, 37, -65, -39, -100, 79, 51, 25,
   -15, -3, 74, -45, -126, 61, 81, 122,
   -123, -3, -112, 36, -5, 33, 11, -25,
   50, -25, 0, -125, -96, -65, 32, 59,
   49, -37, -90, -68, -27, -15, 9, 44,
   1, -14, 72, -70, 38, -57, 1, 44,
   -15, -40, -51, -7, -35, 95, -32, -127,
   -37, 7, 53, -90, 15, -11, 14, -80,
   11, 117, -38, -4, -15, -39, -55, 56,
   -18, -34, 75, 74, 46, -36, 29, -15,
   69, 26, 61, -17, -60, -35, -119, 7,
   65, 32, 25, -19, 33, -41, -14, 51,
   46, 19, -2, -20, -13, -21, -68, -36,
   3, 5, 43, 70, 49, -77, 36, -83,
   26, 46, -37, 16, -61, -48, -88, 14,
   7, 2, 52, 3, -8, 30, 27, -8,
   -28, -86, -121, 127, -121, -52, -115, 67,
   -52, 61, 124, -117, -90, -47, -104, -32,
   126, -21, -19, -4, 94, 73, -22, 12,
   -46, 65, 123, -38, -9, 94, -2, 14,
   -66, -50, -62, 41, -106, 42, 17, 45,
   112, -23, -23, -127, 96, 6, 40, 6,
   38, 91, -79, -49, -9, 9, -44, 123,
   -40, 1, 24, -45, 18, -36, 8, 68,
   -25, -21, 9, -122, -65, 30, 22, -23,
   1, -3, 45, -79, -46, -41, 86, 57,
   38, 127, -121, 71, 74, 30, -35, -57,
   78, -40, -24, 84, -6, -18, 113, 66,
   51, -16, 47, 55, -74, -18, -24, 35,
   45, -34, 18, -27, 97, 81, -42, 16,
   68, -61, 10, -21, 41, -34, -7, 8,
   22, -125, -34, 82, -4, -46, -79, -10,
   -17, 75, 38, 23, -49, -17, -70, 50,
   27, -45, 83, 49, -20, 34, 28, -6,
   127, -1, -117, -79, 31, 121, -53, -113,
   -62, 3, -26, 33, 13, 23, -36, 95,
   4, 61, 5, 38, -4, 113, 59, -1,
   -127, -86, 7, -31, -3, -85, 13, 88,
   121, -47, -27, 34, -123, -23, -103, -34,
   -12, -46, -66, 54, -26, -15, 38, -15,
   -82, 68, -65, 44, 44, -49, 38, -2,
   43, -20, 5, 56, 43, -69, -18, 33,
   89, 68, 4, -20, -83, -75, 121, 23,
   20, -45, 48, 80, 16, -118, 52, 106,
   -55, 15, -75, -106, -50, 18, 98, -17,
   -20, 16, 1, 11, -39, -25, -72, 32,
   -70, -23, -73, -14, 87, 8, 60, -58,
   120, -17, -3, 20, -37, 69, -35, -63,
   -70, -38, 16, 31, -2, 63, 74, 45,
   -25, 40, 59, -21, 54, 81, 40, 39,
   15, 9, -28, 25, 27, 1, 64, 8,
   18, -8, -35, -67, -3, 65, 22, -6,
   -50, 86, 8, -16, 97, 52, 19, 112,
   19, 36, -75, -32, -125, 5, -23, -13,
   -30, 100, -110, -115, -15, 90, 126, 48,
   113, -105, -35, 19, 7, 127, 21, 67,
   28, -2, -101, -45, -65, 111, 1, -20,
   -15, -29, -21, -41, -125, 38, 84, -7,
   60, -77, -115, 41, 74, 13, 1, 27,
   70, -45, -33, 115, 61, -29, 29, 13,
   -73, 13, 127, -9, 29, -66, 82, -3,
   33, 93, 3, -26, -34, -126, 35, -6,
   -44, 63, 112, -59, 52, -68, 7, -28,
   -37, -57, 51, -97, -114, 0, 79, 7,
   39, 27, 8, 67, -15, 11, -66, 58,
   -39, 89, 14, -12, 71, -43, -28, -51,
   -24, -9, 6, -13, 28, -39, 23, -35,
   92, -10, 0, 19, -23, 41, -81, -20,
   -65, 123, 32, 17, -40, 3, -21, -59,
   -38, 60, 25, -33, 39, 95, 100, -18,
   127, 61, -117, 125, 91, 30, 48, -18,
   -12, -24, 74, -115, -108, 119, -79, -8,
   116, -10, 62, 60, -81, 74, 58, 69,
   93, -62, -52, 18, 24, 120, -70, -81,
   17, -47, -16, -46, -5, -63, 39, 59,
   27, 30, 62, -107, -25, -74, -78, 56,
   74, -100, 51, 81, -72, 16, -34, 51,
   8, 35, 15, 25, 9, 9, -77, 77,
   -4, -56, -1, 8, 20, 117, 66, -113,
   67, 61, 59, -44, -30, -15, -10, 38,
   -12, 63, -66, 51, -69, -127, 122, -86,
   -93, 52, 13, -15, -4, 30, 32, 39,
   53, -12, 62, 24, -31, 5, -91, 66,
   29, -2, -15, 16, 44, -83, 46, -43,
   71, 44, -12, -2, -15, 16, -71, -4,
   22, -81, -36, -1, -55, -97, -26, -71,
   -13, -50, -44, 53, -21, 66, -46, 12,
   54, 50, 127, -72, -40, 56, 6, 88,
   -15, 43, -16, -5, -21, 47, 8, 42,
   51, 84, 34, -18, -30, 65, -11, -2,
   5, -74, -41, -6, 19, 14, -32, -17,
   16, -3, 12, 6, 49, 35, -20, -47,
   -18, -43, 29, -13, 25, -12, -1, 0,
   -18, -5, 39, 6, 22, 1, -43, 14,
   36, 74, 45, 0, -29, 12, -94, 23,
   54, 33, 12, -12, 65, -43, -45, -19,
   -121, -38, -14, -38, -2, 14, 1, 56,
   -14, -16, -39, 41, -16, -78, -10, 1,
   -25, -10, -13, 1, -17, 42, 11, -19,
   6, 30, 6, 5, -11, 10, 22, 8,
   2, -3, -2, -3, 4, -3, -25, -7,
   -21, 44, 9, 24, -18, -18, 8, -16,
   10, -18, 9, -3, 21, -15, -20, -14,
   9, -8, 19, 21, 21, 56, 5, -6,
   17, 11, -9, 16, 12, 11, 9, -35,
   -9, -11, 43, -4, -26, -21, 35, 12,
   85, -5, -35, -38, -20, -128, 22, -11,
   -14, 1, 20, -47, 64, 87, 23, 44,
   -43, 37, 38, -119, -74, 4, 20, -22,
   20, -31, 5, -51, -64, -85, -39, 18,
   -4, -104, -5, -126, 33, -92, 26, 5,
   -15, 16, -24, -44, -125, -34, -52, -125,
   15, -64, -18, 29, -51, -72, -37, 64,
   1, -5, -98, -72, 49, 73, -79, 14,
   64, 5, -25, -1, -26, 39, 61, -52,
   -45, -36, -80, -16, -37, -13, 62, 30,
   96, -27, -16, -71, -5, -109, 0, -2,
   -86, -12, 21, 74, -66, -70, -43, 4,
   2, -6, -8, 6, 29, -101, 30, -4,
   -33, 20, -15, -3, 59, 96, 2, 26,
   -107, 0, 4, -17, -16, -5, 77, -15,
   41, -25, -19, 12, 3, 29, -16, -17,
   -51, 2, 12, -90, 29, -4, 37, 25,
   45, 62, -9, -5, 21, 0, -21, -7
};

static const rnn_weight noise_gru_recurrent_weights[6912] = {
   10, -16, 47, 17, -14, -21, -46, 34,
   -8, 39, 29, 8, 61, 90, -64, 18,
   75, -85, -59, -59, -21, 57, -8, 70,
   34, 50, 59, 86, -2, -20, -21, 12,
   -52, -24, -122, 40, -16, 2, 22, 63,
   17, -2, -21, 72, 13, -22, -2, -22,
   22, -13, -25, -35, 57, -37, -14, 23,
   -4, -5, 14, 3, -25, -28, -14, 21,
   -23, -56, -43, -50, -17, 51, -2, 54,
   14, 16, 37, -78, 0, -10, -47, -72,
   -14, -9, -65, 6, -28, -12, 7, 58,
   21, 69, 127, -36, -20, 113, 11, -22,
   -23, 7, -59, 28, -22, 8, -74, -14,
   12, -51, 59, 26, 44, -17, -22, -57,
   3, 4, 12, 11, 4, -92, 24, -8,
   -37, -40, -49, 7, -46, 44, 16, -80,
   -34, 121, 19, 6, -3, 14, -22, -85,
   -41, -5, 67, -24, -12, -34, -12, 33,
   11, 3, 52, -9, 110, 59, -60, 94,
   -17, 76, 9, 39, -103, 43, 53, -8,
   32, -4, 6, -24, -51, 38, 7, -7,
   7, 68, 44, 127, 19, 52, -127, -3,
   -36, 14, 36, -28, 32, 43, 7, -36,
   4, -35, -17, 15, -57, -15, -12, 124,
   37, 25, -72, -1, -53, -17, -30, 6,
   -40, 10, 26, -45, -10, -22, -26, -71,
   74, -13, -36, -13, 25, -15, -11, 15,
   18, 10, -54, 77, 47, 53, 8, -13,
   69, -38, -22, 10, 10, 42, 18, -40,
   -35, 5, -11, 25, -11, -16, -57, 8,
   -11, -17, 0, -29, -29, -44, -23, 3,
   57, 44, 16, -16, -1, -56, -73, -18,
   67, -36, -55, -9, 30, -39, 11, 36,
   18, 77, -47, -51, 21, 38, -58, 30,
   6, -19, 80, -41, 36, -33, -43, -60,
   25, -2, 51, -1, 19, -41, -61, -8,
   -47, -42, 25, -13, -31, -32, 7, 53,
   -17, -30, 27, 71, 5, 20, -47, 88,
   -39, 24, 44, -16, 10, 51, 2, 45,
   31, -4, 59, 32, -12, -5, -44, -29,
   25, 68, 38, -23, 19, -72, -23, -4,
   -57, -14, 35, 13, 47, -18, 7, 79,
   -31, -24, -5, -74, 21, -2, 77, -2,
   -21, -29, 7, -40, 22, -68, -89, 74,
   -4, 49, -8, -37, -1, 26, -61, 50,
   22, -36, 3, -15, -5, -7, 38, 91,
   25, -60, 12, -38, 36, -3, 13, 31,
   8, -50, -44, 20, -5, 13, 70, 9,
   -38, 42, -18, -6, 1, -7, -11, 10,
   13, 16, -46, -14, -54, -10, -79, -28,
   -14, -16, 44, 69, -19, 50, 31, 41,
   13, 17, 2, 11, -50, -9, -57, -6,
   8, 28, 85, -30, -55, -61, -50, -34,
   44, -58, 41, 32, 64, 58, -44, -59,
   23, 36, -38, -36, -17, 64, 6, 71,
   39, -15, 2, 26, 32, 83, -36, 26,
   -60, -17, 37, 10, -52, 109, -12, 94,
   8, 67, -53, 64, -38, 31, -23, 3,
   33, -25, 13, -84, 13, 25, -28, 11,
   -43, -11, -27, -9, -63, 87, -8, 69,
   -4, 22, 7, -96, -2, -45, 6, -27,
   -24, 66, 18, -27, 26, 19, -75, 25,
   -12, 8, -20, -8, -16, -2, -28, -38,
   28, 34, -9, -2, -8, 6, -34, 53,
   31, -31, 48, 4, 43, 14, 6, -21,
   17, -18, 18, -7, -3, -21, -37, -36,
   -34, -10, -31, 15, -53, -33, 28, -38,
   -36, 24, -15, 48, -50, 32, -28, 18,
   34, 55, 32, 96, 97, 4, -30, -12,
   16, 32, 5, -53, -3, -52, 13, 12,
   10, -56, 64, -2, -7, 17, -45, -26,
   -18, 9, -8, 32, 11, -70, -31, -74,
   0, 12, 50, 30, -18, -42, 102, -25,
   52, -20, -62, 19, 46, -17, -57, -63,
   -95, -37, 25, -100, -21, -18, 86, -44,
   -28, 13, -73, -40, -12, 63, -40, 18,
   -32, 8, -41, -6, -20, -43, -73, 20,
   -51, 22, 50, -8, 61, -100, -18, 0,
   31, -4, 28, 67, -11, -48, 14, -43,
   30, -3, 51, 12, 9, 12, -17, -64,
   -28, 9, 15, -22, -37, 32, -6, 79,
   9, -46, 67, -6, -37, -44, 2, -1,
   -13, -22, -21, 67, 40, -31, -37, 30,
   10, -45, 80, -9, -22, 66, 47, -18,
   -1, 16, -30, 19, -49, 22, -57, 17,
   -5, 24, -3, 60, 32, 46, -6, -4,
   19, 46, 5, -45, -25, -15, -7, -5,
   -67, -45, 25, 48, 47, -55, -11, 21,
   -45, 37, -43, 37, -18, 6, -38, -61,
   -57, 54, 30, -35, 58, -15, -68, 67,
   -49, -70, 7, -32, 33, -54, 26, 37,
   5, -15, -43, 47, -42, 121, 44, 105,
   42, -50, 12, 7, -9, 120, 17, 126,
   14, 78, 10, 85, 24, -31, -116, 25,
   -4, 53, -24, 40, 49, 4, -28, -17,
   20, -33, 29, 31, 22, 6, 73, 1,
   28, 0, 8, 47, 19, -23, -21, -18,
   11, 72, -6, -1, -5, 11, 4, 5,
   17, 8, 55, -18, 3, -63, 7, -16,
   37, 41, 59, -32, 4, 21, 22, -35,
   -23, -81, 31, 29, -8, -67, 26, 44,
   22, 28, 40, -2, -37, 28, 29, -28,
   28, 9, -46, 42, 57, -44, -30, 63,
   117, 33, -10, 2, 21, -36, 23, -4,
   23, -10, -12, 48, 21, -62, 52, 25,
   15, -7, 25, -1, 30, 29, -1, -9,
   22, 29, 40, 99, -28, 22, -41, 21,
   14, 43, 63, 21, 0, 26, 14, -1,
   15, 48, -5, -34, -25, 8, -52, -33,
   89, -42, 35, -17, 34, 112, 22, -39,
   85, 86, 101, -11, 64, 35, -85, 16,
   -68, -35, 17, 34, 8, 80, 19, -55,
   114, -3, 32, 11, 33, -23, 73, -37,
   -32, 47, 75, 86, -102, -6, 125, 33,
   -7, -56, -54, 32, -34, -41, -31, -18,
   -54, 8, -50, 62, 67, 4, 76, -1,
   -13, -52, 14, 46, 58, 3, -53, -49,
   -20, 29, -47, -102, -13, 61, -31, -43,
   5, 15, -23, -22, -14, -20, 32, -35,
   -100, -77, 28, -17, -26, -67, -4, 25,
   46, 0, 41, -40, -8, 33, 14, 31,
   -7, -71, 16, -39, 44, 24, 79, 107,
   2, 45, 45, 18, -14, 5, -8, -28,
   6, -18, 77, 28, -11, -15, -22, 13,
   43, 13, 9, -3, -20, 14, 55, -115,
   1, -66, -55, -68, 9, 97, 40, 58,
   89, -72, 41, -81, 66, -28, -8, 62,
   45, -24, -52, 37, -51, 64, -4, -16,
   41, -22, 34, 18, -40, 80, 1, 68,
   -36, 18, 46, 53, -43, 36, -81, -27,
   -39, 33, -1, 24, -12, 90, -4, 27,
   -4, 6, -42, 84, -44, 16, -22, 19,
   -15, 74, 28, -16, -23, -24, -33, -38,
   -33, 71, 43, -24, -23, 1, -60, 89,
   -13, -32, -33, 1, 44, -46, -28, 62,
   -2, 7, 20, -77, 58, 10, -56, 13,
   58, -27, 8, 32, -4, -13, 68, 15,
   28, -24, 10, -19, -54, 2, 29, 16,
   15, -74, 24, 27, 88, 52, -65, -39,
   -11, -35, -69, 6, 59, -89, 16, 39,
   -46, 82, -49, -58, -41, -60, 74, -5,
   56, 39, 76, 37, -6, -12, 44, 62,
   -50, 6, -127, 46, -8, 39, 63, -11,
   115, 51, -13, 2, 0, 36, 30, 42,
   -56, -80, 50, -5, -2, -26, 29, 27,
   -78, 46, -2, -36, -31, -27, -21, 111,
   24, -52, 26, -20, 70, 92, 83, 67,
   71, -16, 53, 57, 47, -78, 42, -22,
   121, -70, -61, 36, -72, 11, -12, 13,
   87, -14, 35, 51, -6, 46, 62, 93,
   20, 35, -13, -4, 35, 11, 39, 30,
   -12, -35, -3, 119, -44, 32, -31, 85,
   76, 60, 12, 0, 7, 20, 64, 26,
   17, 10, 14, -32, 24, 45, 22, -16,
   2, -22, 3, 3, -38, 24, 58, -11,
   -23, 15, -54, -76, -13, 20, 12, -37,
   56, 81, 1, -8, -73, 9, 34, 29,
   9, -6, -34, -19, -31, 24, 2, -21,
   -59, -28, 66, 57, -78, -31, 38, 17,
   16, -18, 20, 41, 106, -39, -2, 1,
   15, 5, 0, -60, -37, 19, 62, 14,
   58, -64, -77, -78, 45, 17, 49, 71,
   -81, 25, 8, -73, -17, -61, -36, 0,
   -31, -12, -76, -7, 12, 37, 11, -24,
   -45, -6, 42, -112, 1, 107, 3, 57,
   64, 1, 38, 37, 53, 57, -26, -19,
   -42, -38, -52, -51, 52, 43, 89, 31,
   5, -1, -23, 44, 19, 28, -12, 11,
   5, 7, 8, 56, -16, 1, 29, -3,
   -2, 36, -115, -29, 99, 38, -2, -51,
   -16, -38, 0, 4, -27, 14, 23, -21,
   -4, 1, -35, 23, -3, 28, 63, -14,
   58, 27, 14, -70, 17, 42, -11, -57,
   36, -29, -59, 46, 43, -79, 24, -19,
   8, 80, 47, -15, 39, -18, 14, -21,
   -46, -37, -4, -9, -1, -18, 28, 10,
   -68, 23, -127, 38, -47, 5, -34, 3,
   39, -9, -44, 28, 42, 90, -9, -21,
   35, -90, -29, -14, 17, 4, 31, -106,
   75, 40, 26, -34, 18, -45, -41, 41,
   22, -34, -25, -68, -15, 3, -28, 49,
   -29, -11, 0, -14, -23, 79, 5, -19,
   -65, -17, 15, -38, 14, 29, 27, 39,
   34, -13, -25, -6, 53, -42, -38, -81,
   40, -52, -95, -15, -2, 11, -41, -6,
   70, 15, -45, 3, -76, -63, -28, 42,
   21, -24, 70, 33, 21, -32, 5, 23,
   -108, 78, 19, -19, 29, -15, 20, -13,
   38, 62, 12, -3, -23, 25, -8, -15,
   -28, -23, 63, 2, 13, 66, 20, -41,
   77, 10, 19, -7, 11, 59, -73, 26,
   -86, -10, -2, -17, 67, -35, 3, 40,
   -11, -82, 58, -21, -119, -15, -38, 46,
   -15, -14, 5, 50, -7, -11, 37, 40,
   -67, -70, -3, -18, -21, -97, -38, -7,
   -10, 47, 47, 87, -121, 38, -23, 21,
   -20, -114, -4, -8, 21, -36, -20, 24,
   0, 15, 37, 100, -52, -53, -48, 20,
   55, 43, -45, 35, -127, -15, 1, 38,
   0, 1, -45, -32, 0, -19, 74, -27,
   -123, -6, -97, -49, 22, 27, -18, -41,
   -7, -40, -27, -37, -43, -47, 33, -63,
   66, -15, -15, -99, -33, -34, -46, -6,
   -37, 7, 6, 83, 7, -41, 4, 29,
   -72, 22, -12, -32, 45, -5, 9, -5,
   1, 27, -5, -20, 35, -17, -65, -42,
   -34, 4, -1, -31, -20, -3, -7, -14,
   -59, -31, -26, 3, -86, -27, 11, -19,
   -38, 63, 12, 7, -51, -20, -17, 15,
   -43, 87, -31, 51, 15, -10, -31, 12,
   40, 97, -37, -21, -19, 127, -29, 32,
   8, 33, 29, -56, -43, 56, -58, 45,
   11, -10, -7, 43, 48, -23, -80, -8,
   3, 49, 2, -42, 104, 23, -12, 19,
   21, -17, -44, -35, 61, -72, -56, 30,
   -39, -28, -41, 2, -28, 68, -27, 28,
   80, 11, -3, 52, 19, -35, 7, 56,
   50, 13, 98, -6, 29, 35, -14, -2,
   -51, -12, -60, -77, -23, 17, 41, 46,
   13, -66, -21, 44, -84, 5, 10, 52,
   -60, -64, 8, 0, 26, -50, -9, -1,
   8, 54, 15, -78, 65, 32, -8, -48,
   -82, -23, -20, -9, 18, 0, 118, 24,
   83, -64, 48, -27, 20, 68, 5, -16,
   9, -75, 54, -116, -11, -4, 16, -89,
   8, 36, -7, -15, 46, -3, -85, -76,
   -42, 69, -42, 26, -82, -3, -19, 20,
   -33, -2, -80, 7, 31, 3, 81, 10,
   1, -40, -6, -11, -20, 30, 98, 42,
   -12, -46, -32, 4, 3, -7, 41, -44,
   51, 24, -13, 22, 16, -55, -73, -2,
   -52, 40, -64, 53, -18, 28, -3, 43,
   3, 113, -14, 50, 47, 31, -9, -40,
   25, 5, 4, -51, 58, -78, 26, -9,
   -41, -23, 17, -58, -33, -50, 54, 43,
   18, 24, 34, 56, -125, -3, -62, -50,
   1, 34, 55, -109, 23, 85, -14, 41,
   -40, 41, -2, 44, -28, 45, -76, 39,
   -33, 21, -126, 43, -121, 37, 39, -23,
   55, 14, -64, 31, 42, 69, -9, 36,
   9, 24, -27, -4, -10, 36, -61, 8,
   -18, 9, -3, -5, 1, -12, 21, 64,
   10, 11, 32, -16, 65, -57, -77, -1,
   51, -19, -3, -20, 7, -57, -4, -16,
   -2, 58, -7, 4, -8, -32, 37, -29,
   -47, 107, -28, 84, -7, -20, 19, 6,
   38, 35, -17, -9, -70, -3, 15, 29,
   -6, 25, 34, 49, 61, -45, 6, 43,
   21, 19, 20, 19, -14, -97, -85, -57,
   8, -82, 46, -4, -45, 20, 5, -37,
   -24, 42, 11, 42, -15, 29, 18, -11,
   -27, -9, -26, -9, 8, -6, 22, 4,
   -75, -30, 0, 112, -25, -29, 38, 7,
   -6, -5, -9, -45, 26, 42, 100, 68,
   -50, -127, 35, -60, -17, 15, 126, -21,
   -12, -94, 3, -36, 50, 42, -18, -86,
   13, -27, -126, -19, -8, -96, 80, -8,
   48, 12, -9, -35, 127, 38, 81, -11,
   9, -27, -19, 54, 47, -33, -13, -39,
   69, -15, -31, 22, 27, 75, 8, 36,
   1, 37, 45, -52, 45, -28, -1, -111,
   18, 81, 39, 3, 70, 70, -4, -52,
   -66, 16, -3, 39, 12, -2, -3, 9,
   -36, -14, 90, 21, 14, 45, 37, 5,
   -8, -8, -10, -69, 55, -4, -15, 32,
   0, -21, -110, 0, 80, 67, 55, 7,
   7, -35, 30, -68, -45, -67, -47, -45,
   -26, -18, 81, 6, -10, -63, 33, -74,
   -18, 41, -36, 23, -115, 27, 16, -38,
   54, 6, -37, -78, 18, 14, -19, 55,
   -108, -1, -2, -16, 6, -83, 109, -56,
   -6, -22, -2, -24, -16, -62, 41, 11,
   88, -52, -63, -6, 4, -53, -28, 5,
   22, 18, -40, 118, -8, 39, 71, -2,
   17, 63, -45, -28, -32, -36, -108, 9,
   3, 28, -63, 12, 45, 0, -44, -32,
   55, 20, 34, -43, -14, -41, -64, -37,
   -83, -11, -41, -21, 2, -38, -15, -43,
   29, 31, -41, -61, -14, 79, -106, -62,
   51, 27, -46, 5, 29, -5, 35, -41,
   -7, 23, 47, 70, -39, 57, -5, 17,
   -5, -90, 17, -13, -91, -74, 35, -9,
   -39, 25, -84, -29, 22, 0, -18, -16,
   -16, 60, 12, -55, -43, -29, 13, -2,
   -75, 48, -13, 44, 67, 47, -92, -58,
   -83, 64, -68, 28, 13, 46, 25, 25,
   4, 4, -37, -37, 11, -24, -19, 22,
   -47, -10, 78, 45, -69, -12, -77, 45,
   65, -7, 3, 31, -73, -49, -44, 42,
   80, 81, -31, 61, 39, 15, -32, 12,
   11, 53, 73, 100, 68, 46, -11, 45,
   -6, 29, -94, -22, 1, -4, 71, 14,
   101, -22, -127, -38, -76, 41, 95, 18,
   -25, -14, -35, 27, 45, 127, 11, 86,
   -27, -84, -18, -4, -20, 5, -29, 11,
   -34, -22, -5, -21, 6, -17, 2, -60,
   16, 64, 18, 31, 100, 31, 30, 62,
   42, 43, 2, -93, -54, -6, 22, -15,
   43, -11, 42, 5, 13, -17, 51, 23,
   -17, 82, 22, 61, -3, -23, 25, 64,
   33, 7, -1, -68, -35, -10, -28, -24,
   19, -3, 5, -10, 0, -43, -4, 4,
   -11, 52, 28, -5, 4, 49, -61, 51,
   3, -1, -3, -109, -18, -9, -66, 99,
   -11, -61, -22, -29, 86, -27, 16, 22,
   44, 21, 3, 12, 27, -32, 18, 5,
   -92, -70, 38, 8, -26, 23, 25, -60,
   -127, -6, 33, -7, 15, -44, -13, -6,
   -30, -24, 15, 32, 43, -24, -8, -6,
   27, -4, -102, 31, 48, 52, -22, -63,
   23, 1, -106, 19, 9, -58, -74, 47,
   -61, 57, 21, 9, -71, -7, -5, 18,
   -15, 25, -6, 37, -9, -43, 21, -20,
   43, 84, -23, -22, 22, -35, 9, -24,
   -18, 14, 50, 23, 41, 41, -65, 48,
   20, -27, -27, 20, 35, 94, -8, 7,
   32, -57, -44, 4, 12, 1, 53, 52,
   64, -76, 10, 20, -58, 38, -7, 20,
   -30, -12, 4, -45, 19, -14, -17, 17,
   8, 22, 0, 51, 1, -7, 47, -30,
   4, -2, -25, 12, 24, -30, -9, 31,
   -9, 23, -117, -34, 21, -23, 26, -13,
   7, 105, 14, 3, 57, 27, 17, -18,
   -39, -52, 10, 1, -16, -22, -28, 0,
   47, -49, 72, 17, -32, -22, -54, -73,
   -64, -2, -27, 32, 1, 45, -80, 30,
   -54, 60, -36, -3, 15, 93, 87, 64,
   40, 15, -52, 54, -68, -23, 14, -90,
   8, 59, -31, 40, -60, -30, -111, -32,
   40, 29, 100, 32, 18, 70, 2, 73,
   -24, 20, 29, 4, -20, -6, -25, 40,
   36, -2, -26, 50, -4, 33, 14, 34,
   7, 87, 20, -69, -73, -6, -12, -53,
   -4, -32, -15, -61, 3, 13, -64, 12,
   -9, -3, -10, 45, -92, 9, -19, -37,
   23, -10, -44, -20, -47, -21, -11, 96,
   -78, 27, -47, 47, 10, 25, 37, 46,
   14, 26, 26, 0, -20, 37, -33, -17,
   -25, 22, 19, 48, 22, -95, 107, -69,
   -43, -105, 38, 62, 80, 48, -46, 64,
   -9, 31, 36, -63, -71, -1, 19, -1,
   -17, -79, -58, -53, 5, -60, 66, 42,
   44, -7, 7, -42, 17, -37, -26, -7,
   2, -69, -22, 17, -16, -14, -24, 15,
   32, -64, -123, -57, -27, 78, -41, 45,
   18, 14, 20, 68, 79, 44, 21, 9,
   47, -84, 48, 35, 42, -21, 9, 13,
   31, -43, 2, 24, -2, 0, 34, -82,
   12, -53, 9, 1, 9, 23, -10, -1,
   17, -19, 44, -27, -6, -54, 27, -10,
   8, 54, -56, -49, -6, 47, -51, 4,
   30, 61, -59, -23, -48, -5, 28, -55,
   -15, -14, 64, -54, -2, 47, -93, 35,
   -14, 1, -42, -21, 0, 23, -32, -105,
   48, -8, 60, 13, -13, 26, -46, -6,
   -36, -122, 1, -18, -1, -54, -10, -41,
   -50, 41, -54, 25, 36, 26, -8, 62,
   -16, 56, -20, 20, 50, -115, 11, 29,
   57, 66, -40, -52, 39, -10, 60, 73,
   -44, 27, -5, 10, -1, 26, -37, -18,
   -63, 121, -113, 101, 47, -46, -67, 2,
   -11, -5, -15, -8, -56, -25, -16, -12,
   16, -31, 38, 84, -18, 77, -74, 50,
   -26, -16, -53, 49, 2, -45, -11, 26,
   -60, -3, -26, -30, -29, 127, 78, -8,
   -117, -19, 18, 42, -36, -25, -14, 42,
   -14, -102, 65, 69, -120, 89, -46, -21,
   -83, 21, -34, 21, -18, 0, 46, -26,
   -50, 29, -109, 37, -8, 25, 43, 23,
   -12, -43, -24, -69, 36, 6, -21, 32,
   120, -99, -87, -94, -20, 0, 84, 20,
   -31, -12, -36, -112, -39, 59, 57, -11,
   49, -63, -32, 14, 71, -26, 7, -50,
   -28, -40, -99, 19, 0, -102, -30, 33,
   -42, 106, -18, -88, 89, -115, -8, 29,
   60, 105, 37, -72, -49, 65, -32, -67,
   -89, -17, 2, -29, -5, 15, 48, -57,
   -37, 42, -1, -2, 35, 75, -68, 90,
   127, -62, -16, 36, 40, -36, -19, -17,
   -7, 1, -27, 7, 46, -27, -58, 6,
   1, -25, -8, 4, 34, 35, 6, -28,
   15, -31, 20, -65, 52, 4, -3, 38,
   30, -39, -64, 65, -52, 36, 40, -28,
   -6, -20, 13, -50, -24, -111, 18, -112,
   9, 6, -39, -31, 3, 32, -1, 18,
   26, -65, 8, -30, 65, 44, 88, 75,
   -41, -57, 47, -22, 39, -32, 45, -79,
   -8, 53, 2, -31, 4, -16, 18, -90,
   35, 2, -4, 52, -21, 25, -43, 59,
   16, 8, -48, 27, 40, -54, 83, -88,
